{"learner":{"attributes":{"best_iteration":"298","best_score":"0.00017504272468326"},"feature_names":[],"feature_types":[],"gradient_booster":{"model":{"cats":{"enc":[],"feature_segments":[],"sorted_idx":[]},"gbtree_model_param":{"num_parallel_tree":"1","num_trees":"300"},"iteration_indptr":[0,1,2,3,4,5,6,7,8,9,10,11,12,13,14,15,16,17,18,19,20,21,22,23,24,25,26,27,28,29,30,31,32,33,34,35,36,37,38,39,40,41,42,43,44,45,46,47,48,49,50,51,52,53,54,55,56,57,58,59,60,61,62,63,64,65,66,67,68,69,70,71,72,73,74,75,76,77,78,79,80,81,82,83,84,85,86,87,88,89,90,91,92,93,94,95,96,97,98,99,100,101,102,103,104,105,106,107,108,109,110,111,112,113,114,115,116,117,118,119,120,121,122,123,124,125,126,127,128,129,130,131,132,133,134,135,136,137,138,139,140,141,142,143,144,145,146,147,148,149,150,151,152,153,154,155,156,157,158,159,160,161,162,163,164,165,166,167,168,169,170,171,172,173,174,175,176,177,178,179,180,181,182,183,184,185,186,187,188,189,190,191,192,193,194,195,196,197,198,199,200,201,202,203,204,205,206,207,208,209,210,211,212,213,214,215,216,217,218,219,220,221,222,223,224,225,226,227,228,229,230,231,232,233,234,235,236,237,238,239,240,241,242,243,244,245,246,247,248,249,250,251,252,253,254,255,256,257,258,259,260,261,262,263,264,265,266,267,268,269,270,271,272,273,274,275,276,277,278,279,280,281,282,283,284,285,286,287,288,289,290,291,292,293,294,295,296,297,298,299,300],"tree_info":[0,0,0,0,0,0,0,0,0,0,0,0,0,0,0,0,0,0,0,0,0,0,0,0,0,0,0,0,0,0,0,0,0,0,0,0,0,0,0,0,0,0,0,0,0,0,0,0,0,0,0,0,0,0,0,0,0,0,0,0,0,0,0,0,0,0,0,0,0,0,0,0,0,0,0,0,0,0,0,0,0,0,0,0,0,0,0,0,0,0,0,0,0,0,0,0,0,0,0,0,0,0,0,0,0,0,0,0,0,0,0,0,0,0,0,0,0,0,0,0,0,0,0,0,0,0,0,0,0,0,0,0,0,0,0,0,0,0,0,0,0,0,0,0,0,0,0,0,0,0,0,0,0,0,0,0,0,0,0,0,0,0,0,0,0,0,0,0,0,0,0,0,0,0,0,0,0,0,0,0,0,0,0,0,0,0,0,0,0,0,0,0,0,0,0,0,0,0,0,0,0,0,0,0,0,0,0,0,0,0,0,0,0,0,0,0,0,0,0,0,0,0,0,0,0,0,0,0,0,0,0,0,0,0,0,0,0,0,0,0,0,0,0,0,0,0,0,0,0,0,0,0,0,0,0,0,0,0,0,0,0,0,0,0,0,0,0,0,0,0,0,0,0,0,0,0,0,0,0,0,0,0,0,0,0,0,0,0,0,0,0,0,0,0,0,0,0,0,0,0],"trees":[{"base_weights":[6.417559E0,6.4222884E0,5.20994E0,6.4237385E0,5.3397665E0,5.6152587E0,2.5703916E-1,6.4241276E0,5.4254866E0,5.707224E0,5.1584153E0,5.6934915E0,2.6052365E-1,6.424958E0,6.2245183E0,5.6643996E0,2.5719988E-1,5.7521696E0,2.5833383E-1,2.6687428E-1,2.5656998E-1,2.8865787E-1,2.766158E-1,6.4254117E0,6.236471E0,6.282056E0,6.056765E0,5.7855506E0,2.710875E-1,2.9198468E-1,2.8139517E-1,3.2127804E-1,3.1540337E-1,3.145697E-1,3.0473185E-1,3.1504425E-1,3.0422997E-1,3.042272E-1,2.898427E-1,2.9686117E-1,2.7989075E-1],"categories":[],"categories_nodes":[],"categories_segments":[],"categories_sizes":[],"default_left":[0,0,0,0,0,0,0,0,0,0,0,0,0,0,0,0,0,0,0,0,0,0,0,0,0,0,0,0,0,0,0,0,0,0,0,0,0,0,0,0,0],"id":0,"left_children":[1,3,5,7,9,11,-1,13,15,17,19,21,-1,23,25,27,-1,29,-1,-1,-1,-1,-1,31,33,35,37,39,-1,-1,-1,-1,-1,-1,-1,-1,-1,-1,-1,-1,-1],"loss_changes":[7.5968E4,2.0736E4,1.4255E3,5.12E3,1.1519375E3,2.0948438E2,0E0,2.176E3,3.1784375E2,1.12359375E2,3.00625E1,4.9171875E1,0E0,1.088E3,4.9125E2,5.0382812E1,0E0,2.578125E1,0E0,0E0,0E0,0E0,0E0,2.56E2,2.0825E2,1.13375E2,6.603125E1,1.9160156E1,0E0,0E0,0E0,0E0,0E0,0E0,0E0,0E0,0E0,0E0,0E0,0E0,0E0],"parents":[2147483647,0,0,1,1,2,2,3,3,4,4,5,5,7,7,8,8,9,9,10,10,11,11,13,13,14,14,15,15,17,17,23,23,24,24,25,25,26,26,27,27],"right_children":[2,4,6,8,10,12,-1,14,16,18,20,22,-1,24,26,28,-1,30,-1,-1,-1,-1,-1,32,34,36,38,40,-1,-1,-1,-1,-1,-1,-1,-1,-1,-1,-1,-1,-1],"split_conditions":[8.24E2,2.56E2,1.286E3,1.25E2,4.16E2,3.1E1,2.5703916E-1,1.2E2,2.55E2,4.5E1,4.8E2,1.112E3,2.6052365E-1,4.6E1,4.11E2,1.28E2,2.5719988E-1,3.22E2,2.5833383E-1,2.6687428E-1,2.5656998E-1,2.8865787E-1,2.766158E-1,1.7E1,1.36E2,3.2E1,3.1E1,1.72E2,2.710875E-1,2.9198468E-1,2.8139517E-1,3.2127804E-1,3.1540337E-1,3.145697E-1,3.0473185E-1,3.1504425E-1,3.0422997E-1,3.042272E-1,2.898427E-1,2.9686117E-1,2.7989075E-1],"split_indices":[0,3,0,1,3,1,0,0,1,1,3,0,0,3,0,0,0,3,0,0,0,0,0,1,3,3,1,1,0,0,0,0,0,0,0,0,0,0,0,0,0],"split_type":[0,0,0,0,0,0,0,0,0,0,0,0,0,0,0,0,0,0,0,0,0,0,0,0,0,0,0,0,0,0,0,0,0,0,0,0,0,0,0,0,0],"sum_hessian":[1.3298475E7,1.3246594E7,5.1880934E4,1.3228867E7,1.7726912E4,7.5501504E3,4.433078E4,1.3223709E7,5.1584673E3,5.8477036E3,1.1879208E4,6.316329E3,1.233821E3,1.3168874E7,5.4834652E4,2.7799065E3,2.378561E3,5.3898984E3,4.578052E2,1.5314546E3,1.0347753E4,4.2037007E3,2.1126284E3,1.3137237E7,3.1636941E4,4.0803105E4,1.4031548E4,1.8389186E3,9.4098785E2,3.1354941E3,2.2544043E3,1.312055E7,1.668683E4,2.277451E4,8.862431E3,3.7222676E4,3.5804275E3,1.2656452E4,1.3750963E3,1.00021564E3,8.3870294E2],"tree_param":{"num_deleted":"0","num_feature":"5","num_nodes":"41","size_leaf_vector":"1"}},{"base_weights":[6.116865E0,6.121345E0,4.972368E0,6.1227074E0,5.097466E0,5.3586407E0,2.453547E-1,6.1230826E0,5.211915E0,5.443168E0,4.9250736E0,5.4315667E0,2.4868882E-1,6.1238165E0,5.915479E0,5.5457883E0,4.99932E0,5.4857116E0,2.4676728E-1,2.5470236E-1,2.4495664E-1,2.75372E-1,2.6390234E-1,6.1242123E0,5.9167905E0,5.975669E0,5.7756615E0,5.60212E0,2.5200102E-1,5.2053823E0,2.4551117E-1,2.7846602E-1,2.6853344E-1,3.0622283E-1,3.0309382E-1,2.983113E-1,2.8914076E-1,2.9959685E-1,2.8844464E-1,2.901655E-1,2.7753967E-1,2.818381E-1,2.5604558E-1,2.6553777E-1,2.4552308E-1],"categories":[],"categories_nodes":[],"categories_segments":[],"categories_sizes":[],"default_left":[0,0,0,0,0,0,0,0,0,0,0,0,0,0,0,0,0,0,0,0,0,0,0,0,0,0,0,0,0,0,0,0,0,0,0,0,0,0,0,0,0,0,0,0,0],"id":1,"left_children":[1,3,5,7,9,11,-1,13,15,17,19,21,-1,23,25,27,29,31,-1,-1,-1,-1,-1,33,35,37,39,41,-1,43,-1,-1,-1,-1,-1,-1,-1,-1,-1,-1,-1,-1,-1,-1,-1],"loss_changes":[6.7904E4,1.8368E4,1.277E3,4.512E3,1.01928125E3,1.8239062E2,0E0,1.984E3,3.58375E2,9.8890625E1,2.640625E1,4.3859375E1,0E0,1.056E3,3.565E2,3.1792969E1,3.5640625E1,2.175E1,0E0,0E0,0E0,0E0,0E0,1.6E2,1.316875E2,7.4375E1,5.4875E1,2.5859375E0,0E0,4.6777344E0,0E0,0E0,0E0,0E0,0E0,0E0,0E0,0E0,0E0,0E0,0E0,0E0,0E0,0E0,0E0],"parents":[2147483647,0,0,1,1,2,2,3,3,4,4,5,5,7,7,8,8,9,9,10,10,11,11,13,13,14,14,15,15,16,16,17,17,23,23,24,24,25,25,26,26,27,27,29,29],"right_children":[2,4,6,8,10,12,-1,14,16,18,20,22,-1,24,26,28,30,32,-1,-1,-1,-1,-1,34,36,38,40,42,-1,44,-1,-1,-1,-1,-1,-1,-1,-1,-1,-1,-1,-1,-1,-1,-1],"split_conditions":[8.24E2,2.56E2,1.286E3,1.19E2,4.16E2,3.1E1,2.453547E-1,1.44E2,1.84E2,4.5E1,4.8E2,1.112E3,2.4868882E-1,5.9E1,4.11E2,4.11E2,2.55E2,3.22E2,2.4676728E-1,2.5470236E-1,2.4495664E-1,2.75372E-1,2.6390234E-1,7E0,1.53E2,3.9E1,2.7E1,1.36E2,2.5200102E-1,1.52E2,2.4551117E-1,2.7846602E-1,2.6853344E-1,3.0622283E-1,3.0309382E-1,2.983113E-1,2.8914076E-1,2.9959685E-1,2.8844464E-1,2.901655E-1,2.7753967E-1,2.818381E-1,2.5604558E-1,2.6553777E-1,2.4552308E-1],"split_indices":[0,3,0,1,3,1,0,0,1,1,3,0,0,3,0,0,1,3,0,0,0,0,0,1,3,3,1,3,0,0,0,0,0,0,0,0,0,0,0,0,0,0,0,0,0],"split_type":[0,0,0,0,0,0,0,0,0,0,0,0,0,0,0,0,0,0,0,0,0,0,0,0,0,0,0,0,0,0,0,0,0,0,0,0,0,0,0,0,0,0,0,0,0],"sum_hessian":[1.3255448E7,1.3203763E7,5.1685453E4,1.3186212E7,1.7551016E4,7.4596904E3,4.422576E4,1.3180773E7,5.438589E3,5.8298066E3,1.1721209E4,6.26034E3,1.1993503E3,1.3134329E7,4.6443996E4,2.106039E3,3.3325498E3,5.3701157E3,4.596908E2,1.5339573E3,1.0187252E4,4.1663516E3,2.0939885E3,1.3109246E7,2.5082846E4,3.2438127E4,1.4005867E4,1.8859117E3,2.2012741E2,9.8863184E2,2.343918E3,3.0824827E3,2.287633E3,1.3057958E7,5.1288324E4,1.8290395E4,6.7924497E3,3.0046303E4,2.3918257E3,1.2450241E4,1.5556251E3,1.7492701E3,1.3664168E2,7.158548E2,2.72777E2],"tree_param":{"num_deleted":"0","num_feature":"5","num_nodes":"45","size_leaf_vector":"1"}},{"base_weights":[5.8319035E0,5.836136E0,4.7483416E0,5.837434E0,4.8636227E0,5.1133084E0,2.3430136E-1,5.837818E0,5.024615E0,5.192569E0,4.700979E0,5.1870284E0,2.3846076E-1,5.8384266E0,5.618538E0,5.3132772E0,4.773113E0,5.2331586E0,2.3561852E-1,2.4308579E-1,2.3382978E-1,2.6297137E-1,2.521961E-1,5.838747E0,5.5988812E0,5.675476E0,5.4945626E0,2.7081424E-1,2.5426838E-1,4.9714675E0,2.3438208E-1,2.6476836E-1,2.544974E-1,2.9195634E-1,2.8965995E-1,2.8225622E-1,2.743512E-1,2.8427145E-1,2.6780245E-1,2.7588782E-1,2.6424742E-1,2.535903E-1,2.3463137E-1],"categories":[],"categories_nodes":[],"categories_segments":[],"categories_sizes":[],"default_left":[0,0,0,0,0,0,0,0,0,0,0,0,0,0,0,0,0,0,0,0,0,0,0,0,0,0,0,0,0,0,0,0,0,0,0,0,0,0,0,0,0,0,0],"id":2,"left_children":[1,3,5,7,9,11,-1,13,15,17,19,21,-1,23,25,27,29,31,-1,-1,-1,-1,-1,33,35,37,39,-1,-1,41,-1,-1,-1,-1,-1,-1,-1,-1,-1,-1,-1,-1,-1],"loss_changes":[6.0576E4,1.6544E4,1.14525E3,4.096E3,9.1421875E2,1.6517188E2,0E0,1.76E3,4.2578125E2,8.828125E1,2.3328125E1,3.7234375E1,0E0,9.92E2,2.25625E2,4.0171875E1,3.315625E1,2.0578125E1,0E0,0E0,0E0,0E0,0E0,2.24E2,5.96875E1,4.875E1,2.665625E1,0E0,0E0,3.7988281E0,0E0,0E0,0E0,0E0,0E0,0E0,0E0,0E0,0E0,0E0,0E0,0E0,0E0],"parents":[2147483647,0,0,1,1,2,2,3,3,4,4,5,5,7,7,8,8,9,9,10,10,11,11,13,13,14,14,15,15,16,16,17,17,23,23,24,24,25,25,26,26,29,29],"right_children":[2,4,6,8,10,12,-1,14,16,18,20,22,-1,24,26,28,30,32,-1,-1,-1,-1,-1,34,36,38,40,-1,-1,42,-1,-1,-1,-1,-1,-1,-1,-1,-1,-1,-1,-1,-1],"split_conditions":[8.24E2,2.56E2,1.286E3,1.07E2,4.16E2,2.5E1,2.3430136E-1,1.84E2,1.84E2,4.5E1,4.8E2,1.112E3,2.3846076E-1,8.8E1,4.55E2,1.28E2,2.55E2,3.44E2,2.3561852E-1,2.4308579E-1,2.3382978E-1,2.6297137E-1,2.521961E-1,8E0,1.76E2,9.6E1,2.7E1,2.7081424E-1,2.5426838E-1,1.52E2,2.3438208E-1,2.6476836E-1,2.544974E-1,2.9195634E-1,2.8965995E-1,2.8225622E-1,2.743512E-1,2.8427145E-1,2.6780245E-1,2.7588782E-1,2.6424742E-1,2.535903E-1,2.3463137E-1],"split_indices":[0,3,0,1,3,1,0,0,1,1,3,0,0,3,0,0,1,3,0,0,0,0,0,3,3,3,1,0,0,0,0,0,0,0,0,0,0,0,0,0,0,0,0],"split_type":[0,0,0,0,0,0,0,0,0,0,0,0,0,0,0,0,0,0,0,0,0,0,0,0,0,0,0,0,0,0,0,0,0,0,0,0,0,0,0,0,0,0,0],"sum_hessian":[1.321085E7,1.3159444E7,5.1405562E4,1.3141901E7,1.7543115E4,7.485176E3,4.3920387E4,1.3135688E7,6.2129214E3,5.793935E3,1.174918E4,6.1528804E3,1.3322954E3,1.3099308E7,3.6379883E4,2.883382E3,3.3295393E3,5.3332363E3,4.6069888E2,1.5214414E3,1.0227738E4,4.0620798E3,2.0908005E3,1.3081784E7,1.7523941E4,2.4899525E4,1.1480357E4,1.9701656E3,9.1321655E2,9.854439E2,2.3440955E3,3.6930447E3,1.6401917E3,1.2973542E7,1.0824198E5,1.2363354E4,5.1605874E3,2.4130807E4,7.687176E2,1.031383E4,1.1665272E3,7.1203625E2,2.7340765E2],"tree_param":{"num_deleted":"0","num_feature":"5","num_nodes":"43","size_leaf_vector":"1"}},{"base_weights":[5.561889E0,5.565902E0,4.5354066E0,5.5671315E0,4.645225E0,4.881402E0,2.2382231E-1,5.5675073E0,4.8303947E0,4.956714E0,4.491196E0,4.952683E0,2.2784601E-1,5.5680475E0,5.3480515E0,5.093927E0,4.5594754E0,4.9943895E0,2.2510615E-1,2.3221336E-1,2.2339204E-1,2.5095823E-1,2.4084805E-1,5.5684943E0,5.4128733E0,5.396818E0,5.2248054E0,5.1886377E0,2.4425474E-1,4.747956E0,2.2384463E-1,2.5349262E-1,2.4456017E-1,2.7844733E-1,2.7688354E-1,2.7302027E-1,2.64416E-1,2.7030233E-1,2.524356E-1,2.62386E-1,2.5197053E-1,2.6091427E-1,2.4060607E-1,2.4230123E-1,2.2414504E-1],"categories":[],"categories_nodes":[],"categories_segments":[],"categories_sizes":[],"default_left":[0,0,0,0,0,0,0,0,0,0,0,0,0,0,0,0,0,0,0,0,0,0,0,0,0,0,0,0,0,0,0,0,0,0,0,0,0,0,0,0,0,0,0,0,0],"id":3,"left_children":[1,3,5,7,9,11,-1,13,15,17,19,21,-1,23,25,27,29,31,-1,-1,-1,-1,-1,33,35,37,39,41,-1,43,-1,-1,-1,-1,-1,-1,-1,-1,-1,-1,-1,-1,-1,-1,-1],"loss_changes":[5.4176E4,1.4848E4,1.023625E3,3.616E3,8.165E2,1.4976562E2,0E0,1.536E3,4.5382812E2,7.640625E1,2.1109375E1,3.084375E1,0E0,8.96E2,1.65E2,4.1484375E1,3.0171875E1,1.6671875E1,0E0,0E0,0E0,0E0,0E0,1.6E2,1.9325E2,4.65625E1,1.2390625E1,6.5234375E-1,0E0,4.015625E0,0E0,0E0,0E0,0E0,0E0,0E0,0E0,0E0,0E0,0E0,0E0,0E0,0E0,0E0,0E0],"parents":[2147483647,0,0,1,1,2,2,3,3,4,4,5,5,7,7,8,8,9,9,10,10,11,11,13,13,14,14,15,15,16,16,17,17,23,23,24,24,25,25,26,26,27,27,29,29],"right_children":[2,4,6,8,10,12,-1,14,16,18,20,22,-1,24,26,28,30,32,-1,-1,-1,-1,-1,34,36,38,40,42,-1,44,-1,-1,-1,-1,-1,-1,-1,-1,-1,-1,-1,-1,-1,-1,-1],"split_conditions":[8.24E2,2.56E2,1.286E3,9.8E1,4.16E2,2.5E1,2.2382231E-1,2.08E2,1.84E2,4.5E1,4.8E2,1.112E3,2.2784601E-1,4E1,5.04E2,1.2E2,2.55E2,3.22E2,2.2510615E-1,2.3221336E-1,2.2339204E-1,2.5095823E-1,2.4084805E-1,1.6E1,1.28E2,1.12E2,2.1E1,1.12E2,2.4425474E-1,1.52E2,2.2384463E-1,2.5349262E-1,2.4456017E-1,2.7844733E-1,2.7688354E-1,2.7302027E-1,2.64416E-1,2.7030233E-1,2.524356E-1,2.62386E-1,2.5197053E-1,2.6091427E-1,2.4060607E-1,2.4230123E-1,2.2414504E-1],"split_indices":[0,3,0,1,3,1,0,0,1,1,3,0,0,3,0,0,1,3,0,0,0,0,0,0,3,3,1,3,0,0,0,0,0,0,0,0,0,0,0,0,0,0,0,0,0],"split_type":[0,0,0,0,0,0,0,0,0,0,0,0,0,0,0,0,0,0,0,0,0,0,0,0,0,0,0,0,0,0,0,0,0,0,0,0,0,0,0,0,0,0,0,0,0],"sum_hessian":[1.3157545E7,1.3106299E7,5.1245645E4,1.3088818E7,1.748133E4,7.449267E3,4.379638E4,1.3082137E7,6.6805933E3,5.7738354E3,1.1707495E4,6.095886E3,1.3533805E3,1.3049991E7,3.2145645E4,3.3774377E3,3.3031553E3,5.3227197E3,4.51116E2,1.5236476E3,1.0183848E4,4.0674966E3,2.0283898E3,1.3012483E7,3.7508332E4,2.3001504E4,9.144141E3,2.3072134E3,1.0702244E3,9.891413E2,2.3140142E3,3.0465532E3,2.2761663E3,1.2824333E7,1.8815039E5,2.7117053E4,1.0391278E4,2.2393342E4,6.081634E2,8.1139595E3,1.0301815E3,2.1268794E3,1.8033394E2,7.0938824E2,2.7975305E2],"tree_param":{"num_deleted":"0","num_feature":"5","num_nodes":"45","size_leaf_vector":"1"}},{"base_weights":[5.3061047E0,5.3098927E0,4.3339133E0,5.311052E0,4.4381495E0,4.661534E0,4.278266E0,5.3113956E0,4.579609E0,4.734655E0,4.2909765E0,4.7177243E0,2.1472137E-1,2.182766E-1,2.1365035E-1,5.3120418E0,5.14578E0,4.8379335E0,4.353782E0,4.770839E0,2.1529968E-1,2.2183256E-1,2.1345292E-1,2.3922038E-1,2.292358E-1,5.31243E0,5.170473E0,5.1928825E0,5.0179553E0,4.881925E0,2.206141E-1,4.5286555E0,2.1399844E-1,2.413369E-1,2.3200741E-1,2.6563385E-1,2.6362208E-1,2.6053667E-1,2.5232896E-1,2.601254E-1,2.4795416E-1,2.5177148E-1,2.3912573E-1,2.45312E-1,2.2399116E-1,2.3099446E-1,2.1404742E-1],"categories":[],"categories_nodes":[],"categories_segments":[],"categories_sizes":[],"default_left":[0,0,0,0,0,0,0,0,0,0,0,0,0,0,0,0,0,0,0,0,0,0,0,0,0,0,0,0,0,0,0,0,0,0,0,0,0,0,0,0,0,0,0,0,0,0,0],"id":4,"left_children":[1,3,5,7,9,11,13,15,17,19,21,23,-1,-1,-1,25,27,29,31,33,-1,-1,-1,-1,-1,35,37,39,41,43,-1,45,-1,-1,-1,-1,-1,-1,-1,-1,-1,-1,-1,-1,-1,-1,-1],"loss_changes":[4.8256E4,1.3184E4,9.074375E2,3.264E3,7.364375E2,1.3184375E2,1.3125E0,1.376E3,3.3689844E2,6.852344E1,1.8109375E1,3.471875E1,0E0,0E0,0E0,7.04E2,2.79E2,3.1882812E1,2.3007812E1,1.6234375E1,0E0,0E0,0E0,0E0,0E0,1.28E2,1.50875E2,5.7625E1,3.215625E1,3.2109375E0,0E0,1.8632812E0,0E0,0E0,0E0,0E0,0E0,0E0,0E0,0E0,0E0,0E0,0E0,0E0,0E0,0E0,0E0],"parents":[2147483647,0,0,1,1,2,2,3,3,4,4,5,5,6,6,7,7,8,8,9,9,10,10,11,11,15,15,16,16,17,17,18,18,19,19,25,25,26,26,27,27,28,28,29,29,31,31],"right_children":[2,4,6,8,10,12,14,16,18,20,22,24,-1,-1,-1,26,28,30,32,34,-1,-1,-1,-1,-1,36,38,40,42,44,-1,46,-1,-1,-1,-1,-1,-1,-1,-1,-1,-1,-1,-1,-1,-1,-1],"split_conditions":[8.24E2,2.56E2,1.286E3,1.07E2,4.16E2,4.1E1,1.52E3,1.28E2,1.84E2,4.5E1,4.8E2,1.112E3,2.1472137E-1,2.182766E-1,2.1365035E-1,4E1,4.11E2,4.55E2,2.55E2,3.44E2,2.1529968E-1,2.2183256E-1,2.1345292E-1,2.3922038E-1,2.292358E-1,4E0,1.36E2,1.04E2,3.9E1,1.4E2,2.206141E-1,1.52E2,2.1399844E-1,2.413369E-1,2.3200741E-1,2.6563385E-1,2.6362208E-1,2.6053667E-1,2.5232896E-1,2.601254E-1,2.4795416E-1,2.5177148E-1,2.3912573E-1,2.45312E-1,2.2399116E-1,2.3099446E-1,2.1404742E-1],"split_indices":[0,3,0,1,3,1,0,0,1,1,3,0,0,0,0,3,0,0,1,3,0,0,0,0,0,1,3,3,1,3,0,0,0,0,0,0,0,0,0,0,0,0,0,0,0,0,0],"split_type":[0,0,0,0,0,0,0,0,0,0,0,0,0,0,0,0,0,0,0,0,0,0,0,0,0,0,0,0,0,0,0,0,0,0,0,0,0,0,0,0,0,0,0,0,0,0,0],"sum_hessian":[1.3105145E7,1.3054279E7,5.0866137E4,1.3036939E7,1.7340084E4,7.373293E3,4.3492844E4,1.3030804E7,6.1351543E3,5.7415503E3,1.1598533E4,6.384244E3,9.89049E2,2.4250532E3,4.106779E4,1.2980137E7,5.0666535E4,2.8521458E3,3.2830088E3,5.285281E3,4.5626978E2,1.490562E3,1.0107971E4,4.2290586E3,2.1551855E3,1.2944615E7,3.552178E4,3.699466E4,1.3671876E4,2.5754958E3,2.766499E2,9.565249E2,2.326484E3,3.676742E3,1.6085387E3,1.2864914E7,7.970084E4,2.6778734E4,8.743046E3,3.5511434E4,1.4832242E3,1.2708274E4,9.636018E2,2.4180767E3,1.5741913E2,6.861549E2,2.7036996E2],"tree_param":{"num_deleted":"0","num_feature":"5","num_nodes":"47","size_leaf_vector":"1"}},{"base_weights":[5.0637856E0,5.0673723E0,4.1428103E0,5.068469E0,4.2420917E0,4.4538703E0,4.0899615E0,5.068822E0,4.437502E0,4.520057E0,4.10372E0,4.507263E0,2.0514844E-1,2.0861642E-1,2.0425048E-1,5.069453E0,4.9225526E0,4.658725E0,4.1657124E0,4.5533395E0,2.057662E-1,2.1212912E-1,2.0412628E-1,2.2852004E-1,2.1910994E-1,5.069844E0,4.948468E0,4.967782E0,4.807013E0,4.746251E0,2.2299175E-1,4.338263E0,2.0466784E-1,4.6080256E0,2.2144277E-1,2.5350454E-1,2.5212237E-1,2.4951772E-1,2.4211052E-1,2.488406E-1,2.3706861E-1,2.4225703E-1,2.3557039E-1,2.3848577E-1,2.1959274E-1,2.2105332E-1,2.0477627E-1,2.3246501E-1,2.2308467E-1],"categories":[],"categories_nodes":[],"categories_segments":[],"categories_sizes":[],"default_left":[0,0,0,0,0,0,0,0,0,0,0,0,0,0,0,0,0,0,0,0,0,0,0,0,0,0,0,0,0,0,0,0,0,0,0,0,0,0,0,0,0,0,0,0,0,0,0,0,0],"id":5,"left_children":[1,3,5,7,9,11,13,15,17,19,21,23,-1,-1,-1,25,27,29,31,33,-1,-1,-1,-1,-1,35,37,39,41,43,-1,45,-1,47,-1,-1,-1,-1,-1,-1,-1,-1,-1,-1,-1,-1,-1,-1,-1],"loss_changes":[4.3072E4,1.1744E4,8.140625E2,2.912E3,6.4521875E2,1.19046875E2,6.25E-1,1.184E3,4.173125E2,5.8398438E1,1.6640625E1,3.0203125E1,0E0,0E0,0E0,6.08E2,2.6725E2,4.8390625E1,2.3046875E1,1.55390625E1,0E0,0E0,0E0,0E0,0E0,6.4E1,1.6125E2,5.81875E1,3.44375E1,1.9921875E0,0E0,9.6875E-1,0E0,1.265625E0,0E0,0E0,0E0,0E0,0E0,0E0,0E0,0E0,0E0,0E0,0E0,0E0,0E0,0E0,0E0],"parents":[2147483647,0,0,1,1,2,2,3,3,4,4,5,5,6,6,7,7,8,8,9,9,10,10,11,11,15,15,16,16,17,17,18,18,19,19,25,25,26,26,27,27,28,28,29,29,31,31,33,33],"right_children":[2,4,6,8,10,12,14,16,18,20,22,24,-1,-1,-1,26,28,30,32,34,-1,-1,-1,-1,-1,36,38,40,42,44,-1,46,-1,48,-1,-1,-1,-1,-1,-1,-1,-1,-1,-1,-1,-1,-1,-1,-1],"split_conditions":[8.24E2,2.56E2,1.286E3,8.3E1,4.16E2,4.1E1,1.52E3,1.12E2,1.84E2,4.5E1,4.8E2,1.112E3,2.0514844E-1,2.0861642E-1,2.0425048E-1,3.2E1,3.76E2,1.2E2,2.55E2,3.44E2,2.057662E-1,2.1212912E-1,2.0412628E-1,2.2852004E-1,2.1910994E-1,2.3E1,1.12E2,1.04E2,6.25E2,1.02E2,2.2299175E-1,1.52E2,2.0466784E-1,1.04E2,2.2144277E-1,2.5350454E-1,2.5212237E-1,2.4951772E-1,2.4211052E-1,2.488406E-1,2.3706861E-1,2.4225703E-1,2.3557039E-1,2.3848577E-1,2.1959274E-1,2.2105332E-1,2.0477627E-1,2.3246501E-1,2.2308467E-1],"split_indices":[0,3,0,1,3,1,0,0,1,1,3,0,0,0,0,3,0,0,1,3,0,0,0,0,0,0,3,3,0,3,0,0,0,0,0,0,0,0,0,0,0,0,0,0,0,0,0,0,0],"split_type":[0,0,0,0,0,0,0,0,0,0,0,0,0,0,0,0,0,0,0,0,0,0,0,0,0,0,0,0,0,0,0,0,0,0,0,0,0,0,0,0,0,0,0,0,0,0,0,0,0],"sum_hessian":[1.3048008E7,1.299738E7,5.062788E4,1.2980124E7,1.7256576E4,7.3403467E3,4.328753E4,1.2972861E7,7.262301E3,5.7247812E3,1.1531795E4,6.3606724E3,9.7967426E2,2.407172E3,4.088036E4,1.2917144E7,5.5716918E4,3.9946846E3,3.2676165E3,5.280317E3,4.4446417E2,1.5006549E3,1.003114E4,4.2031787E3,2.1574937E3,1.2875489E7,4.165516E4,4.0011758E4,1.5705161E4,2.7580625E3,1.236622E3,9.479768E2,2.3196396E3,3.6436428E3,1.6366743E3,1.276024E7,1.1524937E5,2.9844582E4,1.1810576E4,3.8457074E4,1.5546858E3,1.11921E4,4.5130615E3,2.5751082E3,1.8295439E2,6.9401825E2,2.5395854E2,2.81802E3,8.256227E2],"tree_param":{"num_deleted":"0","num_feature":"5","num_nodes":"49","size_leaf_vector":"1"}},{"base_weights":[4.8343015E0,4.837675E0,3.9622743E0,4.8387733E0,4.097415E0,4.25572E0,1.9560514E-1,4.8391013E0,4.243384E0,4.355925E0,3.924094E0,4.320368E0,1.9961883E-1,4.8396225E0,4.681718E0,4.4515734E0,3.9839795E0,4.3863535E0,1.974288E-1,2.0267689E-1,1.952399E-1,2.1902958E-1,2.1017344E-1,4.8399415E0,4.7220078E0,4.7165656E0,4.549515E0,2.2678469E-1,4.2597995E0,2.0759682E-1,1.9565998E-1,4.4559307E0,2.1427698E-1,2.4201415E-1,2.4083605E-1,2.3798148E-1,2.3245028E-1,2.364593E-1,2.2936001E-1,2.2854257E-1,2.2096105E-1,2.1593912E-1,2.0068789E-1,2.2409491E-1,2.134441E-1],"categories":[],"categories_nodes":[],"categories_segments":[],"categories_sizes":[],"default_left":[0,0,0,0,0,0,0,0,0,0,0,0,0,0,0,0,0,0,0,0,0,0,0,0,0,0,0,0,0,0,0,0,0,0,0,0,0,0,0,0,0,0,0,0,0],"id":6,"left_children":[1,3,5,7,9,11,-1,13,15,17,19,21,-1,23,25,27,29,31,-1,-1,-1,-1,-1,33,35,37,39,-1,41,-1,-1,43,-1,-1,-1,-1,-1,-1,-1,-1,-1,-1,-1,-1,-1],"loss_changes":[3.8208E4,1.0496E4,7.2025E2,2.528E3,8.41875E2,1.0696875E2,0E0,1.024E3,3.6671875E2,7.7953125E1,1.2859375E1,2.275E1,0E0,4.8E2,1.74875E2,4.4242188E1,2.1542969E1,3.1E1,0E0,0E0,0E0,0E0,0E0,9.6E1,7.35E1,3.33125E1,4.59375E0,0E0,3.4179688E-1,0E0,0E0,1.2734375E0,0E0,0E0,0E0,0E0,0E0,0E0,0E0,0E0,0E0,0E0,0E0,0E0,0E0],"parents":[2147483647,0,0,1,1,2,2,3,3,4,4,5,5,7,7,8,8,9,9,10,10,11,11,13,13,14,14,15,15,16,16,17,17,23,23,24,24,25,25,26,26,28,28,31,31],"right_children":[2,4,6,8,10,12,-1,14,16,18,20,22,-1,24,26,28,30,32,-1,-1,-1,-1,-1,34,36,38,40,-1,42,-1,-1,44,-1,-1,-1,-1,-1,-1,-1,-1,-1,-1,-1,-1,-1],"split_conditions":[8.24E2,2.24E2,1.286E3,8.3E1,4.16E2,2.2E1,1.9560514E-1,1.52E2,1.84E2,4.7E1,4.8E2,1.112E3,1.9961883E-1,3.9E1,5.04E2,1.28E2,2.55E2,3E2,1.974288E-1,2.0267689E-1,1.952399E-1,2.1902958E-1,2.1017344E-1,1.2E1,1.02E2,2.4E1,1.3E1,2.2678469E-1,5.62E2,2.0759682E-1,1.9565998E-1,1.52E2,2.1427698E-1,2.4201415E-1,2.4083605E-1,2.3798148E-1,2.3245028E-1,2.364593E-1,2.2936001E-1,2.2854257E-1,2.2096105E-1,2.1593912E-1,2.0068789E-1,2.2409491E-1,2.134441E-1],"split_indices":[0,3,0,1,3,1,0,0,1,1,3,0,0,3,0,0,1,3,0,0,0,0,0,0,3,3,1,0,0,0,0,0,0,0,0,0,0,0,0,0,0,0,0,0,0],"split_type":[0,0,0,0,0,0,0,0,0,0,0,0,0,0,0,0,0,0,0,0,0,0,0,0,0,0,0,0,0,0,0,0,0,0,0,0,0,0,0,0,0,0,0,0,0],"sum_hessian":[1.2986109E7,1.2936056E7,5.0052145E4,1.2916887E7,1.9169484E4,7.2958438E3,4.27563E4,1.2909769E7,7.1177017E3,7.684234E3,1.148525E4,5.8454526E3,1.4503915E3,1.2867142E7,4.2626844E4,3.9396765E3,3.178025E3,7.141035E3,5.4319836E2,1.4628495E3,1.00224E4,3.8338574E3,2.0115951E3,1.2832303E7,3.4839414E4,3.3707223E4,8.919624E3,2.7227258E3,1.2169507E3,9.251142E2,2.252911E3,4.199523E3,2.9415125E3,1.2646007E7,1.8629555E5,2.294855E4,1.1890863E4,3.0678795E4,3.0284258E3,7.6352134E3,1.2844108E3,9.6827466E2,2.4867601E2,3.6674243E3,5.320985E2],"tree_param":{"num_deleted":"0","num_feature":"5","num_nodes":"45","size_leaf_vector":"1"}},{"base_weights":[4.6169524E0,4.6201544E0,3.791041E0,4.621184E0,3.920626E0,4.070814E0,3.7432792E0,4.6214395E0,3.935568E0,4.190222E0,3.7691028E0,4.130728E0,3.8190386E0,1.9104952E-1,1.8692961E-1,4.621913E0,4.45182E0,4.0987263E0,1.8721664E-1,4.216457E0,1.8762682E-1,3.908892E0,1.8679856E-1,2.0937848E-1,2.0094255E-1,1.9603759E-1,1.8579653E-1,4.6221905E0,4.4878235E0,4.4890027E0,4.3416767E0,4.163897E0,1.9288068E-1,4.2467895E0,2.0432268E-1,1.9693007E-1,1.8427919E-1,2.3111966E-1,2.2814977E-1,2.2623718E-1,2.2111027E-1,2.2502565E-1,2.1434228E-1,2.1819763E-1,2.0883553E-1,2.1039525E-1,1.9159727E-1,2.1442103E-1,2.0808117E-1],"categories":[],"categories_nodes":[],"categories_segments":[],"categories_sizes":[],"default_left":[0,0,0,0,0,0,0,0,0,0,0,0,0,0,0,0,0,0,0,0,0,0,0,0,0,0,0,0,0,0,0,0,0,0,0,0,0,0,0,0,0,0,0,0,0,0,0,0,0],"id":7,"left_children":[1,3,5,7,9,11,13,15,17,19,21,23,25,-1,-1,27,29,31,-1,33,-1,35,-1,-1,-1,-1,-1,37,39,41,43,45,-1,47,-1,-1,-1,-1,-1,-1,-1,-1,-1,-1,-1,-1,-1,-1,-1],"loss_changes":[3.4144E4,9.248E3,6.515625E2,2.272E3,7.569375E2,9.380469E1,1.25E0,1.024E3,1.3425E2,6.2226562E1,4.1515625E1,2.0414062E1,2.1484375E-1,0E0,0E0,4.8E2,1.27125E2,2.4425781E1,0E0,7.90625E0,0E0,7.4609375E-1,0E0,0E0,0E0,0E0,0E0,1.28E2,4.425E1,4.2875E1,1.5078125E1,1.3324219E1,0E0,4.84375E-1,0E0,0E0,0E0,0E0,0E0,0E0,0E0,0E0,0E0,0E0,0E0,0E0,0E0,0E0,0E0],"parents":[2147483647,0,0,1,1,2,2,3,3,4,4,5,5,6,6,7,7,8,8,9,9,10,10,11,11,12,12,15,15,16,16,17,17,19,19,21,21,27,27,28,28,29,29,30,30,31,31,33,33],"right_children":[2,4,6,8,10,12,14,16,18,20,22,24,26,-1,-1,28,30,32,-1,34,-1,36,-1,-1,-1,-1,-1,38,40,42,44,46,-1,48,-1,-1,-1,-1,-1,-1,-1,-1,-1,-1,-1,-1,-1,-1,-1],"split_conditions":[8.24E2,2.24E2,1.286E3,1.25E2,3.76E2,2.2E1,1.52E3,1.84E2,2.55E2,5.9E1,4.8E2,1.112E3,7.4E1,1.9104952E-1,1.8692961E-1,5.3E1,5.04E2,2.8E2,1.8721664E-1,9.6E1,1.8762682E-1,2.2E1,1.8679856E-1,2.0937848E-1,2.0094255E-1,1.9603759E-1,1.8579653E-1,8E0,1.2E2,3.8E1,2.1E1,7E1,1.9288068E-1,3E2,2.0432268E-1,1.9693007E-1,1.8427919E-1,2.3111966E-1,2.2814977E-1,2.2623718E-1,2.2111027E-1,2.2502565E-1,2.1434228E-1,2.1819763E-1,2.0883553E-1,2.1039525E-1,1.9159727E-1,2.1442103E-1,2.0808117E-1],"split_indices":[0,3,0,1,3,1,0,0,1,1,3,0,1,0,0,3,0,0,0,0,0,1,0,0,0,0,0,1,3,1,1,3,0,3,0,0,0,0,0,0,0,0,0,0,0,0,0,0,0],"split_type":[0,0,0,0,0,0,0,0,0,0,0,0,0,0,0,0,0,0,0,0,0,0,0,0,0,0,0,0,0,0,0,0,0,0,0,0,0,0,0,0,0,0,0,0,0,0,0,0,0],"sum_hessian":[1.2919369E7,1.2869472E7,4.9896984E4,1.2850556E7,1.8915594E4,7.2637856E3,4.26332E4,1.2845762E7,4.79347E3,6.796438E3,1.2119155E4,5.855077E3,1.4087086E3,2.3787847E3,4.0254414E4,1.2809981E7,3.5781863E4,2.575591E3,2.2178794E3,6.4039507E3,3.9248752E2,2.2996306E3,9.819525E3,3.8583284E3,1.9967485E3,6.9051276E2,7.181959E2,1.2783458E7,2.6522316E4,2.6721332E4,9.06053E3,2.0147529E3,5.60838E2,5.1667734E3,1.2371772E3,2.0149224E3,2.8470834E2,1.2739772E7,4.3686805E4,1.6929121E4,9.593194E3,2.5261727E4,1.459606E3,7.9601816E3,1.1003485E3,1.7686067E3,2.4614624E2,3.4372185E3,1.7295547E3],"tree_param":{"num_deleted":"0","num_feature":"5","num_nodes":"49","size_leaf_vector":"1"}},{"base_weights":[4.4111404E0,4.4141593E0,3.6293793E0,4.4151344E0,3.7504816E0,3.8942285E0,3.5841935E0,4.4154205E0,3.86252E0,4.0064807E0,3.609106E0,3.9519644E0,1.8280713E-1,1.8291466E-1,1.7898561E-1,4.415843E0,4.2523847E0,4.0563254E0,3.6478934E0,4.0337276E0,1.8099116E-1,1.8712786E-1,1.7886892E-1,2.0030442E-1,1.9228058E-1,4.416147E0,4.31007E0,4.282076E0,4.132898E0,4.1052594E0,1.8895128E-1,3.7918608E0,1.7939398E-1,2.0311788E-1,1.9548424E-1,2.2082536E-1,2.1965912E-1,2.1705337E-1,2.1175146E-1,2.1461804E-1,2.0550297E-1,2.0713463E-1,1.9376299E-1,2.0643273E-1,1.9062264E-1,1.9316642E-1,1.7885971E-1],"categories":[],"categories_nodes":[],"categories_segments":[],"categories_sizes":[],"default_left":[0,0,0,0,0,0,0,0,0,0,0,0,0,0,0,0,0,0,0,0,0,0,0,0,0,0,0,0,0,0,0,0,0,0,0,0,0,0,0,0,0,0,0,0,0,0,0],"id":8,"left_children":[1,3,5,7,9,11,13,15,17,19,21,23,-1,-1,-1,25,27,29,31,33,-1,-1,-1,-1,-1,35,37,39,41,43,-1,45,-1,-1,-1,-1,-1,-1,-1,-1,-1,-1,-1,-1,-1,-1,-1],"loss_changes":[3.0272E4,8.288E3,5.77625E2,2.016E3,6.655625E2,8.4421875E1,9.375E-1,8.64E2,2.6060156E2,5.5726562E1,3.790625E1,1.7859375E1,0E0,0E0,0E0,4.16E2,9.95E1,3.1574219E1,1.3625E1,6.234375E0,0E0,0E0,0E0,0E0,0E0,8E1,6.68125E1,2.909375E1,6.171875E-1,4.390625E0,0E0,1.3671875E-1,0E0,0E0,0E0,0E0,0E0,0E0,0E0,0E0,0E0,0E0,0E0,0E0,0E0,0E0,0E0],"parents":[2147483647,0,0,1,1,2,2,3,3,4,4,5,5,6,6,7,7,8,8,9,9,10,10,11,11,15,15,16,16,17,17,18,18,19,19,25,25,26,26,27,27,28,28,29,29,31,31],"right_children":[2,4,6,8,10,12,14,16,18,20,22,24,-1,-1,-1,26,28,30,32,34,-1,-1,-1,-1,-1,36,38,40,42,44,-1,46,-1,-1,-1,-1,-1,-1,-1,-1,-1,-1,-1,-1,-1,-1,-1],"split_conditions":[8.24E2,2.24E2,1.286E3,9.3E1,3.76E2,2.2E1,1.52E3,1.97E2,1.84E2,4.5E1,4.8E2,1.112E3,1.8280713E-1,1.8291466E-1,1.7898561E-1,3.4E1,5.62E2,3.39E2,2.55E2,9.6E1,1.8099116E-1,1.8712786E-1,1.7886892E-1,2.0030442E-1,1.9228058E-1,1.1E1,1.12E2,4E1,3.4E1,1.12E2,1.8895128E-1,1.84E2,1.7939398E-1,2.0311788E-1,1.9548424E-1,2.2082536E-1,2.1965912E-1,2.1705337E-1,2.1175146E-1,2.1461804E-1,2.0550297E-1,2.0713463E-1,1.9376299E-1,2.0643273E-1,1.9062264E-1,1.9316642E-1,1.7885971E-1],"split_indices":[0,3,0,1,3,1,0,0,1,1,3,0,0,0,0,3,0,0,1,0,0,0,0,0,0,0,3,3,3,3,0,0,0,0,0,0,0,0,0,0,0,0,0,0,0,0,0],"split_type":[0,0,0,0,0,0,0,0,0,0,0,0,0,0,0,0,0,0,0,0,0,0,0,0,0,0,0,0,0,0,0,0,0,0,0,0,0,0,0,0,0,0,0,0,0,0,0],"sum_hessian":[1.2849928E7,1.2800495E7,4.9433555E4,1.2781706E7,1.8788855E4,7.192236E3,4.224132E4,1.2775086E7,6.619906E3,6.6748574E3,1.2113999E4,5.775967E3,1.4162692E3,2.3625088E3,3.9878812E4,1.2742057E7,3.3028945E4,3.4692817E3,3.150624E3,6.2266465E3,4.4821082E2,2.3044204E3,9.809579E3,3.8036145E3,1.9723522E3,1.2705428E7,3.6628703E4,2.6427229E4,6.601714E3,2.9371675E3,5.321143E2,9.086625E2,2.2419614E3,5.0332104E3,1.1934363E3,1.2509165E7,1.9626312E5,2.5881023E4,1.0747681E4,2.4913637E4,1.5135925E3,6.345395E3,2.5631906E2,2.7077227E3,2.2944475E2,6.689545E2,2.3970793E2],"tree_param":{"num_deleted":"0","num_feature":"5","num_nodes":"47","size_leaf_vector":"1"}},{"base_weights":[4.216266E0,4.219124E0,3.476199E0,4.219999E0,3.555841E0,3.725289E0,1.716681E-1,4.2202826E0,3.7099502E0,3.7803988E0,3.44328E0,3.769728E0,1.7182973E-1,4.220796E0,4.101196E0,3.8865874E0,3.491821E0,3.8112016E0,1.7411116E-1,1.775989E-1,1.7133975E-1,3.8220007E0,3.6666656E0,4.221053E0,4.0963755E0,4.1379395E0,4.0069036E0,3.9589677E0,3.721246E0,3.6265628E0,1.7173605E-1,1.9339171E-1,1.865194E-1,1.9165288E-1,1.739679E-1,1.8452953E-1,1.6862829E-1,2.1105814E-1,2.0779712E-1,2.063647E-1,1.9985378E-1,2.0731735E-1,1.9841711E-1,2.0092528E-1,1.886273E-1,1.9867851E-1,1.784727E-1,1.8865328E-1,1.7527005E-1,1.8491267E-1,1.7128459E-1],"categories":[],"categories_nodes":[],"categories_segments":[],"categories_sizes":[],"default_left":[0,0,0,0,0,0,0,0,0,0,0,0,0,0,0,0,0,0,0,0,0,0,0,0,0,0,0,0,0,0,0,0,0,0,0,0,0,0,0,0,0,0,0,0,0,0,0,0,0,0,0],"id":9,"left_children":[1,3,5,7,9,11,-1,13,15,17,19,21,-1,23,25,27,29,31,-1,-1,-1,33,35,37,39,41,43,45,47,49,-1,-1,-1,-1,-1,-1,-1,-1,-1,-1,-1,-1,-1,-1,-1,-1,-1,-1,-1,-1,-1],"loss_changes":[2.6992E4,7.376E3,5.115E2,1.84E3,4.1064062E2,7.939844E1,0E0,7.68E2,2.5903906E2,3.8039062E1,7.859375E0,1.9539062E1,0E0,3.84E2,1.724375E2,3.1945312E1,1.1980469E1,8.6953125E0,0E0,0E0,0E0,2.2304688E0,2.4726562E0,8E1,6.36875E1,3.95E1,2.653125E1,1.1601562E0,2.421875E-1,6.845703E-1,0E0,0E0,0E0,0E0,0E0,0E0,0E0,0E0,0E0,0E0,0E0,0E0,0E0,0E0,0E0,0E0,0E0,0E0,0E0,0E0,0E0],"parents":[2147483647,0,0,1,1,2,2,3,3,4,4,5,5,7,7,8,8,9,9,10,10,11,11,13,13,14,14,15,15,16,16,17,17,21,21,22,22,23,23,24,24,25,25,26,26,27,27,28,28,29,29],"right_children":[2,4,6,8,10,12,-1,14,16,18,20,22,-1,24,26,28,30,32,-1,-1,-1,34,36,38,40,42,44,46,48,50,-1,-1,-1,-1,-1,-1,-1,-1,-1,-1,-1,-1,-1,-1,-1,-1,-1,-1,-1,-1,-1],"split_conditions":[8.24E2,2.56E2,1.286E3,8.3E1,4.16E2,4.1E1,1.716681E-1,1.12E2,1.84E2,2.8E1,4.8E2,1.112E3,1.7182973E-1,5.3E1,3.76E2,1.2E2,2.55E2,3.22E2,1.7411116E-1,1.775989E-1,1.7133975E-1,7E1,1.7E1,1.3E1,1.53E2,8E1,4.1E1,1.4E2,5.62E2,1.84E2,1.7173605E-1,1.9339171E-1,1.865194E-1,1.9165288E-1,1.739679E-1,1.8452953E-1,1.6862829E-1,2.1105814E-1,2.0779712E-1,2.063647E-1,1.9985378E-1,2.0731735E-1,1.9841711E-1,2.0092528E-1,1.886273E-1,1.9867851E-1,1.784727E-1,1.8865328E-1,1.7527005E-1,1.8491267E-1,1.7128459E-1],"split_indices":[0,3,0,1,3,1,0,0,1,1,3,0,0,3,0,0,1,3,0,0,0,3,3,1,3,3,3,3,0,0,0,0,0,0,0,0,0,0,0,0,0,0,0,0,0,0,0,0,0,0,0],"split_type":[0,0,0,0,0,0,0,0,0,0,0,0,0,0,0,0,0,0,0,0,0,0,0,0,0,0,0,0,0,0,0,0,0,0,0,0,0,0,0,0,0,0,0,0,0,0,0,0,0,0,0],"sum_hessian":[1.277184E7,1.2722703E7,4.9137062E4,1.2705943E7,1.6760299E4,7.197651E3,4.1939414E4,1.2698868E7,7.0744106E3,5.58523E3,1.1175069E4,6.227061E3,9.7058984E2,1.2644314E7,5.4554332E4,3.8996907E3,3.1747197E3,5.0515986E3,5.3363135E2,1.4433777E3,9.731691E3,4.1076123E3,2.1194487E3,1.2618191E7,2.612346E4,3.9225914E4,1.532842E4,2.6963738E3,1.2033169E3,9.2632025E2,2.2483994E3,2.9426184E3,2.1089802E3,3.9693384E3,1.382738E2,1.9493231E3,1.7012567E2,1.2596932E7,2.1258184E4,1.9889861E4,6.2335986E3,3.7350836E4,1.8750789E3,1.4590007E4,7.3841266E2,2.590073E3,1.0630071E2,9.570667E2,2.4625021E2,6.6984326E2,2.5647702E2],"tree_param":{"num_deleted":"0","num_feature":"5","num_nodes":"51","size_leaf_vector":"1"}},{"base_weights":[4.031779E0,4.0344768E0,3.3305912E0,4.035282E0,3.3908272E0,3.5673418E0,3.2903023E0,4.035571E0,3.5855985E0,3.5811048E0,1.6446976E-1,3.6088903E0,1.6472633E-1,1.6794835E-1,1.6431051E-1,4.0360994E0,3.931675E0,3.7368824E0,3.3469372E0,3.6081865E0,1.6429023E-1,1.8550229E-1,3.5604367E0,4.036377E0,3.9353778E0,3.964038E0,3.8430836E0,3.8005447E0,3.5754423E0,3.4713993E0,1.6458005E-1,1.8262994E-1,1.7456047E-1,1.7873226E-1,1.6150203E-1,2.0182519E-1,1.9999501E-1,1.9821177E-1,1.9171262E-1,1.9860326E-1,1.8849905E-1,1.9358528E-1,1.8792476E-1,1.9098586E-1,1.7856841E-1,1.7884064E-1,6.0173202E-2,1.7724007E-1,1.641309E-1],"categories":[],"categories_nodes":[],"categories_segments":[],"categories_sizes":[],"default_left":[0,0,0,0,0,0,0,0,0,0,0,0,0,0,0,0,0,0,0,0,0,0,0,0,0,0,0,0,0,0,0,0,0,0,0,0,0,0,0,0,0,0,0,0,0,0,0,0,0],"id":10,"left_children":[1,3,5,7,9,11,13,15,17,19,-1,21,-1,-1,-1,23,25,27,29,31,-1,-1,33,35,37,39,41,43,45,47,-1,-1,-1,-1,-1,-1,-1,-1,-1,-1,-1,-1,-1,-1,-1,-1,-1,-1,-1],"loss_changes":[2.3984E4,6.544E3,4.5225E2,1.632E3,2.9326562E2,6.814844E1,6.25E-1,6.88E2,2.80625E2,3.2E1,0E0,1.6789062E1,0E0,0E0,0E0,3.52E2,1.679375E2,3.7390625E1,1.03359375E1,1.3300781E1,0E0,0E0,7.9921875E0,3.2E1,8.55E1,5.79375E1,2.69375E1,1.9179688E0,3.1054688E-1,1.5839844E0,0E0,0E0,0E0,0E0,0E0,0E0,0E0,0E0,0E0,0E0,0E0,0E0,0E0,0E0,0E0,0E0,0E0,0E0,0E0],"parents":[2147483647,0,0,1,1,2,2,3,3,4,4,5,5,6,6,7,7,8,8,9,9,11,11,15,15,16,16,17,17,18,18,19,19,22,22,23,23,24,24,25,25,26,26,27,27,28,28,29,29],"right_children":[2,4,6,8,10,12,14,16,18,20,-1,22,-1,-1,-1,24,26,28,30,32,-1,-1,34,36,38,40,42,44,46,48,-1,-1,-1,-1,-1,-1,-1,-1,-1,-1,-1,-1,-1,-1,-1,-1,-1,-1,-1],"split_conditions":[8.24E2,2.69E2,1.286E3,6.9E1,4.48E2,4.1E1,1.52E3,8.9E1,1.84E2,4.5E1,1.6446976E-1,9.6E2,1.6472633E-1,1.6794835E-1,1.6431051E-1,3.7E1,3.39E2,1.28E2,2.55E2,3.76E2,1.6429023E-1,1.8550229E-1,2.6E1,7E0,1.44E2,1.12E2,6.25E2,8.8E1,8.160562E10,1.84E2,1.6458005E-1,1.8262994E-1,1.7456047E-1,1.7873226E-1,1.6150203E-1,2.0182519E-1,1.9999501E-1,1.9821177E-1,1.9171262E-1,1.9860326E-1,1.8849905E-1,1.9358528E-1,1.8792476E-1,1.9098586E-1,1.7856841E-1,1.7884064E-1,6.0173202E-2,1.7724007E-1,1.641309E-1],"split_indices":[0,3,0,1,3,1,0,0,1,1,0,0,0,0,0,3,0,0,1,3,0,0,3,1,3,3,0,3,2,0,0,0,0,0,0,0,0,0,0,0,0,0,0,0,0,0,0,0,0],"split_type":[0,0,0,0,0,0,0,0,0,0,0,0,0,0,0,0,0,0,0,0,0,0,0,0,0,0,0,0,0,0,0,0,0,0,0,0,0,0,0,0,0,0,0,0,0,0,0,0,0],"sum_hessian":[1.2690803E7,1.2642161E7,4.8642195E4,1.2626356E7,1.5804485E4,7.06113E3,4.1581062E4,1.2618239E7,8.1178228E3,5.4835522E3,1.0320934E4,6.1172686E3,9.4386163E2,2.2924978E3,3.9288566E4,1.255433E7,6.3908258E4,4.959443E3,3.15838E3,5.012627E3,4.7092535E2,1.9567118E3,4.1605566E3,1.2519824E7,3.4505758E4,4.6776723E4,1.7131535E4,3.5406755E3,1.4187672E3,9.5304877E2,2.2053313E3,3.6113098E3,1.401317E3,3.9796E3,1.809566E2,1.2476308E7,4.3516137E4,2.6815379E4,7.6903784E3,4.4899953E4,1.8767688E3,1.2766858E4,4.3646763E3,3.2528787E3,2.8779684E2,1.4174403E3,1.326843E0,6.734283E2,2.7962048E2],"tree_param":{"num_deleted":"0","num_feature":"5","num_nodes":"49","size_leaf_vector":"1"}},{"base_weights":[3.8571146E0,3.8596666E0,3.1934705E0,3.860448E0,3.2644753E0,3.418481E0,3.1549146E0,3.860719E0,3.4346657E0,3.4656239E0,3.1628919E0,3.470685E0,3.2255707E0,1.6103949E-1,1.575473E-1,3.8612509E0,3.7695322E0,3.5774205E0,3.209454E0,3.4927084E0,1.5984748E-1,1.6301006E-1,1.5739325E-1,1.7830144E-1,1.7113245E-1,1.6527228E-1,1.565402E-1,3.861442E0,3.7349782E0,3.7972047E0,3.6795182E0,3.6182957E0,3.3518045E0,3.3152468E0,1.5746027E-1,1.7725652E-1,1.7092791E-1,1.9307606E-1,1.9024E-1,1.8789588E-1,1.8166624E-1,1.9025606E-1,1.8256722E-1,1.8534978E-1,1.7988457E-1,1.8198185E-1,1.7049275E-1,1.6772626E-1,5.011042E-2,1.6950339E-1,1.5856417E-1],"categories":[],"categories_nodes":[],"categories_segments":[],"categories_sizes":[],"default_left":[0,0,0,0,0,0,0,0,0,0,0,0,0,0,0,0,0,0,0,0,0,0,0,0,0,0,0,0,0,0,0,0,0,0,0,0,0,0,0,0,0,0,0,0,0,0,0,0,0,0,0],"id":11,"left_children":[1,3,5,7,9,11,13,15,17,19,21,23,25,-1,-1,27,29,31,33,35,-1,-1,-1,-1,-1,-1,-1,37,39,41,43,45,47,49,-1,-1,-1,-1,-1,-1,-1,-1,-1,-1,-1,-1,-1,-1,-1,-1,-1],"loss_changes":[2.1328E4,5.84E3,4.08125E2,1.424E3,3.2546875E2,5.98125E1,5.9375E-1,6.08E2,2.4535156E2,2.896875E1,5.765625E0,1.315625E1,1.1269531E0,0E0,0E0,2.88E2,1.670625E2,3.2878906E1,9.373047E0,7.3085938E0,0E0,0E0,0E0,0E0,0E0,0E0,0E0,4.8E1,3.034375E1,5.0375E1,2.5203125E1,5.9140625E0,1.5097656E0,1.1953125E0,0E0,0E0,0E0,0E0,0E0,0E0,0E0,0E0,0E0,0E0,0E0,0E0,0E0,0E0,0E0,0E0,0E0],"parents":[2147483647,0,0,1,1,2,2,3,3,4,4,5,5,6,6,7,7,8,8,9,9,10,10,11,11,12,12,15,15,16,16,17,17,18,18,19,19,27,27,28,28,29,29,30,30,31,31,32,32,33,33],"right_children":[2,4,6,8,10,12,14,16,18,20,22,24,26,-1,-1,28,30,32,34,36,-1,-1,-1,-1,-1,-1,-1,38,40,42,44,46,48,50,-1,-1,-1,-1,-1,-1,-1,-1,-1,-1,-1,-1,-1,-1,-1,-1,-1],"split_conditions":[8.24E2,2.56E2,1.286E3,6.9E1,4.16E2,1.8E1,1.52E3,8E1,1.84E2,2.8E1,4.8E2,9.6E2,7.4E1,1.6103949E-1,1.575473E-1,7E1,3.39E2,3.39E2,2.84E2,3.22E2,1.5984748E-1,1.6301006E-1,1.5739325E-1,1.7830144E-1,1.7113245E-1,1.6527228E-1,1.565402E-1,1.4E1,1.84E2,7.2E1,6.25E2,7E1,2.5770197E10,5.7E1,1.5746027E-1,1.7725652E-1,1.7092791E-1,1.9307606E-1,1.9024E-1,1.8789588E-1,1.8166624E-1,1.9025606E-1,1.8256722E-1,1.8534978E-1,1.7988457E-1,1.8198185E-1,1.7049275E-1,1.6772626E-1,5.011042E-2,1.6950339E-1,1.5856417E-1],"split_indices":[0,3,0,1,3,1,0,0,1,1,3,0,1,0,0,3,0,0,1,3,0,0,0,0,0,0,0,1,3,3,0,3,2,0,0,0,0,0,0,0,0,0,0,0,0,0,0,0,0,0,0],"split_type":[0,0,0,0,0,0,0,0,0,0,0,0,0,0,0,0,0,0,0,0,0,0,0,0,0,0,0,0,0,0,0,0,0,0,0,0,0,0,0,0,0,0,0,0,0,0,0,0,0,0,0],"sum_hessian":[1.2603864E7,1.2555577E7,4.8286797E4,1.2539113E7,1.6464227E4,7.050827E3,4.1235973E4,1.2531126E7,7.987486E3,5.513552E3,1.0950676E4,5.5357896E3,1.5150378E3,2.2971487E3,3.8938824E4,1.2458412E7,7.2713414E4,4.8795835E3,3.1079023E3,4.9977383E3,5.1581323E2,1.4359694E3,9.514706E3,1.8300988E3,3.7056907E3,8.0372955E2,7.113083E2,1.2439546E7,1.8866018E4,5.558421E4,1.7129207E4,4.118409E3,7.611743E2,1.108109E3,1.9997935E3,2.900419E3,2.0973196E3,1.2422119E7,1.7427129E4,1.5363157E4,3.5028606E3,5.2698934E4,2.8852754E3,1.2790053E4,4.3391533E3,3.7209736E3,3.974354E2,7.598668E2,1.3075011E0,7.1431586E2,3.937932E2],"tree_param":{"num_deleted":"0","num_feature":"5","num_nodes":"51","size_leaf_vector":"1"}},{"base_weights":[3.691782E0,3.6941917E0,3.0634637E0,3.694971E0,3.160393E0,3.2768507E0,1.5133332E-1,3.6952274E0,3.3000467E0,3.3651383E0,3.0469368E0,3.3140357E0,1.5166654E-1,3.6955667E0,3.5705092E0,3.4367213E0,3.0868387E0,3.3856528E0,1.5141968E-1,3.1785312E0,1.5131852E-1,3.3601284E0,3.2218142E0,3.6958632E0,3.623864E0,3.5944598E0,1.7332846E-1,3.4779558E0,1.6065773E-1,1.6016375E-1,1.513344E-1,1.7006816E-1,1.602516E-1,1.6075276E-1,2.9840212E0,1.6851906E-1,1.5266418E-1,1.6213194E-1,1.4812507E-1,1.8480675E-1,1.8389124E-1,1.8219726E-1,1.7778893E-1,1.8019174E-1,1.7453012E-1,1.7493528E-1,1.663441E-1,4.939895E-2,1.4951336E-1],"categories":[],"categories_nodes":[],"categories_segments":[],"categories_sizes":[],"default_left":[0,0,0,0,0,0,0,0,0,0,0,0,0,0,0,0,0,0,0,0,0,0,0,0,0,0,0,0,0,0,0,0,0,0,0,0,0,0,0,0,0,0,0,0,0,0,0,0,0],"id":12,"left_children":[1,3,5,7,9,11,-1,13,15,17,19,21,-1,23,25,27,29,31,-1,33,-1,35,37,39,41,43,-1,45,-1,-1,-1,-1,-1,-1,47,-1,-1,-1,-1,-1,-1,-1,-1,-1,-1,-1,-1,-1,-1],"loss_changes":[1.8944E4,5.168E3,3.6553125E2,1.264E3,4.120625E2,5.3515625E1,0E0,5.28E2,2.2475E2,3.4460938E1,2.2070312E1,1.50234375E1,0E0,2.56E2,7.1625E1,3.4117188E1,1.2470703E1,6.3984375E0,0E0,1.5087891E0,0E0,2.3867188E0,1.4667969E0,4.8E1,5.7E1,1.4125E1,0E0,1.328125E0,0E0,0E0,0E0,0E0,0E0,0E0,2.993164E-1,0E0,0E0,0E0,0E0,0E0,0E0,0E0,0E0,0E0,0E0,0E0,0E0,0E0,0E0],"parents":[2147483647,0,0,1,1,2,2,3,3,4,4,5,5,7,7,8,8,9,9,10,10,11,11,13,13,14,14,15,15,16,16,17,17,19,19,21,21,22,22,23,23,24,24,25,25,27,27,34,34],"right_children":[2,4,6,8,10,12,-1,14,16,18,20,22,-1,24,26,28,30,32,-1,34,-1,36,38,40,42,44,-1,46,-1,-1,-1,-1,-1,-1,48,-1,-1,-1,-1,-1,-1,-1,-1,-1,-1,-1,-1,-1,-1],"split_conditions":[8.24E2,2.24E2,1.286E3,6.7E1,3.76E2,4.1E1,1.5133332E-1,1.84E2,1.72E2,5.9E1,4.48E2,1.112E3,1.5166654E-1,2E1,5.62E2,3.39E2,2.55E2,1.84E2,1.5141968E-1,9.6E1,1.5131852E-1,7E1,1.7E1,1.1E1,1.02E2,2.4E1,1.7332846E-1,5.3E1,1.6065773E-1,1.6016375E-1,1.513344E-1,1.7006816E-1,1.602516E-1,1.6075276E-1,9.8E1,1.6851906E-1,1.5266418E-1,1.6213194E-1,1.4812507E-1,1.8480675E-1,1.8389124E-1,1.8219726E-1,1.7778893E-1,1.8019174E-1,1.7453012E-1,1.7493528E-1,1.663441E-1,4.939895E-2,1.4951336E-1],"split_indices":[0,3,0,1,3,1,0,0,1,1,3,0,0,3,0,0,1,0,0,0,0,3,3,0,3,3,0,3,0,0,0,0,0,0,0,0,0,0,0,0,0,0,0,0,0,0,0,0,0],"split_type":[0,0,0,0,0,0,0,0,0,0,0,0,0,0,0,0,0,0,0,0,0,0,0,0,0,0,0,0,0,0,0,0,0,0,0,0,0,0,0,0,0,0,0,0,0,0,0,0,0],"sum_hessian":[1.2513305E7,1.2465493E7,4.7812027E4,1.2447313E7,1.8180045E4,7.0193447E3,4.0792684E4,1.2439237E7,8.075939E3,6.471963E3,1.1708082E4,6.078556E3,9.4078845E2,1.2405465E7,3.3771727E4,4.9120234E3,3.1639158E3,6.091796E3,3.8016727E2,1.5617367E3,1.0146346E4,4.029272E3,2.0492842E3,1.2354294E7,5.1171254E4,2.7419871E4,6.3518535E3,4.134842E3,7.771818E2,1.0599218E3,2.103994E3,5.587922E3,5.0387363E2,1.3017695E3,2.5996716E2,3.8893313E3,1.3994063E2,1.8862971E3,1.6298703E2,1.2170917E7,1.8337702E5,3.9475703E4,1.1695551E4,2.5118727E4,2.3011455E3,3.616022E3,5.1881964E2,1.3075199E0,2.5865964E2],"tree_param":{"num_deleted":"0","num_feature":"5","num_nodes":"49","size_leaf_vector":"1"}},{"base_weights":[3.5352736E0,3.537549E0,2.9400582E0,3.5382993E0,3.039731E0,3.1427324E0,2.9053557E0,3.5385153E0,3.1199276E0,3.2316792E0,2.9229252E0,3.1842172E0,1.4741871E-1,1.483148E-1,1.4508411E-1,3.538886E0,3.4315434E0,3.245694E0,1.4637047E-1,3.2521334E0,1.464957E-1,3.025702E0,2.898852E0,1.6331135E-1,1.5707521E-1,3.5391994E0,3.486087E0,3.4629915E0,3.3578298E0,3.2909636E0,1.52186E-1,3.2763004E0,1.5721202E-1,1.5249975E-1,1.4235672E-1,1.449878E-1,2.1533597E0,1.7697047E-1,1.7614482E-1,1.7500798E-1,1.708287E-1,1.7351487E-1,1.6778642E-1,1.688267E-1,1.6302489E-1,1.655851E-1,1.47246E-1,1.6533792E-1,1.6023938E-1,1.2034187E-2,1.16360605E-1],"categories":[],"categories_nodes":[],"categories_segments":[],"categories_sizes":[],"default_left":[0,0,0,0,0,0,0,0,0,0,0,0,0,0,0,0,0,0,0,0,0,0,0,0,0,0,0,0,0,0,0,0,0,0,0,0,0,0,0,0,0,0,0,0,0,0,0,0,0,0,0],"id":13,"left_children":[1,3,5,7,9,11,13,15,17,19,21,23,-1,-1,-1,25,27,29,-1,31,-1,33,35,-1,-1,37,39,41,43,45,-1,47,-1,-1,-1,-1,49,-1,-1,-1,-1,-1,-1,-1,-1,-1,-1,-1,-1,-1,-1],"loss_changes":[1.6816E4,4.624E3,3.2340625E2,1.12E3,4.0804688E2,4.625E1,4.6875E-1,4.8E2,1.4489844E2,3.3882812E1,1.9898438E1,9.609375E0,0E0,0E0,0E0,1.92E2,8.721875E1,2.5164062E1,0E0,6.859375E0,0E0,7.558594E-1,1.015625E-1,0E0,0E0,3.2E1,5.91875E1,1.178125E1,1.228125E1,1.2714844E1,0E0,1.0546875E0,0E0,0E0,0E0,0E0,4.522377E0,0E0,0E0,0E0,0E0,0E0,0E0,0E0,0E0,0E0,0E0,0E0,0E0,0E0,0E0],"parents":[2147483647,0,0,1,1,2,2,3,3,4,4,5,5,6,6,7,7,8,8,9,9,10,10,11,11,15,15,16,16,17,17,19,19,21,21,22,22,25,25,26,26,27,27,28,28,29,29,31,31,36,36],"right_children":[2,4,6,8,10,12,14,16,18,20,22,24,-1,-1,-1,26,28,30,-1,32,-1,34,36,-1,-1,38,40,42,44,46,-1,48,-1,-1,-1,-1,50,-1,-1,-1,-1,-1,-1,-1,-1,-1,-1,-1,-1,-1,-1],"split_conditions":[8.24E2,2.13E2,1.286E3,9.3E1,3.76E2,2.5E1,1.52E3,1.44E2,2.14E2,4.3E1,4.8E2,9.6E2,1.4741871E-1,1.483148E-1,1.4508411E-1,9E0,4.11E2,2.8E2,1.4637047E-1,9.6E1,1.464957E-1,2.2E1,9.449072E10,1.6331135E-1,1.5707521E-1,1.6E1,9.3E1,2.4E1,1.2E1,1.4E2,1.52186E-1,3E2,1.5721202E-1,1.5249975E-1,1.4235672E-1,1.449878E-1,2.208E3,1.7697047E-1,1.7614482E-1,1.7500798E-1,1.708287E-1,1.7351487E-1,1.6778642E-1,1.688267E-1,1.6302489E-1,1.655851E-1,1.47246E-1,1.6533792E-1,1.6023938E-1,1.2034187E-2,1.16360605E-1],"split_indices":[0,3,0,1,3,1,0,0,1,1,3,0,0,0,0,3,0,0,0,0,0,1,2,0,0,0,3,1,1,3,0,3,0,0,0,0,3,0,0,0,0,0,0,0,0,0,0,0,0,0,0],"split_type":[0,0,0,0,0,0,0,0,0,0,0,0,0,0,0,0,0,0,0,0,0,0,0,0,0,0,0,0,0,0,0,0,0,0,0,0,0,0,0,0,0,0,0,0,0,0,0,0,0,0,0],"sum_hessian":[1.2414404E7,1.2367121E7,4.7282387E4,1.2348501E7,1.8619969E4,6.8992163E3,4.038317E4,1.2342125E7,6.3759204E3,7.034098E3,1.158587E4,5.6729644E3,1.2262516E3,2.250081E3,3.813309E4,1.2299467E7,4.2657953E4,3.8469578E3,2.5289626E3,6.5784272E3,4.5567108E2,2.175072E3,9.410799E3,1.9169459E3,3.7560186E3,1.2226841E7,7.2625945E4,2.9869014E4,1.278894E4,3.1300981E3,7.1685974E2,5.3505806E3,1.2278466E3,1.9004486E3,2.7462347E2,9.396514E3,1.4284648E1,1.2071101E7,1.557403E5,6.035757E4,1.2268373E4,2.7934996E4,1.934017E3,1.0699221E4,2.0897195E3,2.9450322E3,1.8506596E2,3.7206655E3,1.629915E3,1.3888888E0,1.2895759E1],"tree_param":{"num_deleted":"0","num_feature":"5","num_nodes":"51","size_leaf_vector":"1"}},{"base_weights":[3.3871195E0,3.3893292E0,2.8373816E0,3.3900273E0,2.9097657E0,3.0379255E0,2.791453E0,3.3902164E0,2.9689996E0,3.0935175E0,2.8064718E0,3.0661643E0,1.3831775E-1,1.425507E-1,1.3939276E-1,3.3906963E0,3.3271527E0,3.099434E0,1.4048076E-1,3.1114926E0,1.3985299E-1,2.9268124E0,2.7877946E0,3.1288483E0,3.0029333E0,3.390944E0,3.344394E0,3.3451464E0,3.258693E0,3.153522E0,1.4892367E-1,1.5677933E-1,1.5044983E-1,1.4792553E-1,1.3760513E-1,1.3943867E-1,2.057822E0,1.5734576E-1,1.457269E-1,1.5108398E-1,1.3958925E-1,1.6954957E-1,1.6512363E-1,1.6785946E-1,1.638149E-1,1.6759329E-1,1.6246657E-1,1.6353042E-1,1.5762924E-1,1.5880124E-1,1.4096022E-1,1.2483459E-1,7.135161E-2],"categories":[],"categories_nodes":[],"categories_segments":[],"categories_sizes":[],"default_left":[0,0,0,0,0,0,0,0,0,0,0,0,0,0,0,0,0,0,0,0,0,0,0,0,0,0,0,0,0,0,0,0,0,0,0,0,0,0,0,0,0,0,0,0,0,0,0,0,0,0,0,0,0],"id":14,"left_children":[1,3,5,7,9,11,13,15,17,19,21,23,-1,-1,-1,25,27,29,-1,31,-1,33,35,37,39,41,43,45,47,49,-1,-1,-1,-1,-1,-1,51,-1,-1,-1,-1,-1,-1,-1,-1,-1,-1,-1,-1,-1,-1,-1,-1],"loss_changes":[1.496E4,4.096E3,4.4553125E2,9.76E2,3.298125E2,6.1875E1,6.25E-1,3.52E2,1.0569141E2,2.5441406E1,1.7515625E1,2.35E1,0E0,0E0,0E0,1.44E2,1.030625E2,1.0345703E1,0E0,5.4648438E0,0E0,2.5E-1,1.34375E0,6.875E0,8.019531E0,4.8E1,4.53125E1,3.625E1,1.40625E1,6.5996094E0,0E0,0E0,0E0,0E0,0E0,0E0,1.1675873E0,0E0,0E0,0E0,0E0,0E0,0E0,0E0,0E0,0E0,0E0,0E0,0E0,0E0,0E0,0E0,0E0],"parents":[2147483647,0,0,1,1,2,2,3,3,4,4,5,5,6,6,7,7,8,8,9,9,10,10,11,11,15,15,16,16,17,17,19,19,21,21,22,22,23,23,24,24,25,25,26,26,27,27,28,28,29,29,36,36],"right_children":[2,4,6,8,10,12,14,16,18,20,22,24,-1,-1,-1,26,28,30,-1,32,-1,34,36,38,40,42,44,46,48,50,-1,-1,-1,-1,-1,-1,52,-1,-1,-1,-1,-1,-1,-1,-1,-1,-1,-1,-1,-1,-1,-1,-1],"split_conditions":[7.04E2,2.24E2,1.286E3,1.07E2,3.76E2,6.7E1,1.52E3,5E1,2.14E2,5.9E1,4.48E2,9.6E2,1.3831775E-1,1.425507E-1,1.3939276E-1,9E0,2.8E2,1.2E2,1.4048076E-1,9.6E1,1.3985299E-1,1.04E2,9.449072E10,3.4E1,1.7E1,2.6E1,9.6E1,5.6E1,1.9E1,1.4E2,1.4892367E-1,1.5677933E-1,1.5044983E-1,1.4792553E-1,1.3760513E-1,1.3943867E-1,6.2E1,1.5734576E-1,1.457269E-1,1.5108398E-1,1.3958925E-1,1.6954957E-1,1.6512363E-1,1.6785946E-1,1.638149E-1,1.6759329E-1,1.6246657E-1,1.6353042E-1,1.5762924E-1,1.5880124E-1,1.4096022E-1,1.2483459E-1,7.135161E-2],"split_indices":[0,3,0,1,3,1,0,0,1,1,3,0,0,0,0,3,0,0,0,0,0,0,2,3,3,1,3,3,1,3,0,0,0,0,0,0,1,0,0,0,0,0,0,0,0,0,0,0,0,0,0,0,0],"split_type":[0,0,0,0,0,0,0,0,0,0,0,0,0,0,0,0,0,0,0,0,0,0,0,0,0,0,0,0,0,0,0,0,0,0,0,0,0,0,0,0,0,0,0,0,0,0,0,0,0,0,0,0,0],"sum_hessian":[1.2311463E7,1.2262173E7,4.9289832E4,1.2244341E7,1.7832389E4,9.17275E3,4.0117082E4,1.2238839E7,5.501942E3,6.4065884E3,1.14258E4,8.29946E3,8.7328986E2,2.240142E3,3.787694E4,1.2146326E7,9.251295E4,3.015623E3,2.4863188E3,6.0313896E3,3.7519873E2,1.514154E3,9.9116455E3,4.143407E3,4.156053E3,1.2081608E7,6.4718016E4,7.3220336E4,1.9292617E4,2.0665027E3,9.4912024E2,4.8594736E3,1.171916E3,1.2681392E3,2.4601483E2,9.895558E3,1.6087654E1,3.808645E3,3.347623E2,3.8049333E3,3.5111963E2,1.2075126E7,6.4816494E3,5.4440375E4,1.0277642E4,6.839021E4,4.8301226E3,1.7318068E4,1.9745486E3,1.9282168E3,1.3828587E2,7.7426786E0,8.344976E0],"tree_param":{"num_deleted":"0","num_feature":"5","num_nodes":"53","size_leaf_vector":"1"}},{"base_weights":[3.2468922E0,3.2489812E0,2.7260282E0,3.249641E0,2.795601E0,2.9172046E0,2.6820056E0,3.2497954E0,2.7930067E0,2.9688575E0,2.6977491E0,2.9432023E0,1.3315953E-1,1.3415372E-1,2.504286E0,3.2502747E0,3.1923409E0,2.9238794E0,1.352424E-1,2.9875374E0,1.3514252E-1,2.7918634E0,2.675037E0,2.9779494E0,2.8379016E0,1.2620534E-1,4.27221E-3,3.2504764E0,3.1936462E0,3.2074456E0,3.1171246E0,2.9526873E0,1.3495255E-1,3.0004287E0,1.4181405E-1,1.4068398E-1,1.3135771E-1,1.3380258E-1,1.8600925E0,2.989399E0,1.3819088E-1,1.4318989E-1,1.3176677E-1,1.6252655E-1,1.5813571E-1,1.6053633E-1,1.5697524E-1,1.607876E-1,1.5683898E-1,1.5634723E-1,1.4746784E-1,1.4887714E-1,1.3207112E-1,1.5164264E-1,1.4684805E-1,1.1635454E-1,6.391891E-2,1.5088601E-1,1.466686E-1],"categories":[],"categories_nodes":[],"categories_segments":[],"categories_sizes":[],"default_left":[0,0,0,0,0,0,0,0,0,0,0,0,0,0,0,0,0,0,0,0,0,0,0,0,0,0,0,0,0,0,0,0,0,0,0,0,0,0,0,0,0,0,0,0,0,0,0,0,0,0,0,0,0,0,0,0,0,0,0],"id":15,"left_children":[1,3,5,7,9,11,13,15,17,19,21,23,-1,-1,25,27,29,31,-1,33,-1,35,37,39,41,-1,-1,43,45,47,49,51,-1,53,-1,-1,-1,-1,55,57,-1,-1,-1,-1,-1,-1,-1,-1,-1,-1,-1,-1,-1,-1,-1,-1,-1,-1,-1],"loss_changes":[1.3264E4,3.632E3,4.0253125E2,8.56E2,2.9159375E2,5.234375E1,8.125E-1,3.28E2,3.955078E1,2.3578125E1,1.6695312E1,2.1765625E1,0E0,0E0,1.1866699E1,1.28E2,1.04E2,2.6728516E0,0E0,3.0664062E0,0E0,4.2382812E-1,2.5664062E0,6.9101562E0,3.3125E0,0E0,0E0,4.8E1,2.953125E1,3.90625E1,1.8515625E1,3.321289E0,0E0,2.328125E0,0E0,0E0,0E0,0E0,1.0000458E0,4.53125E-1,0E0,0E0,0E0,0E0,0E0,0E0,0E0,0E0,0E0,0E0,0E0,0E0,0E0,0E0,0E0,0E0,0E0,0E0,0E0],"parents":[2147483647,0,0,1,1,2,2,3,3,4,4,5,5,6,6,7,7,8,8,9,9,10,10,11,11,14,14,15,15,16,16,17,17,19,19,21,21,22,22,23,23,24,24,27,27,28,28,29,29,30,30,31,31,33,33,38,38,39,39],"right_children":[2,4,6,8,10,12,14,16,18,20,22,24,-1,-1,26,28,30,32,-1,34,-1,36,38,40,42,-1,-1,44,46,48,50,52,-1,54,-1,-1,-1,-1,56,58,-1,-1,-1,-1,-1,-1,-1,-1,-1,-1,-1,-1,-1,-1,-1,-1,-1,-1,-1],"split_conditions":[7.04E2,2.24E2,1.286E3,1.32E2,3.76E2,6.7E1,1.365E3,4.8E1,2.14E2,4.5E1,4.8E2,1.112E3,1.3315953E-1,1.3415372E-1,2.2763713E11,2E1,3.12E2,4.11E2,1.352424E-1,1.84E2,1.3514252E-1,2.2E1,8.590072E10,4.1E1,1.7E1,1.2620534E-1,4.27221E-3,2.5E1,9.6E1,2.4E1,4.1E1,1.36E2,1.3495255E-1,3E2,1.4181405E-1,1.4068398E-1,1.3135771E-1,1.3380258E-1,6.2E1,9.6E2,1.3819088E-1,1.4318989E-1,1.3176677E-1,1.6252655E-1,1.5813571E-1,1.6053633E-1,1.5697524E-1,1.607876E-1,1.5683898E-1,1.5634723E-1,1.4746784E-1,1.4887714E-1,1.3207112E-1,1.5164264E-1,1.4684805E-1,1.1635454E-1,6.391891E-2,1.5088601E-1,1.466686E-1],"split_indices":[0,3,0,1,3,1,4,0,1,1,3,0,0,0,2,3,0,0,0,0,0,1,2,3,3,0,0,1,3,3,1,3,0,3,0,0,0,0,1,0,0,0,0,0,0,0,0,0,0,0,0,0,0,0,0,0,0,0,0],"split_type":[0,0,0,0,0,0,0,0,0,0,0,0,0,0,0,0,0,0,0,0,0,0,0,0,0,0,0,0,0,0,0,0,0,0,0,0,0,0,0,0,0,0,0,0,0,0,0,0,0,0,0,0,0,0,0,0,0,0,0],"sum_hessian":[1.2203809E7,1.2155054E7,4.875515E4,1.2137383E7,1.7671123E4,9.11335E3,3.9641797E4,1.213327E7,4.1122134E3,6.367485E3,1.1303639E4,8.257622E3,8.557278E2,3.9390785E4,2.5101346E2,1.2032856E7,1.0041396E5,1.6421908E3,2.4700225E3,5.9401157E3,4.273688E2,2.1738364E3,9.129802E3,6.188317E3,2.069305E3,2.4893011E2,2.0833333E0,1.1990087E7,4.276909E4,8.358677E4,1.6827193E4,1.4449158E3,1.9727501E2,5.456259E3,4.838573E2,1.9053842E3,2.6845215E2,9.11617E3,1.3632083E1,5.86192E3,3.2639725E2,1.8231022E3,2.4620288E2,1.1982622E7,7.464951E3,3.2467814E4,1.0301272E4,7.475523E4,8.831542E3,1.588004E4,9.4715265E2,1.330134E3,1.14781784E2,3.580361E3,1.8758976E3,5.8973265E0,7.7347565E0,3.8585752E3,2.0033445E3],"tree_param":{"num_deleted":"0","num_feature":"5","num_nodes":"59","size_leaf_vector":"1"}},{"base_weights":[3.1141574E0,3.1161253E0,2.6212063E0,3.1167548E0,2.6926048E0,2.8014715E0,2.5793092E0,3.1169627E0,2.809057E0,2.854805E0,2.593978E0,2.8261418E0,1.2797096E-1,1.2902308E-1,2.377739E0,3.1173565E0,3.0593219E0,2.9185858E0,2.6270862E0,2.873336E0,1.31263E-1,2.7043056E0,1.2882619E-1,2.8590856E0,2.7286055E0,1.19558804E-1,3.5518948E-3,3.1175673E0,3.073736E0,3.0760384E0,3.0024588E0,1.478049E-1,2.810892E0,2.7144916E0,1.2853514E-1,1.447037E-1,1.3896675E-1,1.3677871E-1,2.535655E0,2.8696327E0,1.3270067E-1,1.3759102E-1,1.2674336E-1,1.55881E-1,1.5413599E-1,1.5430759E-1,1.5114953E-1,1.5408213E-1,1.4957401E-1,1.5013295E-1,3.7806947E-2,1.4062017E-1,3.5747033E-2,1.3848014E-1,1.3016644E-1,3.6210638E-2,1.271082E-1,1.4488183E-1,1.40803E-1],"categories":[],"categories_nodes":[],"categories_segments":[],"categories_sizes":[],"default_left":[0,0,0,0,0,0,0,0,0,0,0,0,0,0,0,0,0,0,0,0,0,0,0,0,0,0,0,0,0,0,0,0,0,0,0,0,0,0,0,0,0,0,0,0,0,0,0,0,0,0,0,0,0,0,0,0,0,0,0],"id":16,"left_children":[1,3,5,7,9,11,13,15,17,19,21,23,-1,-1,25,27,29,31,33,35,-1,37,-1,39,41,-1,-1,43,45,47,49,-1,51,53,-1,-1,-1,-1,55,57,-1,-1,-1,-1,-1,-1,-1,-1,-1,-1,-1,-1,-1,-1,-1,-1,-1,-1,-1],"loss_changes":[1.1728E4,3.208E3,3.559375E2,7.6E2,2.786328E2,4.684375E1,2.90625E0,2.64E2,1.5438281E2,2.1175781E1,1.44609375E1,1.8578125E1,0E0,0E0,7.099365E0,1.04E2,6.83125E1,1.215625E1,8.126953E0,4.1132812E0,0E0,9.746094E-1,0E0,5.6132812E0,2.444336E0,0E0,0E0,1.6E1,2.6875E1,2.05625E1,6.109375E0,0E0,2.2001953E0,4.296875E-2,0E0,0E0,0E0,0E0,1.086792E0,5.4296875E-1,0E0,0E0,0E0,0E0,0E0,0E0,0E0,0E0,0E0,0E0,0E0,0E0,0E0,0E0,0E0,0E0,0E0,0E0,0E0],"parents":[2147483647,0,0,1,1,2,2,3,3,4,4,5,5,6,6,7,7,8,8,9,9,10,10,11,11,14,14,15,15,16,16,17,17,18,18,19,19,21,21,23,23,24,24,27,27,28,28,29,29,30,30,32,32,33,33,38,38,39,39],"right_children":[2,4,6,8,10,12,14,16,18,20,22,24,-1,-1,26,28,30,32,34,36,-1,38,-1,40,42,-1,-1,44,46,48,50,-1,52,54,-1,-1,-1,-1,56,58,-1,-1,-1,-1,-1,-1,-1,-1,-1,-1,-1,-1,-1,-1,-1,-1,-1,-1,-1],"split_conditions":[7.04E2,2.13E2,1.286E3,6.4E1,3.76E2,6.7E1,1.365E3,5.7E1,1.72E2,2.9E1,4.48E2,1.112E3,1.2797096E-1,1.2902308E-1,2.2763713E11,1.6E1,2.8E2,1.2E2,2.84E2,9.6E1,1.31263E-1,9.6E1,1.2882619E-1,4.1E1,1.7E1,1.19558804E-1,3.5518948E-3,1.1E1,8.8E1,5.6E1,6.013059E10,1.478049E-1,5.1540394E10,4.2E1,1.2853514E-1,1.447037E-1,1.3896675E-1,1.3677871E-1,9.8E1,9.6E2,1.3270067E-1,1.3759102E-1,1.2674336E-1,1.55881E-1,1.5413599E-1,1.5430759E-1,1.5114953E-1,1.5408213E-1,1.4957401E-1,1.5013295E-1,3.7806947E-2,1.4062017E-1,3.5747033E-2,1.3848014E-1,1.3016644E-1,3.6210638E-2,1.271082E-1,1.4488183E-1,1.40803E-1],"split_indices":[0,3,0,1,3,1,4,0,1,1,3,0,0,0,2,3,0,0,1,0,0,0,0,3,3,0,0,1,3,3,2,0,2,0,0,0,0,0,0,0,0,0,0,0,0,0,0,0,0,0,0,0,0,0,0,0,0,0,0],"split_type":[0,0,0,0,0,0,0,0,0,0,0,0,0,0,0,0,0,0,0,0,0,0,0,0,0,0,0,0,0,0,0,0,0,0,0,0,0,0,0,0,0,0,0,0,0,0,0,0,0,0,0,0,0,0,0,0,0,0,0],"sum_hessian":[1.2090649E7,1.2042569E7,4.8079793E4,1.2024689E7,1.7879943E4,9.05483E3,3.902496E4,1.201656E7,8.129513E3,6.7504E3,1.1129544E4,8.20762E3,8.472102E2,3.8791434E4,2.3352927E2,1.1934968E7,8.159225E4,5.065525E3,3.0639883E3,6.2354917E3,5.149083E2,1.4991923E3,9.630353E3,6.114182E3,2.0934377E3,2.3214038E2,1.3888888E0,1.1877506E7,5.746194E4,6.30144E4,1.8577855E4,3.7372903E3,1.3282349E3,1.1829845E3,1.8810038E3,5.084091E3,1.1514006E3,1.2518691E3,2.4732309E2,5.802744E3,3.114378E2,1.8576411E3,2.3579674E2,1.1859517E7,1.7988502E4,4.611854E4,1.1343401E4,5.9064297E4,3.9501E3,1.8575861E4,1.9936966E0,1.3269362E3,1.298683E0,7.7489874E2,4.0808572E2,1.2875003E0,2.460356E2,3.7759001E3,2.0268441E3],"tree_param":{"num_deleted":"0","num_feature":"5","num_nodes":"59","size_leaf_vector":"1"}},{"base_weights":[2.9885006E0,2.9903595E0,2.5213578E0,2.9909477E0,2.584044E0,2.6924403E0,2.4819522E0,2.9910934E0,2.5907953E0,2.7261105E0,2.487663E0,2.7157128E0,1.23279296E-1,2.4830287E0,2.303044E0,2.9915216E0,2.939724E0,2.687922E0,1.2391003E-1,2.7444034E0,1.256559E-1,1.2808977E-1,1.238122E-1,2.746855E0,2.6230597E0,1.2681329E-1,1.2399089E-1,2.321811E0,4.007879E-3,2.9916995E0,2.940472E0,2.9532275E0,2.8722782E0,2.7349322E0,2.582492E0,2.785704E0,1.3420497E-1,1.3771173E-1,1.2436316E-1,1.3228032E-1,1.21909216E-1,1.16754666E-1,3.8223963E-2,1.495874E-1,1.4564522E-1,1.4764403E-1,1.4403275E-1,1.480875E-1,1.4486766E-1,1.4415114E-1,1.3777928E-1,1.3880186E-1,1.287271E-1,1.2924445E-1,3.475986E-2,1.3973919E-1,1.2686485E-1],"categories":[],"categories_nodes":[],"categories_segments":[],"categories_sizes":[],"default_left":[0,0,0,0,0,0,0,0,0,0,0,0,0,0,0,0,0,0,0,0,0,0,0,0,0,0,0,0,0,0,0,0,0,0,0,0,0,0,0,0,0,0,0,0,0,0,0,0,0,0,0,0,0,0,0,0,0],"id":17,"left_children":[1,3,5,7,9,11,13,15,17,19,21,23,-1,25,27,29,31,33,-1,35,-1,-1,-1,37,39,-1,-1,41,-1,43,45,47,49,51,53,55,-1,-1,-1,-1,-1,-1,-1,-1,-1,-1,-1,-1,-1,-1,-1,-1,-1,-1,-1,-1,-1],"loss_changes":[1.0392E4,2.856E3,3.133125E2,6.88E2,2.2938281E2,4.015625E1,1.703125E0,2.56E2,4.0791016E1,2.0222656E1,2.3632812E0,1.59921875E1,0E0,2.65625E-1,1.0016724E1,9.6E1,8.125E1,4.4257812E0,0E0,8.4609375E0,0E0,0E0,0E0,4.6328125E0,2.0703125E0,0E0,0E0,3.230957E0,0E0,4E1,2.19375E1,3.05E1,1.26875E1,3.3105469E0,1.5170898E0,1.4160156E0,0E0,0E0,0E0,0E0,0E0,0E0,0E0,0E0,0E0,0E0,0E0,0E0,0E0,0E0,0E0,0E0,0E0,0E0,0E0,0E0,0E0],"parents":[2147483647,0,0,1,1,2,2,3,3,4,4,5,5,6,6,7,7,8,8,9,9,10,10,11,11,13,13,14,14,15,15,16,16,17,17,19,19,23,23,24,24,27,27,29,29,30,30,31,31,32,32,33,33,34,34,35,35],"right_children":[2,4,6,8,10,12,14,16,18,20,22,24,-1,26,28,30,32,34,-1,36,-1,-1,-1,38,40,-1,-1,42,-1,44,46,48,50,52,54,56,-1,-1,-1,-1,-1,-1,-1,-1,-1,-1,-1,-1,-1,-1,-1,-1,-1,-1,-1,-1,-1],"split_conditions":[7.04E2,2.24E2,1.286E3,1.25E2,4.16E2,6.7E1,1.365E3,4.8E1,2.55E2,2.8E1,4.8E2,1.112E3,1.23279296E-1,1.52E3,2.2763713E11,2.2E1,3.12E2,1.2E2,1.2391003E-1,3E2,1.256559E-1,1.2808977E-1,1.238122E-1,7.5E1,1.7E1,1.2681329E-1,1.2399089E-1,2.37E3,4.007879E-3,2.5E1,1.2E2,1.6E1,2.7E1,1.7E1,1.0308085E11,3.12E2,1.3420497E-1,1.3771173E-1,1.2436316E-1,1.3228032E-1,1.21909216E-1,1.16754666E-1,3.8223963E-2,1.495874E-1,1.4564522E-1,1.4764403E-1,1.4403275E-1,1.480875E-1,1.4486766E-1,1.4415114E-1,1.3777928E-1,1.3880186E-1,1.287271E-1,1.2924445E-1,3.475986E-2,1.3973919E-1,1.2686485E-1],"split_indices":[0,3,0,1,3,1,4,0,1,1,3,0,0,0,2,3,0,0,0,3,0,0,0,3,3,0,0,1,0,1,3,3,1,3,2,0,0,0,0,0,0,0,0,0,0,0,0,0,0,0,0,0,0,0,0,0,0],"split_type":[0,0,0,0,0,0,0,0,0,0,0,0,0,0,0,0,0,0,0,0,0,0,0,0,0,0,0,0,0,0,0,0,0,0,0,0,0,0,0,0,0,0,0,0,0,0,0,0,0,0,0,0,0,0,0,0,0],"sum_hessian":[1.1973758E7,1.1926295E7,4.7463395E4,1.1909048E7,1.7246281E4,8.873042E3,3.859035E4,1.190471E7,4.338177E3,6.959957E3,1.0286323E4,8.0375176E3,8.3552466E2,3.8346773E4,2.4357693E2,1.1806227E7,9.848282E4,2.3167903E3,2.0213865E3,6.3985312E3,5.614258E2,1.3431775E3,8.943146E3,5.994137E3,2.0433804E3,2.136259E3,3.6210516E4,2.414936E2,2.0833333E0,1.1765204E7,4.1022906E4,8.201879E4,1.646403E4,1.5850784E3,7.3171204E2,3.770819E3,2.6277122E3,5.8191055E3,1.7503154E2,1.8094042E3,2.3397621E2,2.3895615E2,2.537462E0,1.1757942E7,7.262222E3,3.3934918E4,7.0879893E3,7.1118805E4,1.0899986E4,1.505421E4,1.4098196E3,1.2487437E3,3.3633466E2,7.3041486E2,1.2972242E0,3.6279602E3,1.4285876E2],"tree_param":{"num_deleted":"0","num_feature":"5","num_nodes":"57","size_leaf_vector":"1"}},{"base_weights":[2.869542E0,2.871297E0,2.4269E0,2.8718748E0,2.500749E0,2.5895698E0,2.3891973E0,2.8720863E0,2.6292717E0,2.6435096E0,2.4012396E0,2.6111574E0,1.1827391E-1,2.3902657E0,2.2094603E0,2.8724065E0,2.8200462E0,2.7096689E0,2.432799E0,2.6569998E0,1.1955221E-1,2.4796689E0,2.3823447E0,2.6626098E0,2.5594542E0,1.2205094E-1,1.193599E-1,2.2217631E0,3.3321343E-3,2.872594E0,2.8350115E0,2.834444E0,2.7670858E0,2.7291157E0,1.2936988E-1,1.2591039E-1,1.1943617E-1,2.668587E0,1.2611513E-1,1.2497542E-1,1.1641973E-1,1.1916929E-1,1.6394699E0,1.3388604E-1,1.2420728E-1,1.2854922E-1,1.167775E-1,2.234673E0,3.6900505E-2,1.4363806E-1,1.4339128E-1,1.422917E-1,1.3969381E-1,1.419377E-1,1.3813633E-1,1.3904521E-1,1.3619809E-1,1.3708559E-1,1.3098687E-1,1.3456021E-1,1.3034104E-1,1.0649218E-1,5.0222047E-2,1.1266916E-1,7.218615E-2],"categories":[],"categories_nodes":[],"categories_segments":[],"categories_sizes":[],"default_left":[0,0,0,0,0,0,0,0,0,0,0,0,0,0,0,0,0,0,0,0,0,0,0,0,0,0,0,0,0,0,0,0,0,0,0,0,0,0,0,0,0,0,0,0,0,0,0,0,0,0,0,0,0,0,0,0,0,0,0,0,0,0,0,0,0],"id":18,"left_children":[1,3,5,7,9,11,13,15,17,19,21,23,-1,25,27,29,31,33,35,37,-1,39,41,43,45,-1,-1,47,-1,49,51,53,55,57,-1,-1,-1,59,-1,-1,-1,-1,61,-1,-1,-1,-1,63,-1,-1,-1,-1,-1,-1,-1,-1,-1,-1,-1,-1,-1,-1,-1,-1,-1],"loss_changes":[9.2E3,2.528E3,2.8090625E2,6E2,2.5489062E2,3.6378906E1,2.03125E0,1.92E2,1.5574219E2,1.9339844E1,1.01640625E1,1.45078125E1,0E0,7.8125E-2,6.123169E0,7.2E1,4.7125E1,1.0261719E1,5.2558594E0,4.4296875E0,0E0,4.267578E-1,2.8710938E0,4.1132812E0,4.3808594E0,0E0,0E0,2.8807373E0,0E0,8E0,1.8125E1,9.625E0,1.625E0,1.4453125E0,0E0,0E0,0E0,2.1640625E0,0E0,0E0,0E0,0E0,2.6783981E0,0E0,0E0,0E0,0E0,2.0898438E-1,0E0,0E0,0E0,0E0,0E0,0E0,0E0,0E0,0E0,0E0,0E0,0E0,0E0,0E0,0E0,0E0,0E0],"parents":[2147483647,0,0,1,1,2,2,3,3,4,4,5,5,6,6,7,7,8,8,9,9,10,10,11,11,13,13,14,14,15,15,16,16,17,17,18,18,19,19,21,21,22,22,23,23,24,24,27,27,29,29,30,30,31,31,32,32,33,33,37,37,42,42,47,47],"right_children":[2,4,6,8,10,12,14,16,18,20,22,24,-1,26,28,30,32,34,36,38,-1,40,42,44,46,-1,-1,48,-1,50,52,54,56,58,-1,-1,-1,60,-1,-1,-1,-1,62,-1,-1,-1,-1,64,-1,-1,-1,-1,-1,-1,-1,-1,-1,-1,-1,-1,-1,-1,-1,-1,-1],"split_conditions":[7.04E2,2E2,1.286E3,4.5E1,3.76E2,7.4E1,1.365E3,6.5E1,1.72E2,5.9E1,4.8E2,9.6E2,1.1827391E-1,1.52E3,7.301556E10,1.3E1,3.12E2,3.12E2,2.55E2,1.84E2,1.1955221E-1,2.2E1,9.449072E10,3.4E1,2.6E1,1.2205094E-1,1.193599E-1,2.37E3,3.3321343E-3,1E0,8E1,5.6E1,5.62E2,4.8E1,1.2936988E-1,1.2591039E-1,1.1943617E-1,3E2,1.2611513E-1,1.2497542E-1,1.1641973E-1,1.1916929E-1,6.2E1,1.3388604E-1,1.2420728E-1,1.2854922E-1,1.167775E-1,3.7128E4,3.6900505E-2,1.4363806E-1,1.4339128E-1,1.422917E-1,1.3969381E-1,1.419377E-1,1.3813633E-1,1.3904521E-1,1.3619809E-1,1.3708559E-1,1.3098687E-1,1.3456021E-1,1.3034104E-1,1.0649218E-1,5.0222047E-2,1.1266916E-1,7.218615E-2],"split_indices":[0,3,0,1,3,1,4,0,1,1,3,0,0,0,2,3,0,0,1,0,0,1,2,3,3,0,0,1,0,0,3,3,0,3,0,0,0,3,0,0,0,0,1,0,0,0,0,0,0,0,0,0,0,0,0,0,0,0,0,0,0,0,0,0,0],"split_type":[0,0,0,0,0,0,0,0,0,0,0,0,0,0,0,0,0,0,0,0,0,0,0,0,0,0,0,0,0,0,0,0,0,0,0,0,0,0,0,0,0,0,0,0,0,0,0,0,0,0,0,0,0,0,0,0,0,0,0,0,0,0,0,0,0],"sum_hessian":[1.1852033E7,1.1805219E7,4.6814133E4,1.178683E7,1.8388295E4,8.795892E3,3.8018242E4,1.1776554E7,1.027604E4,7.5422627E3,1.0846032E4,8.013285E3,7.826064E2,3.7781363E4,2.368792E2,1.1704471E7,7.20831E4,7.2830186E3,2.9930212E3,7.150656E3,3.9160672E2,2.0803997E3,8.765633E3,3.9910818E3,4.0222036E3,2.1083389E3,3.5673023E4,2.354903E2,1.3888888E0,1.1646015E7,5.8456074E4,5.663398E4,1.5449121E4,6.26523E3,1.0177883E3,9.9970386E2,1.9933173E3,6.5669287E3,5.837271E2,1.8254669E3,2.5493272E2,8.751162E3,1.44710245E1,3.6666167E3,3.2446497E2,3.8152534E3,2.0695013E2,2.3295728E2,2.5330257E0,1.1250974E7,3.9504078E5,4.622632E4,1.2229751E4,5.338704E4,3.246944E3,1.165199E4,3.7971313E3,5.5966577E3,6.685727E2,4.775643E3,1.7912854E3,6.837291E0,7.6337337E0,2.2576773E2,7.189549E0],"tree_param":{"num_deleted":"0","num_feature":"5","num_nodes":"65","size_leaf_vector":"1"}},{"base_weights":[2.7569141E0,2.7585304E0,2.3276224E0,2.759066E0,2.398232E0,2.4737606E0,2.3023922E0,2.7592788E0,2.531359E0,2.5359485E0,2.3135655E0,2.5081925E0,1.1730087E-1,1.1516529E-1,2.1432743E0,2.7594795E0,2.666904E0,2.6008184E0,2.3425095E0,2.549398E0,1.1507726E-1,2.4089282E0,2.2985692E0,1.2702774E-1,1.2215742E-1,2.1556957E0,3.2352698E-3,2.7596796E0,2.7125773E0,2.6847336E0,1.3019119E-1,2.6233644E0,2.4616404E0,2.4167507E0,1.14752404E-1,1.2844414E-1,1.23212636E-1,1.2183638E-1,2.2569675E0,1.14967585E-1,1.6452055E0,1.08113684E-1,4.327957E-2,1.379913E-1,1.3692442E-1,1.361892E-1,1.3289072E-1,1.3441634E-1,1.2634623E-1,1.3176718E-1,1.2594713E-1,1.24495484E-1,1.13451675E-1,1.2244767E-1,1.1285889E-1,2.8427416E-2,1.1318461E-1,9.106189E-2,-1.0520092E-3],"categories":[],"categories_nodes":[],"categories_segments":[],"categories_sizes":[],"default_left":[0,0,0,0,0,0,0,0,0,0,0,0,0,0,0,0,0,0,0,0,0,0,0,0,0,0,0,0,0,0,0,0,0,0,0,0,0,0,0,0,0,0,0,0,0,0,0,0,0,0,0,0,0,0,0,0,0,0,0],"id":19,"left_children":[1,3,5,7,9,11,13,15,17,19,21,23,-1,-1,25,27,29,31,33,35,-1,37,39,-1,-1,41,-1,43,45,47,-1,49,51,53,-1,-1,-1,-1,55,-1,57,-1,-1,-1,-1,-1,-1,-1,-1,-1,-1,-1,-1,-1,-1,-1,-1,-1,-1],"loss_changes":[8.128E3,2.248E3,1.5646875E2,5.6E2,1.9638281E2,2.2535156E1,5.3125E-1,2.16E2,1.3682031E2,1.4921875E1,9.847656E0,4.4804688E0,0E0,0E0,5.7625732E0,1.04E2,2.1453125E1,1.8503906E1,4.8115234E0,4.0039062E0,0E0,5.859375E-1,9.8046875E-1,0E0,0E0,5.6396484E-2,0E0,3.2E1,2.309375E1,4.359375E0,0E0,1.9101562E0,4.7851562E-1,2.6660156E-1,0E0,0E0,0E0,0E0,1.395874E0,0E0,4.336834E0,0E0,0E0,0E0,0E0,0E0,0E0,0E0,0E0,0E0,0E0,0E0,0E0,0E0,0E0,0E0,0E0,0E0,0E0],"parents":[2147483647,0,0,1,1,2,2,3,3,4,4,5,5,6,6,7,7,8,8,9,9,10,10,11,11,14,14,15,15,16,16,17,17,18,18,19,19,21,21,22,22,25,25,27,27,28,28,29,29,31,31,32,32,33,33,38,38,40,40],"right_children":[2,4,6,8,10,12,14,16,18,20,22,24,-1,-1,26,28,30,32,34,36,-1,38,40,-1,-1,42,-1,44,46,48,-1,50,52,54,-1,-1,-1,-1,56,-1,58,-1,-1,-1,-1,-1,-1,-1,-1,-1,-1,-1,-1,-1,-1,-1,-1,-1,-1],"split_conditions":[8.24E2,2.13E2,1.286E3,4.3E1,3.76E2,1.8E1,1.365E3,2.24E2,1.72E2,5.9E1,4.48E2,1.112E3,1.1730087E-1,1.1516529E-1,2.2763713E11,1.7E1,5.62E2,3.76E2,2.84E2,9.6E1,1.1507726E-1,9.6E1,1.0308085E11,1.2702774E-1,1.2215742E-1,4.7888E4,3.2352698E-3,3.3E1,1.14E2,8E1,1.3019119E-1,5.3E1,5.9E1,4.1E1,1.14752404E-1,1.2844414E-1,1.23212636E-1,1.2183638E-1,9.8E1,1.14967585E-1,2.55E2,1.08113684E-1,4.327957E-2,1.379913E-1,1.3692442E-1,1.361892E-1,1.3289072E-1,1.3441634E-1,1.2634623E-1,1.3176718E-1,1.2594713E-1,1.24495484E-1,1.13451675E-1,1.2244767E-1,1.1285889E-1,2.8427416E-2,1.1318461E-1,9.106189E-2,-1.0520092E-3],"split_indices":[0,3,0,1,3,1,4,0,1,1,3,0,0,0,2,3,0,0,1,0,0,0,2,0,0,0,0,0,3,3,0,3,3,3,0,0,0,0,0,0,1,0,0,0,0,0,0,0,0,0,0,0,0,0,0,0,0,0,0],"split_type":[0,0,0,0,0,0,0,0,0,0,0,0,0,0,0,0,0,0,0,0,0,0,0,0,0,0,0,0,0,0,0,0,0,0,0,0,0,0,0,0,0,0,0,0,0,0,0,0,0,0,0,0,0,0,0,0,0,0,0],"sum_hessian":[1.1722466E7,1.167849E7,4.3976133E4,1.1661145E7,1.7345031E4,6.460205E3,3.7515926E4,1.1650251E7,1.0893998E4,6.5926455E3,1.0752386E4,5.0739434E3,1.386262E3,3.7288332E4,2.275931E2,1.1624953E7,2.5297564E4,7.955263E3,2.938735E3,6.225558E3,3.670877E2,1.4393988E3,9.312986E3,3.3627646E3,1.7111786E3,2.262042E2,1.3888888E0,1.1575553E7,4.9400164E4,1.969051E4,5.607056E3,6.8308506E3,1.1244126E3,1.1265746E3,1.8121606E3,5.0424697E3,1.1830879E3,1.2040901E3,2.3530872E2,9.299331E3,1.3655029E1,2.2438408E2,1.8201193E0,1.1496151E7,7.940205E4,4.0967902E4,8.432263E3,1.9236484E4,4.5402582E2,6.106121E3,7.247295E2,9.7010156E2,1.5431099E2,9.254632E2,2.0111139E2,1.27281E0,2.3403592E2,1.2266141E1,1.3888888E0],"tree_param":{"num_deleted":"0","num_feature":"5","num_nodes":"59","size_leaf_vector":"1"}},{"base_weights":[2.6502602E0,2.6518307E0,2.2529202E0,2.6523044E0,2.28503E0,2.3989246E0,2.219104E0,2.652487E0,2.4182498E0,2.397737E0,2.2154543E0,2.4181738E0,1.0984986E-1,2.2201939E0,2.078496E0,2.6528237E0,2.60786E0,2.4977138E0,2.2562587E0,2.4158301E0,1.1157644E-1,1.109584E-1,2.0634212E0,2.4654067E0,2.3712091E0,2.2703836E0,1.1085971E-1,2.0932002E0,3.0510363E-1,2.6529422E0,2.5884078E0,2.6200898E0,2.5599985E0,2.5155864E0,1.1876669E-1,2.3211238E0,1.10663556E-1,2.4520335E0,1.1780085E-1,2.1499827E0,1.8153898E0,1.2394581E-1,1.15099095E-1,1.1910565E-1,1.0819774E-1,1.1536024E-1,1.0993248E-1,1.051715E-1,3.1880032E-2,-5.62758E-3,3.061453E-2,1.3265303E-1,1.3195913E-1,1.3023677E-1,1.26557E-1,1.3120317E-1,1.2459618E-1,1.2823889E-1,1.1890093E-1,1.270641E-1,1.2290813E-1,1.18608534E-1,1.108123E-1,1.2373783E-1,1.1833705E-1,1.0834061E-1,2.4171123E-2,9.9582516E-2,4.496087E-2],"categories":[],"categories_nodes":[],"categories_segments":[],"categories_sizes":[],"default_left":[0,0,0,0,0,0,0,0,0,0,0,0,0,0,0,0,0,0,0,0,0,0,0,0,0,0,0,0,0,0,0,0,0,0,0,0,0,0,0,0,0,0,0,0,0,0,0,0,0,0,0,0,0,0,0,0,0,0,0,0,0,0,0,0,0,0,0,0,0],"id":20,"left_children":[1,3,5,7,9,11,13,15,17,19,21,23,-1,25,27,29,31,33,35,37,-1,-1,39,41,43,45,-1,47,49,51,53,55,57,59,-1,61,-1,63,-1,65,67,-1,-1,-1,-1,-1,-1,-1,-1,-1,-1,-1,-1,-1,-1,-1,-1,-1,-1,-1,-1,-1,-1,-1,-1,-1,-1,-1,-1],"loss_changes":[7.232E3,1.992E3,2.199375E2,4.88E2,1.1146094E2,2.7992188E1,1.09375E0,1.68E2,1.10125E2,1.1667969E1,6.2890625E-1,1.1484375E1,0E0,5E-1,7.203247E0,8E1,4.38125E1,7.203125E0,3.1445312E0,5.2714844E0,0E0,0E0,1.123169E0,2.8378906E0,3.7578125E0,2.939453E-1,0E0,3.0975342E0,5.3638613E-1,1.6E1,1.3078125E1,2.846875E1,9.2109375E0,1.484375E0,0E0,9.707031E-1,0E0,2.5390625E-1,0E0,3.6677246E0,9.027115E0,0E0,0E0,0E0,0E0,0E0,0E0,0E0,0E0,0E0,0E0,0E0,0E0,0E0,0E0,0E0,0E0,0E0,0E0,0E0,0E0,0E0,0E0,0E0,0E0,0E0,0E0,0E0,0E0],"parents":[2147483647,0,0,1,1,2,2,3,3,4,4,5,5,6,6,7,7,8,8,9,9,10,10,11,11,13,13,14,14,15,15,16,16,17,17,18,18,19,19,22,22,23,23,24,24,25,25,27,27,28,28,29,29,30,30,31,31,32,32,33,33,35,35,37,37,39,39,40,40],"right_children":[2,4,6,8,10,12,14,16,18,20,22,24,-1,26,28,30,32,34,36,38,-1,-1,40,42,44,46,-1,48,50,52,54,56,58,60,-1,62,-1,64,-1,66,68,-1,-1,-1,-1,-1,-1,-1,-1,-1,-1,-1,-1,-1,-1,-1,-1,-1,-1,-1,-1,-1,-1,-1,-1,-1,-1,-1,-1],"split_conditions":[7.04E2,2.56E2,1.286E3,5.3E1,4.48E2,7.4E1,1.084E3,5E1,1.72E2,2.5E1,8.590131E9,9.6E2,1.0984986E-1,1.52E3,7.301556E10,4.9E1,2.8E2,4.8E1,2.84E2,3.44E2,1.1157644E-1,1.109584E-1,1.752E3,3.4E1,2.6E1,1E1,1.1085971E-1,2.37E3,6.624E3,1E0,1.53E2,1.28E2,6.4E1,7.3E1,1.1876669E-1,5.7E1,1.10663556E-1,1.12E2,1.1780085E-1,1.0308085E11,6.2E1,1.2394581E-1,1.15099095E-1,1.1910565E-1,1.0819774E-1,1.1536024E-1,1.0993248E-1,1.051715E-1,3.1880032E-2,-5.62758E-3,3.061453E-2,1.3265303E-1,1.3195913E-1,1.3023677E-1,1.26557E-1,1.3120317E-1,1.2459618E-1,1.2823889E-1,1.1890093E-1,1.270641E-1,1.2290813E-1,1.18608534E-1,1.108123E-1,1.2373783E-1,1.1833705E-1,1.0834061E-1,2.4171123E-2,9.9582516E-2,4.496087E-2],"split_indices":[0,3,0,1,3,1,3,0,1,1,2,0,0,0,2,3,0,3,1,3,0,0,3,3,3,1,0,1,0,1,3,3,3,0,0,0,0,0,0,2,1,0,0,0,0,0,0,0,0,0,0,0,0,0,0,0,0,0,0,0,0,0,0,0,0,0,0,0,0],"split_type":[0,0,0,0,0,0,0,0,0,0,0,0,0,0,0,0,0,0,0,0,0,0,0,0,0,0,0,0,0,0,0,0,0,0,0,0,0,0,0,0,0,0,0,0,0,0,0,0,0,0,0,0,0,0,0,0,0,0,0,0,0,0,0,0,0,0,0,0,0],"sum_hessian":[1.1586654E7,1.1541027E7,4.562693E4,1.1526137E7,1.489008E4,8.567179E3,3.7059754E4,1.1517145E7,8.992056E3,5.670622E3,9.219458E3,7.811547E3,7.556317E2,3.6760023E4,2.9972986E2,1.1430854E7,8.629108E4,6.023056E3,2.9690002E3,5.1017207E3,5.689015E2,8.986351E3,2.3310744E2,3.8689797E3,3.9425671E3,2.0306991E3,3.4729324E4,2.970862E2,2.6436336E0,1.1409799E7,2.105477E4,6.86862E4,1.7604877E4,5.238465E3,7.845911E2,1.1622517E3,1.8067485E3,3.1531868E3,1.9485339E3,1.6711658E2,6.599087E1,3.560483E3,3.084968E2,3.7355452E3,2.0702191E2,1.3213049E3,7.0939417E2,2.9457092E2,2.5152912E0,1.3888888E0,1.2547448E0,1.1312532E7,9.7267125E4,1.6349004E4,4.7057666E3,6.660179E4,2.0844119E3,1.7141621E4,4.6325616E2,3.5891726E3,1.6492922E3,7.672116E2,3.9504004E2,2.4677378E3,6.85449E2,1.6514868E2,1.9678929E0,5.4358974E1,1.1631891E1],"tree_param":{"num_deleted":"0","num_feature":"5","num_nodes":"69","size_leaf_vector":"1"}},{"base_weights":[2.5492651E0,2.550749E0,2.1728308E0,2.5512269E0,2.2269282E0,2.31128E0,2.140479E0,2.551406E0,2.3453078E0,2.340403E0,2.14301E0,2.3302135E0,1.0620936E-1,1.0707825E-1,1.9607496E0,2.5516963E0,2.50845E0,2.413259E0,2.178053E0,2.3553405E0,1.08589165E-1,1.1025057E-1,1.06670715E-1,2.3557358E0,2.2532861E0,1.9776926E0,3.4325954E-3,1.2759563E-1,2.528151E0,2.5198498E0,2.4617262E0,1.2212137E-1,2.3512626E0,2.244862E0,1.06683664E-1,2.3862472E0,1.1515242E-1,1.18209794E-1,1.0972561E-1,1.1279183E-1,5.3643834E-2,1.9900998E0,3.0776283E-2,1.2672159E-1,1.2413317E-1,1.2619127E-1,1.2207625E-1,1.2309785E-1,5.548929E-2,1.176061E-1,2.3004947E-2,1.1461443E-1,1.0743071E-1,1.196536E-1,1.08709514E-1,1.0043498E-1,6.1731488E-2],"categories":[],"categories_nodes":[],"categories_segments":[],"categories_sizes":[],"default_left":[0,0,0,0,0,0,0,0,0,0,0,0,0,0,0,0,0,0,0,0,0,0,0,0,0,0,0,0,0,0,0,0,0,0,0,0,0,0,0,0,0,0,0,0,0,0,0,0,0,0,0,0,0,0,0,0,0],"id":21,"left_children":[1,3,5,7,9,11,13,15,17,19,21,23,-1,-1,25,27,29,31,33,35,-1,-1,-1,37,39,41,-1,-1,43,45,47,-1,49,51,-1,53,-1,-1,-1,-1,-1,55,-1,-1,-1,-1,-1,-1,-1,-1,-1,-1,-1,-1,-1,-1,-1],"loss_changes":[6.384E3,1.768E3,1.9634375E2,4.16E2,1.5496094E2,2.5164062E1,2.921875E0,1.36E2,1.0727344E2,1.2847656E1,1.046875E0,9.828125E0,0E0,0E0,7.2594604E0,5.6E1,3.446875E1,6.9726562E0,3.7216797E0,5.0742188E0,0E0,0E0,0E0,2.6738281E0,3.4296875E0,2.6386108E0,0E0,0E0,2.3E1,1.29375E1,1.953125E0,0E0,2.618164E0,2.1777344E-1,0E0,7.050781E-1,0E0,0E0,0E0,0E0,0E0,6.970215E-1,0E0,0E0,0E0,0E0,0E0,0E0,0E0,0E0,0E0,0E0,0E0,0E0,0E0,0E0,0E0],"parents":[2147483647,0,0,1,1,2,2,3,3,4,4,5,5,6,6,7,7,8,8,9,9,10,10,11,11,14,14,15,15,16,16,17,17,18,18,19,19,23,23,24,24,25,25,28,28,29,29,30,30,32,32,33,33,35,35,41,41],"right_children":[2,4,6,8,10,12,14,16,18,20,22,24,-1,-1,26,28,30,32,34,36,-1,-1,-1,38,40,42,-1,-1,44,46,48,-1,50,52,-1,54,-1,-1,-1,-1,-1,56,-1,-1,-1,-1,-1,-1,-1,-1,-1,-1,-1,-1,-1,-1,-1],"split_conditions":[7.04E2,2.13E2,1.286E3,4.5E1,4.16E2,6.7E1,1.365E3,5.7E1,1.72E2,2.7E1,4.8E2,1.112E3,1.0620936E-1,1.0707825E-1,2.2763713E11,5E0,3.12E2,7.3E1,2.84E2,3E2,1.08589165E-1,1.1025057E-1,1.06670715E-1,4.1E1,8.16E2,2.37E3,3.4325954E-3,1.2759563E-1,7.5E1,7.2E1,6.83E2,1.2212137E-1,1.0308085E11,4.2E1,1.06683664E-1,3.12E2,1.1515242E-1,1.18209794E-1,1.0972561E-1,1.1279183E-1,5.3643834E-2,3.7128E4,3.0776283E-2,1.2672159E-1,1.2413317E-1,1.2619127E-1,1.2207625E-1,1.2309785E-1,5.548929E-2,1.176061E-1,2.3004947E-2,1.1461443E-1,1.0743071E-1,1.196536E-1,1.08709514E-1,1.0043498E-1,6.1731488E-2],"split_indices":[0,3,0,1,3,1,4,0,1,1,3,0,0,0,2,3,0,0,1,3,0,0,0,3,3,1,0,0,3,3,4,0,2,0,0,0,0,0,0,0,0,0,0,0,0,0,0,0,0,0,0,0,0,0,0,0,0],"split_type":[0,0,0,0,0,0,0,0,0,0,0,0,0,0,0,0,0,0,0,0,0,0,0,0,0,0,0,0,0,0,0,0,0,0,0,0,0,0,0,0,0,0,0,0,0,0,0,0,0,0,0,0,0,0,0,0,0],"sum_hessian":[1.1444048E7,1.1399103E7,4.4944184E4,1.1382305E7,1.6797928E4,8.499596E3,3.644459E4,1.1372405E7,9.900043E3,7.1299243E3,9.668003E3,7.708086E3,7.915099E2,3.6214902E4,2.2968547E2,1.129598E7,7.6425516E4,7.0303667E3,2.8696763E3,6.5378027E3,5.9212164E2,1.265083E3,8.40292E3,5.7656113E3,1.9424746E3,2.2760214E2,2.0833333E0,1.1193035E7,1.02944695E5,6.1393543E4,1.5031977E4,4.7548765E3,2.2754902E3,1.125607E3,1.7440692E3,4.0810793E3,2.4567236E3,5.465169E3,3.0044247E2,1.9373778E3,5.0968633E0,2.2509094E2,2.511193E0,9.0407016E4,1.2537684E4,5.8398164E4,2.9953801E3,1.5028592E4,3.3850322E0,2.274213E3,1.2773379E0,7.387624E2,3.868446E2,3.9438674E3,1.3721176E2,2.1806326E2,7.0276814E0],"tree_param":{"num_deleted":"0","num_feature":"5","num_nodes":"57","size_leaf_vector":"1"}},{"base_weights":[2.4536E0,2.4550047E0,2.0962899E0,2.455428E0,2.124065E0,2.2277894E0,2.065752E0,2.4555905E0,2.2459655E0,2.235561E0,2.0671153E0,2.245378E0,1.02067806E-1,1.03336416E-1,1.9064285E0,2.455879E0,2.4133773E0,2.3166432E0,2.1003664E0,2.2508588E0,1.0428341E-1,2.06799E0,1.5152357E0,2.2877262E0,2.2029135E0,1.9173657E0,2.6782542E-3,2.4560196E0,2.40987E0,2.4259627E0,2.374857E0,2.3337126E0,1.1000866E-1,1.0843694E-1,1.03200845E-1,2.2693102E0,1.08725905E-1,1.0630983E-1,1.02942705E-1,5.8247864E-1,8.8272676E-2,1.150127E-1,1.0710978E-1,1.1078125E-1,2.0543594E0,1.9293153E0,2.9710686E-2,1.2280601E-1,1.2206318E-1,1.21082604E-1,1.17574446E-1,1.21475734E-1,1.1503162E-1,1.1894355E-1,1.10629715E-1,1.1746384E-1,1.1297872E-1,1.14870764E-1,1.1055412E-1,5.815178E-2,-1.2246859E-2,1.0344856E-1,6.7064606E-2,3.2580294E-2,9.682178E-2],"categories":[],"categories_nodes":[],"categories_segments":[],"categories_sizes":[],"default_left":[0,0,0,0,0,0,0,0,0,0,0,0,0,0,0,0,0,0,0,0,0,0,0,0,0,0,0,0,0,0,0,0,0,0,0,0,0,0,0,0,0,0,0,0,0,0,0,0,0,0,0,0,0,0,0,0,0,0,0,0,0,0,0,0,0],"id":22,"left_children":[1,3,5,7,9,11,13,15,17,19,21,23,-1,-1,25,27,29,31,33,35,-1,37,39,41,43,45,-1,47,49,51,53,55,-1,-1,-1,57,-1,-1,-1,59,-1,-1,-1,-1,61,63,-1,-1,-1,-1,-1,-1,-1,-1,-1,-1,-1,-1,-1,-1,-1,-1,-1,-1,-1],"loss_changes":[5.672E3,1.576E3,1.731875E2,3.76E2,8.668359E1,2.2734375E1,1.671875E0,1.36E2,8.508594E1,6.4277344E0,1.46875E0,8.6328125E0,0E0,0E0,4.5943604E0,7.2E1,3.121875E1,6.544922E0,2.649414E0,1.2460938E0,0E0,6.8359375E-1,3.3655548E0,1.9628906E0,2.6679688E0,2.496338E0,0E0,8E0,1.7734375E1,1.996875E1,7.015625E0,5.859375E-1,0E0,0E0,0E0,6.640625E-1,0E0,0E0,0E0,2.914575E0,0E0,0E0,0E0,0E0,5.078125E-1,8.1140137E-1,0E0,0E0,0E0,0E0,0E0,0E0,0E0,0E0,0E0,0E0,0E0,0E0,0E0,0E0,0E0,0E0,0E0,0E0,0E0],"parents":[2147483647,0,0,1,1,2,2,3,3,4,4,5,5,6,6,7,7,8,8,9,9,10,10,11,11,14,14,15,15,16,16,17,17,18,18,19,19,21,21,22,22,23,23,24,24,25,25,27,27,28,28,29,29,30,30,31,31,35,35,39,39,44,44,45,45],"right_children":[2,4,6,8,10,12,14,16,18,20,22,24,-1,-1,26,28,30,32,34,36,-1,38,40,42,44,46,-1,48,50,52,54,56,-1,-1,-1,58,-1,-1,-1,60,-1,-1,-1,-1,62,64,-1,-1,-1,-1,-1,-1,-1,-1,-1,-1,-1,-1,-1,-1,-1,-1,-1,-1,-1],"split_conditions":[7.04E2,2.56E2,1.286E3,5.3E1,4.16E2,7.4E1,1.365E3,5.7E1,1.72E2,2.5E1,4.724536E10,9.6E2,1.02067806E-1,1.03336416E-1,2.2763713E11,2.6E1,2.61E2,4.8E1,2.55E2,9.6E1,1.0428341E-1,4.8E2,3.352E3,3.4E1,1.7E1,2.37E3,2.6782542E-3,3E0,1.44E2,1.36E2,7E1,2.4E2,1.1000866E-1,1.0843694E-1,1.03200845E-1,3.44E2,1.08725905E-1,1.0630983E-1,1.02942705E-1,1.304E3,8.8272676E-2,1.150127E-1,1.0710978E-1,1.1078125E-1,8.16E2,1E0,2.9710686E-2,1.2280601E-1,1.2206318E-1,1.21082604E-1,1.17574446E-1,1.21475734E-1,1.1503162E-1,1.1894355E-1,1.10629715E-1,1.1746384E-1,1.1297872E-1,1.14870764E-1,1.1055412E-1,5.815178E-2,-1.2246859E-2,1.0344856E-1,6.7064606E-2,3.2580294E-2,9.682178E-2],"split_indices":[0,3,0,1,3,1,4,0,1,1,2,0,0,0,2,3,0,3,1,0,0,3,3,3,3,1,0,1,3,3,3,0,0,0,0,3,0,0,0,3,0,0,0,0,3,1,0,0,0,0,0,0,0,0,0,0,0,0,0,0,0,0,0,0,0],"split_type":[0,0,0,0,0,0,0,0,0,0,0,0,0,0,0,0,0,0,0,0,0,0,0,0,0,0,0,0,0,0,0,0,0,0,0,0,0,0,0,0,0,0,0,0,0,0,0,0,0,0,0,0,0,0,0,0,0,0,0,0,0,0,0,0,0],"sum_hessian":[1.1303199E7,1.1258927E7,4.4271598E4,1.1244548E7,1.4378804E4,8.329904E3,3.594169E4,1.1235808E7,8.740166E3,4.8483794E3,9.530425E3,7.601695E3,7.282096E2,3.571091E4,2.3078104E2,1.1159526E7,7.6281734E4,5.8739062E3,2.8662603E3,4.3866685E3,4.617107E2,9.512599E3,1.7826197E1,3.7795874E3,3.8221074E3,2.2939215E2,1.3888888E0,1.1125439E7,3.4086965E4,5.74497E4,1.8832035E4,5.10648E3,7.674264E2,9.74529E2,1.8917312E3,3.5096555E3,8.7701306E2,1.2590923E3,8.253506E3,4.4744215E0,1.3351775E1,3.4663857E3,3.132017E2,3.5080173E3,3.1409003E2,2.2688498E2,2.507166E0,1.1049958E7,7.5481914E4,2.8329213E4,5.7577544E3,5.5848508E4,1.6011945E3,1.8364078E4,4.679563E2,4.195099E3,9.113806E2,2.3411743E3,1.1684812E3,2.3910882E0,2.0833333E0,3.059199E2,8.170145E0,1.7700158E0,2.2511497E2],"tree_param":{"num_deleted":"0","num_feature":"5","num_nodes":"65","size_leaf_vector":"1"}},{"base_weights":[2.3629618E0,2.3642967E0,2.0238547E0,2.364691E0,2.0410728E0,2.149053E0,1.9949045E0,2.3647995E0,2.06971E0,2.135641E0,1.9903224E0,2.1767645E0,2.0386472E0,1.9959664E0,1.8606839E0,2.3651521E0,2.3293703E0,2.1370819E0,9.957822E-2,2.1514323E0,9.942615E-2,9.969335E-2,1.8444957E0,2.21616E0,1.0677703E-1,1.0442199E-1,9.848093E-2,1.0213081E-1,9.9656336E-2,1.8788985E0,2.0647714E-1,2.3652499E0,2.306457E0,2.3398373E0,2.287006E0,2.165171E0,1.00347005E-1,1.0918432E-1,2.110336E0,1.1333559E-2,1.8523874E0,1.1101606E-1,9.3436845E-2,9.64213E-2,1.574597E0,2.8012482E-2,-5.868411E-3,1.1826461E-1,1.15519695E-1,1.160839E-1,1.1306139E-1,1.1722659E-1,1.1291259E-1,1.1465646E-1,1.0732817E-1,1.098055E-1,1.0208789E-1,1.0581441E-1,8.851785E-2,9.676437E-2,8.050764E-2,3.449779E-3,8.196991E-2],"categories":[],"categories_nodes":[],"categories_segments":[],"categories_sizes":[],"default_left":[0,0,0,0,0,0,0,0,0,0,0,0,0,0,0,0,0,0,0,0,0,0,0,0,0,0,0,0,0,0,0,0,0,0,0,0,0,0,0,0,0,0,0,0,0,0,0,0,0,0,0,0,0,0,0,0,0,0,0,0,0,0,0],"id":23,"left_children":[1,3,5,7,9,11,13,15,17,19,21,23,25,27,29,31,33,35,-1,37,-1,-1,39,41,-1,-1,-1,-1,-1,43,45,47,49,51,53,55,-1,-1,57,-1,59,-1,-1,-1,61,-1,-1,-1,-1,-1,-1,-1,-1,-1,-1,-1,-1,-1,-1,-1,-1,-1,-1],"loss_changes":[5.04E3,1.412E3,1.5425E2,3.52E2,6.0746094E1,2.0652344E1,1.328125E0,1.36E2,1.7253906E1,6.6777344E0,8.7890625E-1,5.888672E0,1.5966797E0,5.9375E-1,8.461609E0,6E1,4.31875E1,3.625E0,0E0,1.0195312E0,0E0,0E0,2.4249878E0,6.4941406E-1,0E0,0E0,0E0,0E0,0E0,1.3398438E0,5.6093836E-1,2E1,7.3515625E0,2.828125E1,1.37578125E1,2.3164062E0,0E0,0E0,9.277344E-2,0E0,1.3338623E0,0E0,0E0,0E0,4.3842545E0,0E0,0E0,0E0,0E0,0E0,0E0,0E0,0E0,0E0,0E0,0E0,0E0,0E0,0E0,0E0,0E0,0E0,0E0],"parents":[2147483647,0,0,1,1,2,2,3,3,4,4,5,5,6,6,7,7,8,8,9,9,10,10,11,11,12,12,13,13,14,14,15,15,16,16,17,17,19,19,22,22,23,23,29,29,30,30,31,31,32,32,33,33,34,34,35,35,38,38,40,40,44,44],"right_children":[2,4,6,8,10,12,14,16,18,20,22,24,26,28,30,32,34,36,-1,38,-1,-1,40,42,-1,-1,-1,-1,-1,44,46,48,50,52,54,56,-1,-1,58,-1,60,-1,-1,-1,62,-1,-1,-1,-1,-1,-1,-1,-1,-1,-1,-1,-1,-1,-1,-1,-1,-1,-1],"split_conditions":[7.04E2,2.69E2,1.286E3,1.25E2,4.48E2,2E1,1.084E3,3.5E1,2.55E2,2.8E1,8.591114E9,9.6E2,7.4E1,1.52E3,7.301556E10,5.6E1,2.4E2,4.1E1,9.957822E-2,3.44E2,9.942615E-2,9.969335E-2,1.2885098E10,1.12E2,1.0677703E-1,1.0442199E-1,9.848093E-2,1.0213081E-1,9.9656336E-2,4.295557E9,3.47E2,2.1E1,1.53E2,8E1,5.6E1,2.8E2,1.00347005E-1,1.0918432E-1,2.61E2,1.1333559E-2,1.752E3,1.1101606E-1,9.3436845E-2,9.64213E-2,8.590066E9,2.8012482E-2,-5.868411E-3,1.1826461E-1,1.15519695E-1,1.160839E-1,1.1306139E-1,1.1722659E-1,1.1291259E-1,1.1465646E-1,1.0732817E-1,1.098055E-1,1.0208789E-1,1.0581441E-1,8.851785E-2,9.676437E-2,8.050764E-2,3.449779E-3,8.196991E-2],"split_indices":[0,3,0,1,3,1,3,0,1,1,2,0,1,0,2,3,0,3,0,3,0,0,2,3,0,0,0,0,0,2,1,1,3,3,3,0,0,0,0,0,3,0,0,0,2,0,0,0,0,0,0,0,0,0,0,0,0,0,0,0,0,0,0],"split_type":[0,0,0,0,0,0,0,0,0,0,0,0,0,0,0,0,0,0,0,0,0,0,0,0,0,0,0,0,0,0,0,0,0,0,0,0,0,0,0,0,0,0,0,0,0,0,0,0,0,0,0,0,0,0,0,0,0,0,0,0,0,0,0],"sum_hessian":[1.1151953E7,1.1108218E7,4.3734895E4,1.1094677E7,1.3541199E4,8.199988E3,3.5534906E4,1.1090592E7,4.084741E3,4.7147295E3,8.82647E3,6.5398027E3,1.6601854E3,3.5242207E4,2.927008E2,1.0981217E7,1.0937502E5,2.1794353E3,1.9053058E3,4.2454204E3,4.69309E2,8.604651E3,2.2181827E2,3.3170908E3,3.2227122E3,9.474821E2,7.127033E2,1.9810573E3,3.326115E4,2.893786E2,3.32219E0,1.0962909E7,1.8307926E4,8.766199E4,2.171303E4,1.7796803E3,3.9975494E2,2.3493843E3,1.8960361E3,1.2210708E0,2.205972E2,3.272505E3,4.4585728E1,2.4428244E2,4.5096176E1,1.2388568E0,2.0833333E0,1.0954443E7,8.466362E3,1.3660455E4,4.6474707E3,8.2866234E4,4.7957573E3,2.0791203E4,9.218264E2,1.4095265E3,3.7015384E2,1.8582787E3,3.7757484E1,1.5914406E2,6.1453133E1,1.9460499E0,4.3150127E1],"tree_param":{"num_deleted":"0","num_feature":"5","num_nodes":"63","size_leaf_vector":"1"}},{"base_weights":[2.2770917E0,2.278322E0,1.9471221E0,2.278685E0,1.9629858E0,2.0599048E0,1.9276061E0,2.2788534E0,2.100099E0,2.050458E0,1.9228315E0,2.0870485E0,9.785821E-2,1.9286293E0,1.7549682E0,2.2790995E0,2.2321954E0,2.1532483E0,1.9569614E0,2.065905E0,9.5946185E-2,9.63357E-2,1.7693232E0,2.0902314E0,8.621605E-2,9.662513E-2,1.898352E0,1.7711554E0,3.0428697E-3,2.279208E0,2.2117243E0,2.2428E0,2.1738327E0,2.1727E0,2.0436618E0,2.0119035E0,9.602037E-2,1.0364957E-1,9.32424E-2,1.8619545E0,1.50181E0,1.0707821E-1,1.03222765E-1,9.496364E-2,7.7943844E-1,1.789207E0,4.4628885E-2,1.1396704E-1,1.13227546E-1,1.1135057E-1,1.0804253E-1,1.1235829E-1,1.0588713E-1,1.08708695E-1,3.951476E-2,1.0910922E-1,1.0335368E-1,1.03476524E-1,9.454066E-2,1.0240914E-1,9.378095E-2,9.393599E-2,1.5650285E-2,-2.487608E-2,7.773756E-2,6.5140314E-2,-2.0581142E-3,2.8698718E-2,8.983476E-2],"categories":[],"categories_nodes":[],"categories_segments":[],"categories_sizes":[],"default_left":[0,0,0,0,0,0,0,0,0,0,0,0,0,0,0,0,0,0,0,0,0,0,0,0,0,0,0,0,0,0,0,0,0,0,0,0,0,0,0,0,0,0,0,0,0,0,0,0,0,0,0,0,0,0,0,0,0,0,0,0,0,0,0,0,0,0,0,0,0],"id":24,"left_children":[1,3,5,7,9,11,13,15,17,19,21,23,-1,25,27,29,31,33,35,37,-1,-1,39,41,-1,-1,43,45,-1,47,49,51,53,55,57,59,-1,-1,-1,61,63,-1,-1,-1,65,67,-1,-1,-1,-1,-1,-1,-1,-1,-1,-1,-1,-1,-1,-1,-1,-1,-1,-1,-1,-1,-1,-1,-1],"loss_changes":[4.464E3,1.252E3,8.5953125E1,3.28E2,4.0335938E1,1.26796875E1,2.7578125E0,1.2E2,7.4375E1,4.0625E0,1.7460938E0,1.8691406E0,0E0,3.90625E-1,5.8253784E0,7.2E1,3.065625E1,1.1597656E1,1.7773438E0,1.1533203E0,0E0,0E0,2.7981567E0,1.7871094E0,0E0,0E0,2.6240234E0,1.8014526E0,0E0,2E1,8.7890625E0,2.1734375E1,2.4570312E0,1.8730469E0,6.381836E-1,1.6020508E0,0E0,0E0,0E0,3.6585083E0,7.467102E0,0E0,0E0,0E0,2.1888535E0,8.7023926E-1,0E0,0E0,0E0,0E0,0E0,0E0,0E0,0E0,0E0,0E0,0E0,0E0,0E0,0E0,0E0,0E0,0E0,0E0,0E0,0E0,0E0,0E0,0E0],"parents":[2147483647,0,0,1,1,2,2,3,3,4,4,5,5,6,6,7,7,8,8,9,9,10,10,11,11,13,13,14,14,15,15,16,16,17,17,18,18,19,19,22,22,23,23,26,26,27,27,29,29,30,30,31,31,32,32,33,33,34,34,35,35,39,39,40,40,44,44,45,45],"right_children":[2,4,6,8,10,12,14,16,18,20,22,24,-1,26,28,30,32,34,36,38,-1,-1,40,42,-1,-1,44,46,-1,48,50,52,54,56,58,60,-1,-1,-1,62,64,-1,-1,-1,66,68,-1,-1,-1,-1,-1,-1,-1,-1,-1,-1,-1,-1,-1,-1,-1,-1,-1,-1,-1,-1,-1,-1,-1],"split_conditions":[8.24E2,2.82E2,1.286E3,4.3E1,4.48E2,1.8E1,1.365E3,8.8E1,1.72E2,2.2E1,8.590131E9,1.02E2,9.785821E-2,2.33E2,2.2763713E11,7E1,4.55E2,3.39E2,2.84E2,2.24E2,9.5946185E-2,9.63357E-2,1.752E3,9.6E2,8.621605E-2,9.662513E-2,1.3744105E11,8.61E2,3.0428697E-3,3E0,1.84E2,1.28E2,3.68E2,7E1,5.9E1,4.1E1,9.602037E-2,1.0364957E-1,9.32424E-2,1.0308085E11,1.2885098E10,1.0707821E-1,1.03222765E-1,9.496364E-2,2.55E2,1E0,4.4628885E-2,1.1396704E-1,1.13227546E-1,1.1135057E-1,1.0804253E-1,1.1235829E-1,1.0588713E-1,1.08708695E-1,3.951476E-2,1.0910922E-1,1.0335368E-1,1.03476524E-1,9.454066E-2,1.0240914E-1,9.378095E-2,9.393599E-2,1.5650285E-2,-2.487608E-2,7.773756E-2,6.5140314E-2,-2.0581142E-3,2.8698718E-2,8.983476E-2],"split_indices":[0,3,0,1,3,1,4,0,1,1,2,3,0,1,2,3,0,0,1,0,0,0,3,0,0,0,2,1,0,3,3,3,4,3,3,3,0,0,0,2,2,0,0,0,1,1,0,0,0,0,0,0,0,0,0,0,0,0,0,0,0,0,0,0,0,0,0,0,0],"split_type":[0,0,0,0,0,0,0,0,0,0,0,0,0,0,0,0,0,0,0,0,0,0,0,0,0,0,0,0,0,0,0,0,0,0,0,0,0,0,0,0,0,0,0,0,0,0,0,0,0,0,0,0,0,0,0,0,0,0,0,0,0,0,0,0,0,0,0,0,0],"sum_hessian":[1.099709E7,1.0956239E7,4.0850855E4,1.0943634E7,1.2604893E4,6.0106655E3,3.4840188E4,1.0933304E7,1.0329843E4,3.9500344E3,8.654857E3,4.739256E3,1.2714098E3,3.462483E4,2.1535995E2,1.0875906E7,5.739827E4,7.522556E3,2.807287E3,3.5217415E3,4.2829303E2,8.430094E3,2.2476428E2,4.6933115E3,4.5944397E1,3.0642E4,3.982829E3,2.1327663E2,2.0833333E0,1.085842E7,1.7486156E4,4.854098E4,8.857289E3,6.3725996E3,1.1499567E3,1.0999608E3,1.7073263E3,3.3928506E3,1.2889093E2,1.625264E2,6.2237892E1,1.5414479E3,3.1518638E3,3.9788572E3,3.9717026E0,2.0796718E2,5.30945E0,1.076062E7,9.779954E4,1.3412898E4,4.0732573E3,4.6887234E4,1.6537443E3,8.854534E3,2.7555897E0,5.8294927E3,5.4310675E2,9.727808E2,1.7717584E2,8.576303E2,2.4233046E2,1.6057549E2,1.9509151E0,1.3888888E0,6.0849003E1,2.066251E0,1.9054515E0,1.7491689E0,2.06218E2],"tree_param":{"num_deleted":"0","num_feature":"5","num_nodes":"69","size_leaf_vector":"1"}},{"base_weights":[2.1957045E0,2.196894E0,1.8904065E0,2.1972458E0,1.9068999E0,2.002962E0,1.8640616E0,2.1973846E0,2.0138543E0,1.9942015E0,1.8598099E0,2.019088E0,9.166282E-2,1.8650293E0,1.706053E0,2.1976836E0,2.166869E0,2.0752702E0,1.894273E0,2.007354E0,9.391145E-2,9.318596E-2,1.7438796E0,2.04026E0,1.9546332E0,1.906762E0,9.312429E-2,1.7215766E0,2.9400678E-3,2.197759E0,2.1387987E0,2.1696627E0,2.051186E0,2.08934E0,9.850111E-2,1.9403926E0,9.314006E-2,1.0180388E-1,9.8565005E-2,8.4461886E-1,1.7618016E0,1.02361575E-1,9.521275E-2,9.779536E-2,4.003631E-2,1.9395669E0,9.2214756E-2,1.746281E0,1.0403715E0,1.0989349E-1,1.0929848E-1,1.0753166E-1,1.04660474E-1,1.0889927E-1,1.0651884E-1,1.02607824E-1,2.077944E-3,1.05487876E-1,1.0223325E-1,9.9456064E-2,9.267392E-2,-2.3854533E-3,7.310122E-2,9.161111E-2,7.8281306E-2,9.706706E-2,2.0758675E-2,9.039811E-2,7.244479E-2,1.810499E-2,6.05776E-2],"categories":[],"categories_nodes":[],"categories_segments":[],"categories_sizes":[],"default_left":[0,0,0,0,0,0,0,0,0,0,0,0,0,0,0,0,0,0,0,0,0,0,0,0,0,0,0,0,0,0,0,0,0,0,0,0,0,0,0,0,0,0,0,0,0,0,0,0,0,0,0,0,0,0,0,0,0,0,0,0,0,0,0,0,0,0,0,0,0,0,0],"id":25,"left_children":[1,3,5,7,9,11,13,15,17,19,21,23,-1,25,27,29,31,33,35,37,-1,-1,39,41,43,45,-1,47,-1,49,51,53,55,57,-1,59,-1,-1,-1,61,63,-1,-1,-1,-1,65,-1,67,69,-1,-1,-1,-1,-1,-1,-1,-1,-1,-1,-1,-1,-1,-1,-1,-1,-1,-1,-1,-1,-1,-1],"loss_changes":[3.936E3,1.1E3,1.21046875E2,2.72E2,5.0128906E1,1.8101562E1,2.03125E0,9.2E1,5.604297E1,3.2070312E0,6.113281E-1,5.9257812E0,0E0,3.90625E-2,5.5081787E0,4.4E1,2.9375E1,3.8574219E0,4.2382812E-1,2.265625E-1,0E0,0E0,3.24292E0,1.265625E0,1.1098633E0,3.2666016E-1,0E0,1.8398438E0,0E0,8E0,2.9023438E0,2.86875E1,4.7617188E0,3.90625E-3,0E0,9.9121094E-1,0E0,0E0,0E0,4.288133E0,1.0947266E0,0E0,0E0,0E0,0E0,2.5195312E0,0E0,1.1994629E0,7.3141193E-1,0E0,0E0,0E0,0E0,0E0,0E0,0E0,0E0,0E0,0E0,0E0,0E0,0E0,0E0,0E0,0E0,0E0,0E0,0E0,0E0,0E0,0E0],"parents":[2147483647,0,0,1,1,2,2,3,3,4,4,5,5,6,6,7,7,8,8,9,9,10,10,11,11,13,13,14,14,15,15,16,16,17,17,18,18,19,19,22,22,23,23,24,24,25,25,27,27,29,29,30,30,31,31,32,32,33,33,35,35,39,39,40,40,45,45,47,47,48,48],"right_children":[2,4,6,8,10,12,14,16,18,20,22,24,-1,26,28,30,32,34,36,38,-1,-1,40,42,44,46,-1,48,-1,50,52,54,56,58,-1,60,-1,-1,-1,62,64,-1,-1,-1,-1,66,-1,68,70,-1,-1,-1,-1,-1,-1,-1,-1,-1,-1,-1,-1,-1,-1,-1,-1,-1,-1,-1,-1,-1,-1],"split_conditions":[7.04E2,2.69E2,1.286E3,5.6E1,4.48E2,7.4E1,1.365E3,3.5E1,1.72E2,2.5E1,4.295557E9,1.112E3,9.166282E-2,1.52E3,2.2763713E11,7.2E1,1.44E2,5.3E1,2.84E2,3.44E2,9.391145E-2,9.318596E-2,8.590066E9,4.1E1,9.28E2,1E1,9.312429E-2,3.7128E4,2.9400678E-3,2E0,1.84E2,2.61E2,8.590131E9,5.7E1,9.850111E-2,4.2E1,9.314006E-2,1.0180388E-1,9.8565005E-2,3.09E2,1.752E3,1.02361575E-1,9.521275E-2,9.779536E-2,4.003631E-2,3.06E2,9.2214756E-2,4.295557E9,1.752E3,1.0989349E-1,1.0929848E-1,1.0753166E-1,1.04660474E-1,1.0889927E-1,1.0651884E-1,1.02607824E-1,2.077944E-3,1.05487876E-1,1.0223325E-1,9.9456064E-2,9.267392E-2,-2.3854533E-3,7.310122E-2,9.161111E-2,7.8281306E-2,9.706706E-2,2.0758675E-2,9.039811E-2,7.244479E-2,1.810499E-2,6.05776E-2],"split_indices":[0,3,0,1,3,1,4,0,1,1,2,0,0,0,2,3,3,3,1,3,0,0,2,3,3,1,0,0,0,3,3,0,2,0,0,0,0,0,0,1,3,0,0,0,0,4,0,2,3,0,0,0,0,0,0,0,0,0,0,0,0,0,0,0,0,0,0,0,0,0,0],"split_type":[0,0,0,0,0,0,0,0,0,0,0,0,0,0,0,0,0,0,0,0,0,0,0,0,0,0,0,0,0,0,0,0,0,0,0,0,0,0,0,0,0,0,0,0,0,0,0,0,0,0,0,0,0,0,0,0,0,0,0,0,0,0,0,0,0,0,0,0,0,0,0],"sum_hessian":[1.0840514E7,1.079844E7,4.2073746E4,1.0785345E7,1.3094524E4,7.965778E3,3.4107965E4,1.077718E7,8.165196E3,4.573757E3,8.520768E3,7.264574E3,7.0120374E2,3.38896E4,2.1836436E2,1.0672577E7,1.0460284E5,5.3837734E3,2.7814224E3,4.09323E3,4.8052676E2,8.228223E3,2.9254514E2,5.4452646E3,1.8193096E3,1.9038778E3,3.1985725E4,2.1628104E2,2.0833333E0,1.0658864E7,1.3713093E4,1.0211888E5,2.4839612E3,4.7323047E3,6.5146875E2,1.1035682E3,1.6778542E3,2.2473489E3,1.845881E3,6.656862E0,2.8588828E2,5.166394E3,2.7887064E2,1.816609E3,2.7006037E0,1.2286149E3,6.7526294E2,2.0720312E2,9.077912E0,1.0559521E7,9.934309E4,1.0850327E4,2.8627654E3,8.422186E4,1.7897023E4,2.482741E3,1.2201264E0,3.2161958E3,1.5161089E3,6.930962E2,4.1047202E2,3.0996728E0,3.5571887E0,2.0423485E2,8.165343E1,1.2269133E3,1.7016034E0,1.6740237E2,3.9800755E1,2.457162E0,6.620751E0],"tree_param":{"num_deleted":"0","num_feature":"5","num_nodes":"71","size_leaf_vector":"1"}},{"base_weights":[2.118542E0,2.119671E0,1.8284261E0,2.120047E0,1.8749641E0,1.9354348E0,1.803333E0,2.1201844E0,1.9599576E0,1.9688836E0,1.8094356E0,1.9506396E0,8.865026E-2,9.021717E-2,1.6732397E0,2.120443E0,2.0933108E0,2.011365E0,1.8315414E0,1.9793086E0,9.140751E-2,1.8617892E0,1.796769E0,1.9710712E0,1.8884785E0,1.6911813E0,1.6420959E-1,1.06029324E-1,2.1023092E0,2.1006126E0,2.0541384E0,1.01258315E-1,9.6215576E-2,9.457277E-2,9.002039E-2,9.953208E-2,9.520274E-2,9.437706E-2,8.907494E-2,8.988678E-2,1.2564021E0,9.9033564E-2,9.4129674E-2,9.455872E-2,5.4044753E-2,8.6679704E-2,1.4338611E0,2.537169E-2,-6.83043E-3,1.0532836E-1,1.035279E-1,1.05265535E-1,1.03444576E-1,1.0271907E-1,1.4284145E-3,8.53474E-2,3.540748E-2,8.147349E-2,4.0021226E-2],"categories":[],"categories_nodes":[],"categories_segments":[],"categories_sizes":[],"default_left":[0,0,0,0,0,0,0,0,0,0,0,0,0,0,0,0,0,0,0,0,0,0,0,0,0,0,0,0,0,0,0,0,0,0,0,0,0,0,0,0,0,0,0,0,0,0,0,0,0,0,0,0,0,0,0,0,0,0,0],"id":26,"left_children":[1,3,5,7,9,11,13,15,17,19,21,23,-1,-1,25,27,29,31,33,35,-1,37,39,41,43,45,47,-1,49,51,53,-1,-1,-1,-1,-1,-1,-1,-1,-1,55,-1,-1,-1,-1,-1,57,-1,-1,-1,-1,-1,-1,-1,-1,-1,-1,-1,-1],"loss_changes":[3.492E3,9.76E2,1.07671875E2,2.36E2,9.687891E1,1.59296875E1,1.3984375E0,6.8E1,5.6527344E1,6.205078E0,3.0390625E0,5.3828125E0,0E0,0E0,7.095337E0,2.4E1,2.46875E1,3.9160156E0,1.4785156E0,1.515625E0,0E0,4.5654297E-1,1.8027344E0,8.339844E-1,1.8686523E0,4.501953E-1,5.140384E-1,0E0,6.78125E0,8.34375E0,7.796875E0,0E0,0E0,0E0,0E0,0E0,0E0,0E0,0E0,0E0,3.041874E0,0E0,0E0,0E0,0E0,0E0,4.1290283E0,0E0,0E0,0E0,0E0,0E0,0E0,0E0,0E0,0E0,0E0,0E0,0E0],"parents":[2147483647,0,0,1,1,2,2,3,3,4,4,5,5,6,6,7,7,8,8,9,9,10,10,11,11,14,14,15,15,16,16,17,17,18,18,19,19,21,21,22,22,23,23,24,24,25,25,26,26,28,28,29,29,30,30,40,40,46,46],"right_children":[2,4,6,8,10,12,14,16,18,20,22,24,-1,-1,26,28,30,32,34,36,-1,38,40,42,44,46,48,-1,50,52,54,-1,-1,-1,-1,-1,-1,-1,-1,-1,56,-1,-1,-1,-1,-1,58,-1,-1,-1,-1,-1,-1,-1,-1,-1,-1,-1,-1],"split_conditions":[7.04E2,2E2,1.286E3,4.5E1,3.76E2,7.4E1,1.084E3,3.5E1,1.72E2,3.1E1,4.8E2,1.112E3,8.865026E-2,9.021717E-2,5.5835492E10,8E0,2.8E2,3.12E2,2.55E2,1.44E2,9.140751E-2,3.9E1,8.590072E10,1.3E1,8.16E2,4.295557E9,3.47E2,1.06029324E-1,7.5E1,1.6E1,6.013059E10,1.01258315E-1,9.6215576E-2,9.457277E-2,9.002039E-2,9.953208E-2,9.520274E-2,9.437706E-2,8.907494E-2,8.988678E-2,6.2E1,9.9033564E-2,9.4129674E-2,9.455872E-2,5.4044753E-2,8.6679704E-2,1.0296E4,2.537169E-2,-6.83043E-3,1.0532836E-1,1.035279E-1,1.05265535E-1,1.03444576E-1,1.0271907E-1,1.4284145E-3,8.53474E-2,3.540748E-2,8.147349E-2,4.0021226E-2],"split_indices":[0,3,0,1,3,1,3,0,1,1,3,0,0,0,2,3,0,0,1,0,0,0,2,3,3,2,1,0,3,3,2,0,0,0,0,0,0,0,0,0,1,0,0,0,0,0,0,0,0,0,0,0,0,0,0,0,0,0,0],"split_type":[0,0,0,0,0,0,0,0,0,0,0,0,0,0,0,0,0,0,0,0,0,0,0,0,0,0,0,0,0,0,0,0,0,0,0,0,0,0,0,0,0,0,0,0,0,0,0,0,0,0,0,0,0,0,0,0,0,0,0],"sum_hessian":[1.0676785E7,1.0635388E7,4.139714E4,1.0619069E7,1.6319027E4,7.8490044E3,3.3548137E4,1.0609949E7,9.11926E3,6.6947007E3,9.624326E3,7.167095E3,6.819092E2,3.3276812E4,2.7132422E2,1.0508682E7,1.0126702E5,6.5018066E3,2.6174534E3,6.220825E3,4.7387573E2,1.8464738E3,7.7778525E3,5.371007E3,1.7960886E3,2.680169E2,3.3072824E0,1.0426238E7,8.2444164E4,8.531235E4,1.5954669E4,5.592858E3,9.089488E2,8.746033E2,1.7428501E3,5.384489E3,8.3633606E2,1.3810217E3,4.6545203E2,7.7616445E3,1.6208208E1,4.8259854E3,5.450211E2,1.7887753E3,7.3133583E0,2.2516669E2,4.285023E1,1.2239493E0,2.0833333E0,7.263774E4,9.80642E3,7.425017E4,1.106218E4,1.5952741E4,1.9274795E0,7.7367935E0,8.471415E0,3.1538528E1,1.1311704E1],"tree_param":{"num_deleted":"0","num_feature":"5","num_nodes":"59","size_leaf_vector":"1"}},{"base_weights":[2.045366E0,2.046436E0,1.7694758E0,2.0467448E0,1.7759372E0,1.871639E0,1.7455825E0,2.0468833E0,1.895238E0,1.8494828E0,1.741913E0,1.8858806E0,8.600702E-2,1.7466E0,1.5861493E0,2.0470526E0,2.000278E0,1.9430732E0,1.7692875E0,9.3142405E-2,8.652273E-2,8.728363E-2,1.6263875E0,1.9051912E0,1.8269012E0,8.754841E-2,1.7247789E0,1.6005683E0,2.708858E-3,2.047188E0,2.010952E0,2.014059E0,1.9490575E0,1.9561542E0,9.268592E-2,9.0734474E-2,8.692307E-2,1.6329114E0,3.980034E-3,9.54058E-2,8.280656E-2,9.147584E-2,4.7331836E-2,8.627425E-2,2.7367833E-1,1.6171545E0,4.2001747E-2,1.0236801E-1,1.0213405E-1,1.00973204E-1,9.8405346E-2,1.0090708E-1,9.863007E-2,9.786396E-2,9.2586756E-2,9.8748356E-2,9.567309E-2,8.560443E-2,7.172546E-2,1.7085437E-2,3.2917676E-3,2.2517763E-2,8.122604E-2],"categories":[],"categories_nodes":[],"categories_segments":[],"categories_sizes":[],"default_left":[0,0,0,0,0,0,0,0,0,0,0,0,0,0,0,0,0,0,0,0,0,0,0,0,0,0,0,0,0,0,0,0,0,0,0,0,0,0,0,0,0,0,0,0,0,0,0,0,0,0,0,0,0,0,0,0,0,0,0,0,0,0,0],"id":27,"left_children":[1,3,5,7,9,11,13,15,17,19,21,23,-1,25,27,29,31,33,35,-1,-1,-1,37,39,41,-1,43,45,-1,47,49,51,53,55,-1,-1,-1,57,-1,-1,-1,-1,-1,-1,59,61,-1,-1,-1,-1,-1,-1,-1,-1,-1,-1,-1,-1,-1,-1,-1,-1,-1],"loss_changes":[3.096E3,8.76E2,9.583594E1,2.16E2,2.6679688E1,1.3333984E1,2.578125E0,8E1,5.4183594E1,2.7626953E0,7.167969E-1,4.5039062E0,0E0,9.375E-2,4.765808E0,4.8E1,2.28125E1,4.46875E0,5.46875E-1,0E0,0E0,0E0,2.621582E0,6.738281E-1,2.3061523E0,0E0,5.185547E0,1.3862305E0,0E0,4E0,1.021875E1,1.0703125E0,2.8261719E0,1.0527344E0,0E0,0E0,0E0,1.8084717E0,0E0,0E0,0E0,0E0,0E0,0E0,3.2280207E-2,1.0893555E0,0E0,0E0,0E0,0E0,0E0,0E0,0E0,0E0,0E0,0E0,0E0,0E0,0E0,0E0,0E0,0E0,0E0],"parents":[2147483647,0,0,1,1,2,2,3,3,4,4,5,5,6,6,7,7,8,8,9,9,10,10,11,11,13,13,14,14,15,15,16,16,17,17,18,18,22,22,23,23,24,24,26,26,27,27,29,29,30,30,31,31,32,32,33,33,37,37,44,44,45,45],"right_children":[2,4,6,8,10,12,14,16,18,20,22,24,-1,26,28,30,32,34,36,-1,-1,-1,38,40,42,-1,44,46,-1,48,50,52,54,56,-1,-1,-1,58,-1,-1,-1,-1,-1,-1,60,62,-1,-1,-1,-1,-1,-1,-1,-1,-1,-1,-1,-1,-1,-1,-1,-1,-1],"split_conditions":[7.04E2,2.82E2,1.286E3,4.3E1,4.48E2,7.4E1,1.365E3,3E1,1.72E2,2.2E1,4.295557E9,1.112E3,8.600702E-2,1.62E2,2.2763713E11,1.08E2,1.44E2,4.9E1,2.84E2,9.3142405E-2,8.652273E-2,8.728363E-2,6.23E2,1.12E2,8.16E2,8.754841E-2,1.9327654E11,8.61E2,2.708858E-3,1E0,4.55E2,9.6E1,1.68E2,5.7E1,9.268592E-2,9.0734474E-2,8.692307E-2,1.752E3,3.980034E-3,9.54058E-2,8.280656E-2,9.147584E-2,4.7331836E-2,8.627425E-2,2.55E2,1E0,4.2001747E-2,1.0236801E-1,1.0213405E-1,1.00973204E-1,9.8405346E-2,1.0090708E-1,9.863007E-2,9.786396E-2,9.2586756E-2,9.8748356E-2,9.567309E-2,8.560443E-2,7.172546E-2,1.7085437E-2,3.2917676E-3,2.2517763E-2,8.122604E-2],"split_indices":[0,3,0,1,3,1,4,3,1,1,2,0,0,1,2,0,3,3,1,0,0,0,1,3,3,0,2,1,0,0,0,0,0,0,0,0,0,3,0,0,0,0,0,0,1,1,0,0,0,0,0,0,0,0,0,0,0,0,0,0,0,0,0],"split_type":[0,0,0,0,0,0,0,0,0,0,0,0,0,0,0,0,0,0,0,0,0,0,0,0,0,0,0,0,0,0,0,0,0,0,0,0,0,0,0,0,0,0,0,0,0,0,0,0,0,0,0,0,0,0,0,0,0,0,0,0,0,0,0],"sum_hessian":[1.05102E7,1.0469596E7,4.0604133E4,1.0457648E7,1.1948048E4,7.681648E3,3.292249E4,1.0448084E7,9.563804E3,3.7622756E3,8.1857725E3,7.01112E3,6.705276E2,3.2703814E4,2.1867265E2,1.041021E7,3.787428E4,6.9208794E3,2.6429246E3,3.369297E3,3.929784E2,7.9141064E3,2.716661E2,5.25821E3,1.7529104E3,2.7182982E4,5.5208315E3,2.1658931E2,2.0833333E0,1.0371255E7,3.8954867E4,2.9814318E4,8.0599624E3,6.018861E3,9.020183E2,1.0453768E3,1.5975476E3,2.7046964E2,1.1964576E0,5.190594E3,6.761563E1,1.7466421E3,6.268313E0,5.5179575E3,2.8739843E0,2.1086432E2,5.7250032E0,9.989556E6,3.816993E5,3.2459957E4,6.49491E3,2.7098285E4,2.7160325E3,7.4144854E3,6.4547705E2,4.146425E3,1.8724363E3,1.8786736E2,8.2602295E1,1.6800163E0,1.1939679E0,1.7127341E0,2.0915158E2],"tree_param":{"num_deleted":"0","num_feature":"5","num_nodes":"63","size_leaf_vector":"1"}},{"base_weights":[1.9759543E0,1.976973E0,1.7134935E0,1.9773122E0,1.7560564E0,1.8119092E0,1.690615E0,1.9774544E0,1.8518857E0,1.8409516E0,1.6955634E0,1.8329912E0,8.632665E-2,1.6916196E0,1.5234771E0,1.9776403E0,1.9486251E0,1.8896219E0,1.7149115E0,1.8483868E0,8.419467E-2,1.6990631E0,1.5311548E0,9.321014E-2,9.002016E-2,8.486048E-2,1.670896E0,1.5332812E0,2.7168791E-3,9.888947E-2,1.9608225E0,1.9560348E0,1.9133242E0,9.539735E-2,9.2249244E-2,8.820599E-2,8.444699E-2,9.2649005E-2,8.3628796E-2,1.7452685E0,8.438449E-2,1.6303139E0,1.2815529E0,8.357205E-2,2.6552442E-1,1.5451931E0,2.0187985E-2,9.8236986E-2,9.654E-2,9.807234E-2,9.656977E-2,9.567824E-2,7.752386E-3,8.850329E-2,8.329528E-2,8.248893E-2,7.3430077E-3,7.581417E-2,2.2325052E-2,1.6572123E-2,3.2026812E-3,8.0010995E-2,6.4380094E-2],"categories":[],"categories_nodes":[],"categories_segments":[],"categories_sizes":[],"default_left":[0,0,0,0,0,0,0,0,0,0,0,0,0,0,0,0,0,0,0,0,0,0,0,0,0,0,0,0,0,0,0,0,0,0,0,0,0,0,0,0,0,0,0,0,0,0,0,0,0,0,0,0,0,0,0,0,0,0,0,0,0,0,0],"id":28,"left_children":[1,3,5,7,9,11,13,15,17,19,21,23,-1,25,27,29,31,33,35,37,-1,39,41,-1,-1,-1,43,45,-1,-1,47,49,51,-1,-1,-1,-1,-1,-1,53,-1,55,57,-1,59,61,-1,-1,-1,-1,-1,-1,-1,-1,-1,-1,-1,-1,-1,-1,-1,-1,-1],"loss_changes":[2.76E3,7.72E2,8.696875E1,1.84E2,7.8E1,1.0384766E1,2.875E0,5.2E1,5.7046875E1,4.548828E0,2.7109375E0,2.7675781E0,0E0,9.0625E-1,2.8545837E0,2.4E1,1.346875E1,3.953125E0,2.5341797E-1,1.953125E0,0E0,1.8046875E0,2.9258728E0,0E0,0E0,0E0,4.8535156E0,2.1018066E0,0E0,0E0,6.8125E0,3.484375E0,4.5546875E0,0E0,0E0,0E0,0E0,0E0,0E0,5.058594E-1,0E0,3.8390808E0,1.1531815E1,0E0,3.0167788E-2,7.760315E-1,0E0,0E0,0E0,0E0,0E0,0E0,0E0,0E0,0E0,0E0,0E0,0E0,0E0,0E0,0E0,0E0,0E0],"parents":[2147483647,0,0,1,1,2,2,3,3,4,4,5,5,6,6,7,7,8,8,9,9,10,10,11,11,13,13,14,14,15,15,16,16,17,17,18,18,19,19,21,21,22,22,26,26,27,27,30,30,31,31,32,32,39,39,41,41,42,42,44,44,45,45],"right_children":[2,4,6,8,10,12,14,16,18,20,22,24,-1,26,28,30,32,34,36,38,-1,40,42,-1,-1,-1,44,46,-1,-1,48,50,52,-1,-1,-1,-1,-1,-1,54,-1,56,58,-1,60,62,-1,-1,-1,-1,-1,-1,-1,-1,-1,-1,-1,-1,-1,-1,-1,-1,-1],"split_conditions":[7.04E2,2E2,1.286E3,3.3E1,3.76E2,2E1,1.365E3,6.4E1,1.72E2,2.8E2,8.591114E9,9.6E2,8.632665E-2,1.13E2,2.2763713E11,6E0,3.39E2,8.9E1,2.55E2,7.4E1,8.419467E-2,4.8E2,1.752E3,9.321014E-2,9.002016E-2,8.486048E-2,1.9327654E11,2.37E3,2.7168791E-3,9.888947E-2,8E1,7E0,6.83E2,9.539735E-2,9.2249244E-2,8.820599E-2,8.444699E-2,9.2649005E-2,8.3628796E-2,3.9E1,8.438449E-2,1.0308085E11,6.2E1,8.357205E-2,2.55E2,4.295557E9,2.0187985E-2,9.8236986E-2,9.654E-2,9.807234E-2,9.656977E-2,9.567824E-2,7.752386E-3,8.850329E-2,8.329528E-2,8.248893E-2,7.3430077E-3,7.581417E-2,2.2325052E-2,1.6572123E-2,3.2026812E-3,8.0010995E-2,6.4380094E-2],"split_indices":[0,3,0,1,3,1,4,0,1,0,2,0,0,1,2,3,0,0,1,1,0,3,3,0,0,0,2,1,0,0,3,3,4,0,0,0,0,0,0,0,0,2,1,0,1,2,0,0,0,0,0,0,0,0,0,0,0,0,0,0,0,0,0],"split_type":[0,0,0,0,0,0,0,0,0,0,0,0,0,0,0,0,0,0,0,0,0,0,0,0,0,0,0,0,0,0,0,0,0,0,0,0,0,0,0,0,0,0,0,0,0,0,0,0,0,0,0,0,0,0,0,0,0,0,0,0,0,0,0],"sum_hessian":[1.0339865E7,1.0299881E7,3.998329E4,