{"learner":{"attributes":{},"feature_names":[],"feature_types":[],"gradient_booster":{"model":{"cats":{"enc":[],"feature_segments":[],"sorted_idx":[]},"gbtree_model_param":{"num_parallel_tree":"1","num_trees":"10"},"iteration_indptr":[0,1,2,3,4,5,6,7,8,9,10],"tree_info":[0,0,0,0,0,0,0,0,0,0],"trees":[{"base_weights":[6.4174995E0,6.422234E0,5.2110715E0,6.423718E0,5.324268E0,5.622153E0,5.1419134E0,6.424144E0,5.5146275E0,5.6740513E0,5.1499653E0,5.6976414E0,2.6108712E-1,2.617229E-1,2.568177E-1,6.4249077E0,6.207054E0,5.841193E0,5.2391334E0,5.7168884E0,2.5838694E-1,2.6603156E-1,2.5680292E-1,2.8868943E-1,2.7682504E-1,6.4252863E0,6.1698785E0,6.2704296E0,6.060256E0,5.960989E0,5.589953E0,5.449401E0,2.570735E-1,2.8955966E-1,2.7677107E-1,3.2127434E-1,3.1719306E-1,3.116493E-1,3.0284625E-1,3.1415415E-1,2.9804796E-1,3.043225E-1,2.9166177E-1,2.9946396E-1,2.710603E-1,2.8336632E-1,2.6203766E-1,2.773635E-1,2.5773624E-1],"categories":[],"categories_nodes":[],"categories_segments":[],"categories_sizes":[],"default_left":[0,0,0,0,0,0,0,0,0,0,0,0,0,0,0,0,0,0,0,0,0,0,0,0,0,0,0,0,0,0,0,0,0,0,0,0,0,0,0,0,0,0,0,0,0,0,0,0,0],"id":0,"left_children":[1,3,5,7,9,11,13,15,17,19,21,23,-1,-1,-1,25,27,29,31,33,-1,-1,-1,-1,-1,35,37,39,41,43,45,47,-1,-1,-1,-1,-1,-1,-1,-1,-1,-1,-1,-1,-1,-1,-1,-1,-1],"loss_changes":[9.4912E4,2.6944E4,1.81875E3,6.4E3,1.3335625E3,2.528125E2,1.875E0,2.688E3,6.665156E2,1.3146875E2,8.0625E0,6.4421875E1,0E0,0E0,0E0,1.536E3,5.015E2,7.3125E1,5.85E1,6.0125E1,0E0,0E0,0E0,0E0,0E0,2.56E2,1.365E2,1.21125E2,6.86875E1,3.875E0,1.5859375E0,9.457031E0,0E0,0E0,0E0,0E0,0E0,0E0,0E0,0E0,0E0,0E0,0E0,0E0,0E0,0E0,0E0,0E0,0E0],"parents":[2147483647,0,0,1,1,2,2,3,3,4,4,5,5,6,6,7,7,8,8,9,9,10,10,11,11,15,15,16,16,17,17,18,18,19,19,25,25,26,26,27,27,28,28,29,29,30,30,31,31],"right_children":[2,4,6,8,10,12,14,16,18,20,22,24,-1,-1,-1,26,28,30,32,34,-1,-1,-1,-1,-1,36,38,40,42,44,46,48,-1,-1,-1,-1,-1,-1,-1,-1,-1,-1,-1,-1,-1,-1,-1,-1,-1],"split_conditions":[8.24E2,2.64E2,1.28E3,1.08E2,4.32E2,3E1,1.512E3,1.44E2,1.87E2,4.5E1,4.63E2,1.107E3,2.6108712E-1,2.617229E-1,2.568177E-1,8E1,4.09E2,1.28E2,2.62E2,3.6E2,2.5838694E-1,2.6603156E-1,2.5680292E-1,2.8868943E-1,2.7682504E-1,1E1,1.6E2,9.6E1,2.7E1,1.25E2,5.63E2,1.81E2,2.570735E-1,2.8955966E-1,2.7677107E-1,3.2127434E-1,3.1719306E-1,3.116493E-1,3.0284625E-1,3.1415415E-1,2.9804796E-1,3.043225E-1,2.9166177E-1,2.9946396E-1,2.710603E-1,2.8336632E-1,2.6203766E-1,2.773635E-1,2.5773624E-1],"split_indices":[0,3,0,1,3,1,0,0,1,1,3,0,0,0,0,3,0,0,1,3,0,0,0,0,0,1,3,3,1,3,0,0,0,0,0,0,0,0,0,0,0,0,0,0,0,0,0,0,0],"split_type":[0,0,0,0,0,0,0,0,0,0,0,0,0,0,0,0,0,0,0,0,0,0,0,0,0,0,0,0,0,0,0,0,0,0,0,0,0,0,0,0,0,0,0,0,0,0,0,0,0],"sum_hessian":[1.6623928E7,1.6558939E7,6.498886E4,1.6536588E7,2.2351162E4,9.347281E3,5.564158E4,1.652884E7,7.74762E3,7.423147E3,1.4928016E4,7.853455E3,1.4938264E3,3.099991E3,5.2541586E4,1.6470843E7,5.799719E4,3.5359607E3,4.2116597E3,6.8346064E3,5.885405E2,1.0960322E3,1.3831983E4,5.309592E3,2.5438628E3,1.6446409E7,2.443398E4,4.0479637E4,1.7517555E4,2.3789216E3,1.157039E3,1.3183881E3,2.8932715E3,4.82715E3,2.0074564E3,1.6405952E7,4.0457094E4,1.56411045E4,8.792876E3,3.887105E4,1.6085837E3,1.5682276E4,1.8352777E3,2.2508574E3,1.2806425E2,9.3470435E2,2.2233464E2,9.763073E2,3.4208072E2],"tree_param":{"num_deleted":"0","num_feature":"5","num_nodes":"49","size_leaf_vector":"1"}},{"base_weights":[6.116808E0,6.1212926E0,4.9735265E0,6.1226854E0,5.082153E0,5.36531E0,4.90815E0,6.123096E0,5.2874775E0,5.4129972E0,4.916823E0,5.4348288E0,2.4921763E-1,2.4974613E-1,2.4514738E-1,6.1237683E0,5.901715E0,5.592658E0,4.9977126E0,5.4534903E0,2.4675897E-1,2.539676E-1,2.4516152E-1,2.7535853E-1,2.6409313E-1,6.124188E0,5.9095044E0,5.9671783E0,5.779558E0,5.699369E0,2.6711532E-1,5.194173E0,2.4535978E-1,2.7620006E-1,2.6413617E-1,3.0623275E-1,3.046439E-1,2.9891464E-1,2.9024413E-1,2.9894274E-1,2.824303E-1,2.9012474E-1,2.7856028E-1,2.86329E-1,2.612237E-1,2.6441133E-1,2.458014E-1],"categories":[],"categories_nodes":[],"categories_segments":[],"categories_sizes":[],"default_left":[0,0,0,0,0,0,0,0,0,0,0,0,0,0,0,0,0,0,0,0,0,0,0,0,0,0,0,0,0,0,0,0,0,0,0,0,0,0,0,0,0,0,0,0,0,0,0],"id":1,"left_children":[1,3,5,7,9,11,13,15,17,19,21,23,-1,-1,-1,25,27,29,31,33,-1,-1,-1,-1,-1,35,37,39,41,43,-1,45,-1,-1,-1,-1,-1,-1,-1,-1,-1,-1,-1,-1,-1,-1,-1],"loss_changes":[8.4864E4,2.3808E4,1.63225E3,5.696E3,1.1819375E3,2.1784375E2,5E-1,2.432E3,6.892031E2,1.1534375E2,7.6875E0,5.734375E1,0E0,0E0,0E0,1.408E3,3.64625E2,7.485156E1,4.8648438E1,5.23125E1,0E0,0E0,0E0,0E0,0E0,2.56E2,1.965E2,8.7E1,5.10625E1,5.6015625E0,0E0,7.9570312E0,0E0,0E0,0E0,0E0,0E0,0E0,0E0,0E0,0E0,0E0,0E0,0E0,0E0,0E0,0E0],"parents":[2147483647,0,0,1,1,2,2,3,3,4,4,5,5,6,6,7,7,8,8,9,9,10,10,11,11,15,15,16,16,17,17,18,18,19,19,25,25,26,26,27,27,28,28,29,29,31,31],"right_children":[2,4,6,8,10,12,14,16,18,20,22,24,-1,-1,-1,26,28,30,32,34,-1,-1,-1,-1,-1,36,38,40,42,44,-1,46,-1,-1,-1,-1,-1,-1,-1,-1,-1,-1,-1,-1,-1,-1,-1],"split_conditions":[8.24E2,2.64E2,1.28E3,1.04E2,4.32E2,3E1,1.512E3,1.68E2,1.87E2,4.5E1,4.63E2,1.107E3,2.4921763E-1,2.4974613E-1,2.4514738E-1,6.3E1,4.09E2,1.28E2,2.62E2,3.6E2,2.4675897E-1,2.539676E-1,2.4516152E-1,2.7535853E-1,2.6409313E-1,1.4E1,1.29E2,9.6E1,2.7E1,1.25E2,2.6711532E-1,1.6E2,2.4535978E-1,2.7620006E-1,2.6413617E-1,3.0623275E-1,3.046439E-1,2.9891464E-1,2.9024413E-1,2.9894274E-1,2.824303E-1,2.9012474E-1,2.7856028E-1,2.86329E-1,2.612237E-1,2.6441133E-1,2.458014E-1],"split_indices":[0,3,0,1,3,1,0,0,1,1,3,0,0,0,0,3,0,0,1,3,0,0,0,0,0,0,3,3,1,3,0,0,0,0,0,0,0,0,0,0,0,0,0,0,0,0,0],"split_type":[0,0,0,0,0,0,0,0,0,0,0,0,0,0,0,0,0,0,0,0,0,0,0,0,0,0,0,0,0,0,0,0,0,0,0,0,0,0,0,0,0,0,0,0,0,0,0],"sum_hessian":[1.6570156E7,1.6505404E7,6.4752703E4,1.6483311E7,2.2093107E4,9.248385E3,5.550432E4,1.6475202E7,8.1087554E3,7.351049E3,1.4742058E4,7.8099297E3,1.4384548E3,3.0854E3,5.2418918E4,1.6425295E7,4.9906688E4,3.9404136E3,4.168342E3,6.7671465E3,5.839022E2,1.1090078E3,1.363305E4,5.2785522E3,2.5313774E3,1.6393176E7,3.211918E4,3.2462238E4,1.7444447E4,2.747531E3,1.1928824E3,1.2969717E3,2.8713704E3,4.767334E3,1.9998124E3,1.6151977E7,2.411986E5,1.9344352E4,1.2774829E4,3.1297389E4,1.1648496E3,1.5690337E4,1.7541105E3,2.5881716E3,1.5935939E2,9.5576855E2,3.4120312E2],"tree_param":{"num_deleted":"0","num_feature":"5","num_nodes":"47","size_leaf_vector":"1"}},{"base_weights":[5.8318467E0,5.8360896E0,4.7490344E0,5.8374124E0,4.849517E0,5.1191926E0,4.6870065E0,5.837792E0,5.020226E0,5.1643643E0,4.69357E0,5.178234E0,2.3557131E-1,2.3849235E-1,2.340982E-1,5.8384786E0,5.6425047E0,5.315905E0,4.771703E0,5.2023144E0,2.3564132E-1,2.4023572E-1,2.3381904E-1,5.2493443E0,2.5161803E-1,5.8388968E0,5.6504107E0,5.699133E0,5.5114093E0,2.7118167E-1,5.087187E0,4.957902E0,2.3422554E-1,2.646818E-1,2.5385788E-1,2.631597E-1,2.4288197E-1,2.9195377E-1,2.882454E-1,2.8513497E-1,2.7618983E-1,2.855323E-1,2.708826E-1,2.7649134E-1,2.627284E-1,2.5929242E-1,2.4222301E-1,2.5232768E-1,2.3484926E-1],"categories":[],"categories_nodes":[],"categories_segments":[],"categories_sizes":[],"default_left":[0,0,0,0,0,0,0,0,0,0,0,0,0,0,0,0,0,0,0,0,0,0,0,0,0,0,0,0,0,0,0,0,0,0,0,0,0,0,0,0,0,0,0,0,0,0,0,0,0],"id":2,"left_children":[1,3,5,7,9,11,13,15,17,19,21,23,-1,-1,-1,25,27,29,31,33,-1,-1,-1,35,-1,37,39,41,43,-1,45,47,-1,-1,-1,-1,-1,-1,-1,-1,-1,-1,-1,-1,-1,-1,-1,-1,-1],"loss_changes":[7.584E4,2.1504E4,1.456E3,5.056E3,1.0571875E3,1.9804688E2,8.75E-1,2.176E3,5.357031E2,1.00328125E2,5.71875E0,5.7203125E1,0E0,0E0,0E0,1.28E3,3.95875E2,5.8109375E1,4.4289062E1,4.984375E1,0E0,0E0,0E0,3.71875E0,0E0,1.92E2,2.08875E2,9.9375E1,5.325E1,0E0,1.9335938E0,6.576172E0,0E0,0E0,0E0,0E0,0E0,0E0,0E0,0E0,0E0,0E0,0E0,0E0,0E0,0E0,0E0,0E0,0E0],"parents":[2147483647,0,0,1,1,2,2,3,3,4,4,5,5,6,6,7,7,8,8,9,9,10,10,11,11,15,15,16,16,17,17,18,18,19,19,23,23,25,25,26,26,27,27,28,28,30,30,31,31],"right_children":[2,4,6,8,10,12,14,16,18,20,22,24,-1,-1,-1,26,28,30,32,34,-1,-1,-1,36,-1,38,40,42,44,-1,46,48,-1,-1,-1,-1,-1,-1,-1,-1,-1,-1,-1,-1,-1,-1,-1,-1,-1],"split_conditions":[8.24E2,2.64E2,1.28E3,1.08E2,4.32E2,4.2E1,1.512E3,1.44E2,1.87E2,4.5E1,5.04E2,1.107E3,2.3557131E-1,2.3849235E-1,2.340982E-1,5.2E1,4.09E2,1.28E2,2.62E2,3.36E2,2.3564132E-1,2.4023572E-1,2.3381904E-1,8E1,2.5161803E-1,1E1,1.44E2,9.6E1,3.9E1,2.7118167E-1,4.56E2,1.6E2,2.3422554E-1,2.646818E-1,2.5385788E-1,2.631597E-1,2.4288197E-1,2.9195377E-1,2.882454E-1,2.8513497E-1,2.7618983E-1,2.855323E-1,2.708826E-1,2.7649134E-1,2.627284E-1,2.5929242E-1,2.4222301E-1,2.5232768E-1,2.3484926E-1],"split_indices":[0,3,0,1,3,1,0,0,1,1,3,0,0,0,0,3,0,0,1,3,0,0,0,3,0,1,3,3,1,0,0,0,0,0,0,0,0,0,0,0,0,0,0,0,0,0,0,0,0],"split_type":[0,0,0,0,0,0,0,0,0,0,0,0,0,0,0,0,0,0,0,0,0,0,0,0,0,0,0,0,0,0,0,0,0,0,0,0,0,0,0,0,0,0,0,0,0,0,0,0,0],"sum_hessian":[1.6513766E7,1.6449306E7,6.4459816E4,1.6427281E7,2.2024371E4,9.239655E3,5.522016E4,1.6419647E7,7.6345244E3,7.2847393E3,1.4739633E4,8.060809E3,1.1788467E3,3.1142263E3,5.2105934E4,1.6362079E7,5.756825E4,3.4771838E3,4.157341E3,6.7102495E3,5.744897E2,1.9369917E3,1.2802641E4,5.3955845E3,2.6652246E3,1.6325761E7,3.6317598E4,4.0172723E4,1.739553E4,2.348369E3,1.1288148E3,1.3080734E3,2.8492676E3,3.8556633E3,2.854586E3,5.199319E3,1.9626547E2,1.6286243E7,3.9517938E4,2.5671748E4,1.0645849E4,3.857564E4,1.5970818E3,1.6212458E4,1.1830706E3,7.8810754E2,3.407073E2,9.6265076E2,3.4542258E2],"tree_param":{"num_deleted":"0","num_feature":"5","num_nodes":"49","size_leaf_vector":"1"}},{"base_weights":[5.5618362E0,5.565856E0,4.5362134E0,5.567112E0,4.631355E0,4.886803E0,2.2387221E-1,5.567437E0,4.7040567E0,4.9284797E0,4.483914E0,4.9508953E0,2.2719188E-1,5.5680323E0,5.3560634E0,4.9229617E0,2.2462948E-1,4.964826E0,2.2512423E-1,2.315795E-1,2.235877E-1,2.5076455E-1,2.40707E-1,5.568479E0,5.3973646E0,5.4023232E0,5.2198224E0,4.984862E0,2.2692926E-1,2.525284E-1,2.4251013E-1,2.7843174E-1,2.7350914E-1,2.7244797E-1,2.639121E-1,2.7105764E-1,2.5927222E-1,2.6238024E-1,2.5103858E-1,2.5205013E-1,2.3098023E-1],"categories":[],"categories_nodes":[],"categories_segments":[],"categories_sizes":[],"default_left":[0,0,0,0,0,0,0,0,0,0,0,0,0,0,0,0,0,0,0,0,0,0,0,0,0,0,0,0,0,0,0,0,0,0,0,0,0,0,0,0,0],"id":3,"left_children":[1,3,5,7,9,11,-1,13,15,17,19,21,-1,23,25,27,-1,29,-1,-1,-1,-1,-1,31,33,35,37,39,-1,-1,-1,-1,-1,-1,-1,-1,-1,-1,-1,-1,-1],"loss_changes":[6.7776E4,1.92E4,1.30125E3,4.576E3,9.41625E2,1.7990625E2,0E0,2.08E3,2.6351562E2,9.0453125E1,5.6875E0,4.409375E1,0E0,1.216E3,2.615E2,4.925E1,0E0,4.1375E1,0E0,0E0,0E0,0E0,0E0,2.24E2,2.33E2,1.118125E2,3.828125E1,2.9871094E1,0E0,0E0,0E0,0E0,0E0,0E0,0E0,0E0,0E0,0E0,0E0,0E0,0E0],"parents":[2147483647,0,0,1,1,2,2,3,3,4,4,5,5,7,7,8,8,9,9,10,10,11,11,13,13,14,14,15,15,17,17,23,23,24,24,25,25,26,26,27,27],"right_children":[2,4,6,8,10,12,-1,14,16,18,20,22,-1,24,26,28,-1,30,-1,-1,-1,-1,-1,32,34,36,38,40,-1,-1,-1,-1,-1,-1,-1,-1,-1,-1,-1,-1,-1],"split_conditions":[8.24E2,2.64E2,1.28E3,1.26E2,4.32E2,3E1,2.2387221E-1,1.81E2,2.39E2,4.5E1,4.63E2,1.107E3,2.2719188E-1,4.5E1,5.04E2,4.09E2,2.2462948E-1,3.36E2,2.2512423E-1,2.315795E-1,2.235877E-1,2.5076455E-1,2.40707E-1,1.5E1,1.29E2,3.2E1,2E1,8E1,2.2692926E-1,2.525284E-1,2.4251013E-1,2.7843174E-1,2.7350914E-1,2.7244797E-1,2.639121E-1,2.7105764E-1,2.5927222E-1,2.6238024E-1,2.5103858E-1,2.5205013E-1,2.3098023E-1],"split_indices":[0,3,0,1,3,1,0,0,1,1,3,0,0,3,0,0,0,3,0,0,0,0,0,1,3,3,1,3,0,0,0,0,0,0,0,0,0,0,0,0,0],"split_type":[0,0,0,0,0,0,0,0,0,0,0,0,0,0,0,0,0,0,0,0,0,0,0,0,0,0,0,0,0,0,0,0,0,0,0,0,0,0,0,0,0],"sum_hessian":[1.6447504E7,1.6383288E7,6.421595E4,1.636129E7,2.1997963E4,9.207352E3,5.5008598E4,1.6355121E7,6.1691426E3,7.2849077E3,1.4713056E4,7.74631E3,1.4610417E3,1.6309168E7,4.5952703E4,3.0203162E3,3.1488264E3,6.7023975E3,5.8251013E2,1.0904214E3,1.3622635E4,5.242192E3,2.5041184E3,1.626658E7,4.25877E4,3.4275785E4,1.1676918E4,2.5910776E3,4.2923874E2,3.8096184E3,2.892779E3,1.6240741E7,2.5838973E4,2.9685564E4,1.2902135E4,3.151565E4,2.7601348E3,1.022448E4,1.452437E3,2.234787E3,3.5629037E2],"tree_param":{"num_deleted":"0","num_feature":"5","num_nodes":"41","size_leaf_vector":"1"}},{"base_weights":[5.3060536E0,5.3098493E0,4.3348413E0,5.3110332E0,4.4258223E0,4.667211E0,4.2791967E0,5.3113904E0,4.6145515E0,4.7091036E0,4.284564E0,4.720736E0,2.1518104E-1,2.1790855E-1,2.1371935E-1,5.3120513E0,5.151024E0,4.8639383E0,4.352193E0,4.7432966E0,2.1525478E-1,2.212466E-1,2.1365991E-1,4.783494E0,2.2945619E-1,5.312429E0,5.1563396E0,5.196209E0,5.019686E0,4.9563117E0,4.6599936E0,4.5164337E0,2.1382444E-1,4.804825E0,2.295949E-1,2.3984979E-1,2.2113077E-1,2.6562503E-1,2.5930473E-1,2.5984365E-1,2.5118002E-1,2.603171E-1,2.471303E-1,2.5172633E-1,2.373648E-1,2.4914478E-1,2.298245E-1,2.3706372E-1,2.2332124E-1,2.3095833E-1,2.16381E-1,2.421023E-1,2.3339282E-1],"categories":[],"categories_nodes":[],"categories_segments":[],"categories_sizes":[],"default_left":[0,0,0,0,0,0,0,0,0,0,0,0,0,0,0,0,0,0,0,0,0,0,0,0,0,0,0,0,0,0,0,0,0,0,0,0,0,0,0,0,0,0,0,0,0,0,0,0,0,0,0,0,0],"id":4,"left_children":[1,3,5,7,9,11,13,15,17,19,21,23,-1,-1,-1,25,27,29,31,33,-1,-1,-1,35,-1,37,39,41,43,45,47,49,-1,51,-1,-1,-1,-1,-1,-1,-1,-1,-1,-1,-1,-1,-1,-1,-1,-1,-1,-1,-1],"loss_changes":[6.0384E4,1.7088E4,1.15975E3,4.032E3,8.5346875E2,1.5746875E2,2.0625E0,1.696E3,5.256875E2,7.978125E1,4.40625E0,4.375E1,0E0,0E0,0E0,9.28E2,3.7075E2,5.746875E1,3.1453125E1,4.015625E1,0E0,0E0,0E0,4.90625E0,0E0,1.6E2,1.853125E2,1.0225E2,4.54375E1,5.1015625E0,6.25E-2,4.6503906E0,0E0,1.5E0,0E0,0E0,0E0,0E0,0E0,0E0,0E0,0E0,0E0,0E0,0E0,0E0,0E0,0E0,0E0,0E0,0E0,0E0,0E0],"parents":[2147483647,0,0,1,1,2,2,3,3,4,4,5,5,6,6,7,7,8,8,9,9,10,10,11,11,15,15,16,16,17,17,18,18,19,19,23,23,25,25,26,26,27,27,28,28,29,29,30,30,31,31,33,33],"right_children":[2,4,6,8,10,12,14,16,18,20,22,24,-1,-1,-1,26,28,30,32,34,-1,-1,-1,36,-1,38,40,42,44,46,48,50,-1,52,-1,-1,-1,-1,-1,-1,-1,-1,-1,-1,-1,-1,-1,-1,-1,-1,-1,-1,-1],"split_conditions":[8.24E2,2.64E2,1.28E3,9.8E1,4.32E2,4.2E1,1.512E3,1.2E2,1.87E2,4.5E1,4.63E2,1.107E3,2.1518104E-1,2.1790855E-1,2.1371935E-1,4.8E1,4.09E2,1.2E2,2.62E2,3.6E2,2.1525478E-1,2.212466E-1,2.1365991E-1,8E1,2.2945619E-1,2.8E1,1.52E2,1.09E2,4.5E1,1.09E2,4.56E2,5.7E1,2.1382444E-1,9.6E1,2.295949E-1,2.3984979E-1,2.2113077E-1,2.6562503E-1,2.5930473E-1,2.5984365E-1,2.5118002E-1,2.603171E-1,2.471303E-1,2.5172633E-1,2.373648E-1,2.4914478E-1,2.298245E-1,2.3706372E-1,2.2332124E-1,2.3095833E-1,2.16381E-1,2.421023E-1,2.3339282E-1],"split_indices":[0,3,0,1,3,1,0,0,1,1,3,0,0,0,0,3,0,0,1,3,0,0,0,3,0,1,3,3,3,3,0,0,0,0,0,0,0,0,0,0,0,0,0,0,0,0,0,0,0,0,0,0,0],"split_type":[0,0,0,0,0,0,0,0,0,0,0,0,0,0,0,0,0,0,0,0,0,0,0,0,0,0,0,0,0,0,0,0,0,0,0,0,0,0,0,0,0,0,0,0,0,0,0,0,0,0,0,0,0],"sum_hessian":[1.6382267E7,1.6318485E7,6.3782406E4,1.6296652E7,2.1832273E4,9.135036E3,5.4647367E4,1.6288295E7,8.357228E3,7.2535664E3,1.4578708E4,7.952361E3,1.1826755E3,3.085315E3,5.1562055E4,1.6221409E7,6.6886086E4,4.2755425E3,4.081685E3,6.677661E3,5.7590497E2,1.0629526E3,1.3515755E4,5.3607837E3,2.591577E3,1.6182115E7,3.9293625E4,4.973639E4,1.7149697E4,2.926659E3,1.3488835E3,1.2692874E3,2.8123977E3,4.7262124E3,1.9514489E3,5.155605E3,2.051789E2,1.6172916E7,9.199028E3,3.0072533E4,9.221092E3,4.7806688E4,1.9297029E3,1.6247044E4,9.0265265E2,2.7133472E3,2.1331186E2,9.334348E2,4.1544876E2,8.0682983E2,4.6245746E2,3.6892947E3,1.0369177E3],"tree_param":{"num_deleted":"0","num_feature":"5","num_nodes":"53","size_leaf_vector":"1"}},{"base_weights":[5.0637374E0,5.0673294E0,4.143705E0,5.0684514E0,4.230204E0,4.459315E0,4.0909505E0,5.0687833E0,4.3945127E0,4.4964085E0,4.0973964E0,4.5247097E0,4.186142E0,2.0828417E-1,2.043203E-1,5.0692897E0,4.874997E0,4.6370463E0,4.1634865E0,4.527744E0,2.057462E-1,2.0973177E-1,2.0410581E-1,2.2924481E-1,2.2004287E-1,2.1480663E-1,2.0360191E-1,5.0696363E0,4.8942747E0,4.9180126E0,4.758823E0,4.7248178E0,2.2162817E-1,4.3236217E0,2.045518E-1,2.3038569E-1,2.209355E-1,2.5350165E-1,2.5173923E-1,2.4658835E-1,2.3799928E-1,2.4635029E-1,2.2892535E-1,2.3927465E-1,2.3062491E-1,2.3756194E-1,2.1968754E-1,2.1997769E-1,2.0453058E-1],"categories":[],"categories_nodes":[],"categories_segments":[],"categories_sizes":[],"default_left":[0,0,0,0,0,0,0,0,0,0,0,0,0,0,0,0,0,0,0,0,0,0,0,0,0,0,0,0,0,0,0,0,0,0,0,0,0,0,0,0,0,0,0,0,0,0,0,0,0],"id":5,"left_children":[1,3,5,7,9,11,13,15,17,19,21,23,25,-1,-1,27,29,31,33,35,-1,-1,-1,-1,-1,-1,-1,37,39,41,43,45,-1,47,-1,-1,-1,-1,-1,-1,-1,-1,-1,-1,-1,-1,-1,-1,-1],"loss_changes":[5.3888E4,1.5264E4,1.038E3,3.616E3,7.5075E2,1.4315625E2,1.4375E0,1.568E3,4.2809375E2,6.78125E1,4.453125E0,3.4296875E1,4.671875E0,0E0,0E0,9.92E2,1.880625E2,4.88125E1,2.9867188E1,3.78125E1,0E0,0E0,0E0,0E0,0E0,0E0,0E0,1.92E2,1.3775E2,7.15625E1,2.2671875E1,2.7734375E0,0E0,4.2851562E0,0E0,0E0,0E0,0E0,0E0,0E0,0E0,0E0,0E0,0E0,0E0,0E0,0E0,0E0,0E0],"parents":[2147483647,0,0,1,1,2,2,3,3,4,4,5,5,6,6,7,7,8,8,9,9,10,10,11,11,12,12,15,15,16,16,17,17,18,18,19,19,27,27,28,28,29,29,30,30,31,31,33,33],"right_children":[2,4,6,8,10,12,14,16,18,20,22,24,26,-1,-1,28,30,32,34,36,-1,-1,-1,-1,-1,-1,-1,38,40,42,44,46,-1,48,-1,-1,-1,-1,-1,-1,-1,-1,-1,-1,-1,-1,-1,-1,-1],"split_conditions":[8.24E2,2.64E2,1.28E3,1.04E2,4.32E2,2.2E1,1.512E3,1.93E2,1.87E2,4.5E1,5.04E2,1.107E3,7.8E1,2.0828417E-1,2.043203E-1,6.3E1,5.04E2,1.28E2,2.62E2,3.36E2,2.057462E-1,2.0973177E-1,2.0410581E-1,2.2924481E-1,2.2004287E-1,2.1480663E-1,2.0360191E-1,1.9E1,1.76E2,1.2E2,1.3E1,9.7E1,2.2162817E-1,1.81E2,2.045518E-1,2.3038569E-1,2.209355E-1,2.5350165E-1,2.5173923E-1,2.4658835E-1,2.3799928E-1,2.4635029E-1,2.2892535E-1,2.3927465E-1,2.3062491E-1,2.3756194E-1,2.1968754E-1,2.1997769E-1,2.0453058E-1],"split_indices":[0,3,0,1,3,1,0,0,1,1,3,0,1,0,0,3,0,0,1,3,0,0,0,0,0,0,0,0,3,3,1,3,0,0,0,0,0,0,0,0,0,0,0,0,0,0,0,0,0],"split_type":[0,0,0,0,0,0,0,0,0,0,0,0,0,0,0,0,0,0,0,0,0,0,0,0,0,0,0,0,0,0,0,0,0,0,0,0,0,0,0,0,0,0,0,0,0,0,0,0,0],"sum_hessian":[1.6310665E7,1.6247227E7,6.3437598E4,1.6225471E7,2.1755785E4,9.073123E3,5.4364477E4,1.6217488E7,7.9835034E3,7.230286E3,1.4525499E4,7.3080825E3,1.7650405E3,3.064058E3,5.1300418E4,1.6175179E7,4.2309035E4,3.8854482E3,4.0980547E3,6.671423E3,5.5886334E2,1.9354227E3,1.2590076E4,4.8938643E3,2.4142185E3,8.800578E2,8.8498267E2,1.6143164E7,3.2014637E4,3.0846393E4,1.1462641E4,2.7030833E3,1.182365E3,1.2582646E3,2.8397903E3,3.8248674E3,2.8465554E3,1.5961346E7,1.8181789E5,2.4999307E4,7.015329E3,3.0037219E4,8.091739E2,9.668663E3,1.7939775E3,2.4909426E3,2.1214069E2,9.3552045E2,3.2274417E2],"tree_param":{"num_deleted":"0","num_feature":"5","num_nodes":"49","size_leaf_vector":"1"}},{"base_weights":[4.8342566E0,4.83764E0,3.9632816E0,4.838776E0,4.099073E0,4.2608805E0,3.9130175E0,4.8390465E0,4.1067758E0,4.373419E0,3.931383E0,4.319855E0,3.9901237E0,1.9912796E-1,1.9544189E-1,4.8395643E0,4.66878E0,4.294941E0,1.9627973E-1,4.400573E0,1.9625007E-1,2.0402494E-1,1.9539858E-1,4.375268E0,2.1022955E-1,2.0492116E-1,1.9479503E-1,4.8399043E0,4.7181387E0,4.7077518E0,4.5423317E0,4.3509874E0,1.9771756E-1,4.4505453E0,2.1474631E-1,2.1933906E-1,2.0130157E-1,2.420065E-1,2.39845E-1,2.3759611E-1,2.3201E-1,2.3596416E-1,2.249501E-1,2.2834115E-1,2.1833558E-1,2.195874E-1,2.0182498E-1,2.2382887E-1,2.137096E-1],"categories":[],"categories_nodes":[],"categories_segments":[],"categories_sizes":[],"default_left":[0,0,0,0,0,0,0,0,0,0,0,0,0,0,0,0,0,0,0,0,0,0,0,0,0,0,0,0,0,0,0,0,0,0,0,0,0,0,0,0,0,0,0,0,0,0,0,0,0],"id":6,"left_children":[1,3,5,7,9,11,13,15,17,19,21,23,25,-1,-1,27,29,31,-1,33,-1,-1,-1,35,-1,-1,-1,37,39,41,43,45,-1,47,-1,-1,-1,-1,-1,-1,-1,-1,-1,-1,-1,-1,-1,-1,-1],"loss_changes":[4.7776E4,1.3568E4,9.22875E2,3.2E3,1.1256875E3,1.27484375E2,6.25E-2,1.408E3,1.865E2,9.7375E1,3.790625E1,2.90625E1,7.109375E-1,0E0,0E0,6.4E2,2.2E2,3.844922E1,0E0,2.7703125E1,0E0,0E0,0E0,2.421875E0,0E0,0E0,0E0,1.6E2,9.64375E1,6.875E1,2.9796875E1,1.4234375E1,0E0,8.3828125E0,0E0,0E0,0E0,0E0,0E0,0E0,0E0,0E0,0E0,0E0,0E0,0E0,0E0,0E0,0E0],"parents":[2147483647,0,0,1,1,2,2,3,3,4,4,5,5,6,6,7,7,8,8,9,9,10,10,11,11,12,12,15,15,16,16,17,17,19,19,23,23,27,27,28,28,29,29,30,30,31,31,33,33],"right_children":[2,4,6,8,10,12,14,16,18,20,22,24,26,-1,-1,28,30,32,-1,34,-1,-1,-1,36,-1,-1,-1,38,40,42,44,46,-1,48,-1,-1,-1,-1,-1,-1,-1,-1,-1,-1,-1,-1,-1,-1,-1],"split_conditions":[8.24E2,2.22E2,1.28E3,1.26E2,3.92E2,2.5E1,1.512E3,1.68E2,2.39E2,5.9E1,4.63E2,1.107E3,7.8E1,1.9912796E-1,1.9544189E-1,3.8E1,5.04E2,4.09E2,1.9627973E-1,3.12E2,1.9625007E-1,2.0402494E-1,1.9539858E-1,6.7E1,2.1022955E-1,2.0492116E-1,1.9479503E-1,4.1E1,1.09E2,3.8E1,2E1,8E1,1.9771756E-1,1.52E2,2.1474631E-1,2.1933906E-1,2.0130157E-1,2.420065E-1,2.39845E-1,2.3759611E-1,2.3201E-1,2.3596416E-1,2.249501E-1,2.2834115E-1,2.1833558E-1,2.195874E-1,2.0182498E-1,2.2382887E-1,2.137096E-1],"split_indices":[0,3,0,1,3,1,0,0,1,1,3,0,1,0,0,3,0,0,0,3,0,0,0,3,0,0,0,0,3,1,1,3,0,0,0,0,0,0,0,0,0,0,0,0,0,0,0,0,0],"split_type":[0,0,0,0,0,0,0,0,0,0,0,0,0,0,0,0,0,0,0,0,0,0,0,0,0,0,0,0,0,0,0,0,0,0,0,0,0,0,0,0,0,0,0,0,0,0,0,0,0],"sum_hessian":[1.6231695E7,1.6168889E7,6.2806562E4,1.6144048E7,2.4840451E4,9.063054E3,5.3743508E4,1.6138084E7,5.9639717E3,9.413927E3,1.5426523E4,7.4297954E3,1.6332588E3,2.9931494E3,5.075036E4,1.6089114E7,4.8970066E4,2.9144656E3,3.0495059E3,8.868102E3,5.458256E2,2.069798E3,1.3356726E4,4.992632E3,2.4371633E3,7.4009937E2,8.9315936E2,1.6044113E7,4.500086E4,3.7405438E4,1.1564627E4,2.4925254E3,4.2194022E2,5.992445E3,2.875657E3,4.8221045E3,1.705273E2,1.5960327E7,8.378599E4,3.1351363E4,1.3649497E4,3.5426816E4,1.9786204E3,1.0127288E4,1.4373392E3,2.1950608E3,2.9746457E2,5.200424E3,7.920206E2],"tree_param":{"num_deleted":"0","num_feature":"5","num_nodes":"49","size_leaf_vector":"1"}},{"base_weights":[4.616906E0,4.6201167E0,3.7917733E0,4.621187E0,3.9209628E0,4.0749006E0,3.7441816E0,4.621501E0,4.065142E0,4.181398E0,3.7618454E0,4.130102E0,3.8161461E0,1.905542E-1,1.8700725E-1,4.6221004E0,4.5011835E0,4.2601233E0,3.8084805E0,4.208145E0,1.8908459E-1,1.9520815E-1,1.869522E-1,4.182499E0,2.0099603E-1,1.960144E-1,1.8632168E-1,4.6224117E0,4.5225816E0,4.5381866E0,4.385703E0,4.3338866E0,4.076002E0,3.9585268E0,1.8704997E-1,4.2549696E0,2.0542577E-1,2.0965372E-1,1.9330499E-1,2.3113237E-1,2.301925E-1,2.274692E-1,2.2202456E-1,2.2739649E-1,2.2042404E-1,2.2111289E-1,2.1482682E-1,2.1764863E-1,2.0156422E-1,2.063063E-1,1.9294618E-1,2.0226745E-1,1.8932338E-1,2.1338928E-1,1.968602E-1],"categories":[],"categories_nodes":[],"categories_segments":[],"categories_sizes":[],"default_left":[0,0,0,0,0,0,0,0,0,0,0,0,0,0,0,0,0,0,0,0,0,0,0,0,0,0,0,0,0,0,0,0,0,0,0,0,0,0,0,0,0,0,0,0,0,0,0,0,0,0,0,0,0,0,0],"id":7,"left_children":[1,3,5,7,9,11,13,15,17,19,21,23,25,-1,-1,27,29,31,33,35,-1,-1,-1,37,-1,-1,-1,39,41,43,45,47,49,51,-1,53,-1,-1,-1,-1,-1,-1,-1,-1,-1,-1,-1,-1,-1,-1,-1,-1,-1,-1,-1],"loss_changes":[4.2752E4,1.2032E4,8.283125E2,2.816E3,1.00378125E3,1.12765625E2,1.875E-1,1.152E3,4.3754688E2,8.375E1,3.496875E1,2.5921875E1,2.9492188E-1,0E0,0E0,4.8E2,3.20375E2,5.2210938E1,2.4925781E1,2.321875E1,0E0,0E0,0E0,4.921875E-1,0E0,0E0,0E0,6.4E1,8.94375E1,5.625E1,4.403125E1,3.5703125E0,2.7539062E-1,2.6113281E0,0E0,7.265625E0,0E0,0E0,0E0,0E0,0E0,0E0,0E0,0E0,0E0,0E0,0E0,0E0,0E0,0E0,0E0,0E0,0E0,0E0,0E0],"parents":[2147483647,0,0,1,1,2,2,3,3,4,4,5,5,6,6,7,7,8,8,9,9,10,10,11,11,12,12,15,15,16,16,17,17,18,18,19,19,23,23,27,27,28,28,29,29,30,30,31,31,32,32,33,33,35,35],"right_children":[2,4,6,8,10,12,14,16,18,20,22,24,26,-1,-1,28,30,32,34,36,-1,-1,-1,38,-1,-1,-1,40,42,44,46,48,50,52,-1,54,-1,-1,-1,-1,-1,-1,-1,-1,-1,-1,-1,-1,-1,-1,-1,-1,-1,-1,-1],"split_conditions":[8.24E2,2.22E2,1.28E3,7.8E1,3.92E2,2.5E1,1.512E3,9.6E1,1.87E2,4.9E1,4.63E2,1.107E3,7.8E1,1.905542E-1,1.8700725E-1,3E1,3.76E2,1.2E2,2.62E2,3.12E2,1.8908459E-1,1.9520815E-1,1.869522E-1,8E1,2.0099603E-1,1.960144E-1,1.8632168E-1,1.3E1,1.09E2,4E1,6.25E2,9.7E1,5.63E2,5.7E1,1.8704997E-1,2.8E2,2.0542577E-1,2.0965372E-1,1.9330499E-1,2.3113237E-1,2.301925E-1,2.274692E-1,2.2202456E-1,2.2739649E-1,2.2042404E-1,2.2111289E-1,2.1482682E-1,2.1764863E-1,2.0156422E-1,2.063063E-1,1.9294618E-1,2.0226745E-1,1.8932338E-1,2.1338928E-1,1.968602E-1],"split_indices":[0,3,0,1,3,1,0,0,1,1,3,0,1,0,0,3,0,0,1,3,0,0,0,3,0,0,0,0,3,3,0,3,0,0,0,0,0,0,0,0,0,0,0,0,0,0,0,0,0,0,0,0,0,0,0],"split_type":[0,0,0,0,0,0,0,0,0,0,0,0,0,0,0,0,0,0,0,0,0,0,0,0,0,0,0,0,0,0,0,0,0,0,0,0,0,0,0,0,0,0,0,0,0,0,0,0,0,0,0,0,0,0,0],"sum_hessian":[1.6149972E7,1.6087372E7,6.2599438E4,1.6062772E7,2.4600688E4,8.996101E3,5.3603336E4,1.6053705E7,9.066779E3,9.320349E3,1.5280339E4,7.4020225E3,1.5940779E3,2.9965413E3,5.0606793E4,1.5974105E7,7.9599734E4,5.1436514E3,3.923128E3,8.726839E3,5.935091E2,2.0865742E3,1.3193765E4,4.9914023E3,2.41062E3,7.1795215E2,8.7612573E2,1.5924264E7,4.98409E4,6.0254246E4,1.9345484E4,3.6563115E3,1.4873397E3,1.1991395E3,2.7239885E3,5.908332E3,2.818507E3,4.8181113E3,1.7329102E2,1.5724332E7,1.999317E5,3.7532125E4,1.2308771E4,5.6012754E4,4.2414917E3,1.3686098E4,5.6593877E3,3.4267893E3,2.2952238E2,1.1937046E3,2.9363504E2,7.820166E2,4.1712286E2,5.6673315E3,2.4100046E2],"tree_param":{"num_deleted":"0","num_feature":"5","num_nodes":"55","size_leaf_vector":"1"}},{"base_weights":[4.4111032E0,4.414126E0,3.630248E0,4.415139E0,3.751507E0,3.8986163E0,1.7925563E-1,4.4153795E0,3.7605524E0,3.9973083E0,3.6021159E0,3.951182E0,1.8270609E-1,4.415817E0,4.249158E0,3.9476776E0,1.8070507E-1,4.023539E0,1.8086979E-1,1.8683796E-1,1.7901967E-1,2.000567E-1,1.9231735E-1,4.416255E0,4.3422875E0,4.279627E0,4.1277375E0,4.044715E0,1.8796983E-1,4.0679626E0,1.9645679E-1,2.208159E-1,2.1367323E-1,2.1821181E-1,2.1240608E-1,2.1460569E-1,2.0399342E-1,2.0745309E-1,1.9877595E-1,2.0377381E-1,1.8208726E-1,2.0474322E-1,1.9637857E-1],"categories":[],"categories_nodes":[],"categories_segments":[],"categories_sizes":[],"default_left":[0,0,0,0,0,0,0,0,0,0,0,0,0,0,0,0,0,0,0,0,0,0,0,0,0,0,0,0,0,0,0,0,0,0,0,0,0,0,0,0,0,0,0],"id":8,"left_children":[1,3,5,7,9,11,-1,13,15,17,19,21,-1,23,25,27,-1,29,-1,-1,-1,-1,-1,31,33,35,37,39,-1,41,-1,-1,-1,-1,-1,-1,-1,-1,-1,-1,-1,-1,-1],"loss_changes":[3.792E4,1.072E4,7.363125E2,2.528E3,8.82875E2,1.00015625E2,0E0,1.152E3,1.4644531E2,7.740625E1,3.1109375E1,2.29375E1,0E0,5.12E2,1.375E2,3.1636719E1,0E0,2.0171875E1,0E0,0E0,0E0,0E0,0E0,1.28E2,1.7625E2,6.6E1,1.090625E1,5.970703E0,0E0,5.953125E0,0E0,0E0,0E0,0E0,0E0,0E0,0E0,0E0,0E0,0E0,0E0,0E0,0E0],"parents":[2147483647,0,0,1,1,2,2,3,3,4,4,5,5,7,7,8,8,9,9,10,10,11,11,13,13,14,14,15,15,17,17,23,23,24,24,25,25,26,26,27,27,29,29],"right_children":[2,4,6,8,10,12,-1,14,16,18,20,22,-1,24,26,28,-1,30,-1,-1,-1,-1,-1,32,34,36,38,40,-1,42,-1,-1,-1,-1,-1,-1,-1,-1,-1,-1,-1,-1,-1],"split_conditions":[8.24E2,2.22E2,1.28E3,1.26E2,3.92E2,2.5E1,1.7925563E-1,1.93E2,2.18E2,4.5E1,4.63E2,1.107E3,1.8270609E-1,1.1E1,5.63E2,1.28E2,1.8070507E-1,3.12E2,1.8086979E-1,1.8683796E-1,1.7901967E-1,2.000567E-1,1.9231735E-1,3.5E1,8.9E1,3.8E1,2E1,1.29E2,1.8796983E-1,1.36E2,1.9645679E-1,2.208159E-1,2.1367323E-1,2.1821181E-1,2.1240608E-1,2.1460569E-1,2.0399342E-1,2.0745309E-1,1.9877595E-1,2.0377381E-1,1.8208726E-1,2.0474322E-1,1.9637857E-1],"split_indices":[0,3,0,1,3,1,0,0,1,1,3,0,0,3,0,0,0,3,0,0,0,0,0,1,3,1,1,3,0,0,0,0,0,0,0,0,0,0,0,0,0,0,0],"split_type":[0,0,0,0,0,0,0,0,0,0,0,0,0,0,0,0,0,0,0,0,0,0,0,0,0,0,0,0,0,0,0,0,0,0,0,0,0,0,0,0,0,0,0],"sum_hessian":[1.6061101E7,1.5999159E7,6.1942043E4,1.5974724E7,2.443457E4,8.905559E3,5.3036484E4,1.5968861E7,5.8635283E3,9.22705E3,1.5207521E4,7.3172197E3,1.5883391E3,1.5926906E7,4.195445E4,2.5628884E3,3.3006396E3,8.622151E3,6.0489777E2,2.0888657E3,1.3118655E4,4.930662E3,2.3865579E3,1.5832568E7,9.433801E4,3.351107E4,8.443379E3,1.6777296E3,8.851589E2,5.834502E3,2.7876497E3,1.5825523E7,7.0456104E3,7.6468984E4,1.7869023E4,3.152027E4,1.9907998E3,7.3828564E3,1.0605227E3,1.550274E3,1.274555E2,4.872633E3,9.618692E2],"tree_param":{"num_deleted":"0","num_feature":"5","num_nodes":"43","size_leaf_vector":"1"}},{"base_weights":[4.2162347E0,4.219163E0,3.4951758E0,4.220075E0,3.5636168E0,3.763471E0,1.7170681E-1,4.220344E0,3.6975088E0,3.8028257E0,3.449865E0,3.798672E0,1.7114668E-1,4.2208652E0,4.121649E0,3.8879802E0,3.4905622E0,3.8268347E0,1.7232354E-1,3.5775301E0,1.7148031E-1,3.8789613E0,3.716933E0,4.2211385E0,4.1159844E0,4.150521E0,4.040704E0,3.9477785E0,1.867842E-1,3.6173322E0,1.7157392E-1,3.8563445E0,1.8534487E-1,1.8043733E-1,1.685761E-1,1.9515015E-1,1.8168302E-1,1.8658893E-1,1.6998884E-1,2.1106589E-1,2.0928648E-1,2.0728083E-1,2.0160642E-1,2.0803788E-1,2.0035248E-1,2.0243645E-1,1.8937482E-1,1.989064E-1,1.8899374E-1,1.8419258E-1,1.711794E-1,1.9523889E-1,1.8935832E-1],"categories":[],"categories_nodes":[],"categories_segments":[],"categories_sizes":[],"default_left":[0,0,0,0,0,0,0,0,0,0,0,0,0,0,0,0,0,0,0,0,0,0,0,0,0,0,0,0,0,0,0,0,0,0,0,0,0,0,0,0,0,0,0,0,0,0,0,0,0,0,0,0,0],"id":9,"left_children":[1,3,5,7,9,11,-1,13,15,17,19,21,-1,23,25,27,29,31,-1,33,-1,35,37,39,41,43,45,47,-1,49,-1,51,-1,-1,-1,-1,-1,-1,-1,-1,-1,-1,-1,-1,-1,-1,-1,-1,-1,-1,-1,-1,-1],"loss_changes":[3.3728E4,9.472E3,1.044625E3,2.24E3,5.88375E2,1.3035938E2,0E0,8E2,3.0875E2,4.76875E1,2.6515625E1,5.665625E1,0E0,4.48E2,1.78E2,2.3957031E1,1.7015625E1,9.265625E0,0E0,8.8671875E-1,0E0,1.7898438E1,1.26796875E1,9.6E1,8.5375E1,7.35E1,2.928125E1,4.21875E-1,0E0,3.2490234E0,0E0,3.0234375E0,0E0,0E0,0E0,0E0,0E0,0E0,0E0,0E0,0E0,0E0,0E0,0E0,0E0,0E0,0E0,0E0,0E0,0E0,0E0,0E0,0E0],"parents":[2147483647,0,0,1,1,2,2,3,3,4,4,5,5,7,7,8,8,9,9,10,10,11,11,13,13,14,14,15,15,16,16,17,17,19,19,21,21,22,22,23,23,24,24,25,25,26,26,27,27,29,29,31,31],"right_children":[2,4,6,8,10,12,-1,14,16,18,20,22,-1,24,26,28,30,32,-1,34,-1,36,38,40,42,44,46,48,-1,50,-1,52,-1,-1,-1,-1,-1,-1,-1,-1,-1,-1,-1,-1,-1,-1,-1,-1,-1,-1,-1,-1,-1],"split_conditions":[7.04E2,2.48E2,1.28E3,9.3E1,3.92E2,6.7E1,1.7170681E-1,8.4E1,1.87E2,5.7E1,4.63E2,9.52E2,1.7114668E-1,4E1,3.05E2,1.2E2,2.62E2,9.6E1,1.7232354E-1,1.1E1,1.7148031E-1,3.6E1,2.5E1,6E0,1.25E2,5.6E1,6.4E1,3.6E1,1.867842E-1,1.81E2,1.7157392E-1,3.12E2,1.8534487E-1,1.8043733E-1,1.685761E-1,1.9515015E-1,1.8168302E-1,1.8658893E-1,1.6998884E-1,2.1106589E-1,2.0928648E-1,2.0728083E-1,2.0160642E-1,2.0803788E-1,2.0035248E-1,2.0243645E-1,1.8937482E-1,1.989064E-1,1.8899374E-1,1.8419258E-1,1.711794E-1,1.9523889E-1,1.8935832E-1],"split_indices":[0,3,0,1,3,1,0,0,1,1,3,0,0,3,0,0,1,0,0,1,0,3,3,1,3,3,3,3,0,0,0,3,0,0,0,0,0,0,0,0,0,0,0,0,0,0,0,0,0,0,0,0,0],"split_type":[0,0,0,0,0,0,0,0,0,0,0,0,0,0,0,0,0,0,0,0,0,0,0,0,0,0,0,0,0,0,0,0,0,0,0,0,0,0,0,0,0,0,0,0,0,0,0,0,0,0,0,0,0],"sum_hessian":[1.5965145E7,1.5900568E7,6.4576242E4,1.5878464E7,2.2104025E4,1.1957485E4,5.2618758E4,1.5870288E7,8.1760757E3,7.113202E3,1.4990824E4,1.0828044E4,1.1294409E3,1.5786944E7,8.334387E4,4.2482466E3,3.9278293E3,6.6550845E3,4.5811768E2,2.029011E3,1.29618125E4,5.4390225E3,5.3890215E3,1.5745859E7,4.10852E4,6.139505E4,2.1948816E4,3.0325925E3,1.2156538E3,1.2295339E3,2.6982954E3,5.315971E3,1.3391133E3,1.7476707E3,2.8134042E2,4.9399507E3,4.990718E2,5.137765E3,2.5125674E2,1.5666409E7,7.944967E4,3.032189E4,1.076331E4,5.7280043E4,4.1150093E3,2.1260037E4,6.887792E2,2.5491277E3,4.834649E2,9.018736E2,3.276603E2,3.0942E3,2.2217715E3],"tree_param":{"num_deleted":"0","num_feature":"5","num_nodes":"53","size_leaf_vector":"1"}}]},"name":"gbtree"},"learner_model_param":{"base_score":"[5E-1]","boost_from_average":"1","num_class":"0","num_feature":"5","num_target":"1"},"objective":{"aft_loss_param":{"aft_loss_distribution":"normal","aft_loss_distribution_scale":"1.20000005"},"name":"survival:aft"}},"version":[3,2,0]}